4 8 -1 1 10 1 0.00908610628057
8 7 1 1 5 0 -164.094080245
8 8 -1 -1 10 1 0.00123185046842
5 9 1 -1 1 -1 -1.37913509398
11 4 -1 -1 8 -1 0.0
10 11 -1 -1 10 -1 0.000284445883224
1 3 1 1 2 -1 0.598395241607
5 0 -1 1 8 1 0.0110690243205
0 0 1 -1 4 0 0.394693213604
4 11 1 1 7 1 7.5161491353
2 6 -1 -1 11 0 0.0531574804868
1 10 -1 1 9 0 0.0809602455953
5 2 1 1 3 -1 7.0406786707
1 10 -1 1 8 1 0.0929184622798
3 7 1 1 8 -1 3.67925888292
10 2 -1 -1 1 -1 0.00051089888087
10 11 1 -1 2 -1 -561.606034988
7 6 1 1 7 0 34.3889999818
8 3 1 1 11 0 -197.846185582
2 3 1 1 9 1 2.25990569867
2 9 -1 -1 7 -1 0.0505322586094
-1 0 -1 1 6 0 0.0
9 8 -1 1 1 1 0.0
7 10 1 1 1 -1 -71.5700087469
1 7 1 1 4 -1 0.872260405291
5 0 -1 -1 10 -1 0.00620159100883
7 10 1 -1 9 1 49.5870911677
11 1 -1 1 2 0 0.0
1 8 1 1 8 1 1.25192294608
3 8 -1 -1 5 -1 0.0330643869821
0 7 -1 1 5 -1 0.280264472421
6 5 1 1 7 0 27.7915565519
0 3 1 1 2 -1 0.360735705249
7 11 -1 -1 10 0 0.00208063553788
4 1 1 -1 4 0 6.6619505438
10 9 1 -1 8 1 357.81434468
5 8 -1 -1 9 -1 0.00776836738766
0 9 -1 1 10 0 0.307966602445
8 8 -1 1 4 1 0.000932209353304
4 8 -1 1 2 1 0.0240369116505
10 5 1 1 8 0 47.3683927277
8 4 1 1 2 1 68.7924509561
3 0 -1 1 3 0 0.0392300793014
5 0 -1 1 9 0 0.00785390816023
5 7 1 -1 6 0 8.43243303653
1 10 1 -1 7 -1 0.899201743924
8 6 -1 -1 9 -1 0.00133804011621
-1 11 -1 -1 7 1 0.440473991725
7 1 1 1 8 0 -26.9572230976
1 4 -1 1 5 0 0.211863878991
10 11 -1 -1 11 0 0.000387070254331
6 7 1 1 11 0 20.4844224745
4 9 -1 1 8 1 0.0187278861816
2 5 1 -1 1 1 1.10010697727
1 9 1 1 10 1 1.15783124088
1 2 -1 1 10 -1 0.114722459901
8 3 -1 -1 8 1 0.00129219186716
5 1 -1 1 5 1 0.010563592701
7 8 -1 -1 9 -1 0.00202727697974
3 2 1 1 10 -1 3.59502003907
0 4 1 1 8 1 0.390093643598
2 2 -1 1 7 1 0.066812439406
1 2 -1 1 9 -1 0.151681171905
0 11 -1 1 11 1 0.200247401211
8 6 -1 -1 3 0 0.00189200185288
0 4 -1 1 1 -1 0.0
0 7 -1 1 7 1 0.371479789096
3 8 -1 -1 7 1 0.0253943902851
3 9 1 1 7 -1 3.97617619993
9 1 1 -1 8 -1 -230.012242193
10 6 -1 1 5 -1 0.000342869761343
7 11 -1 -1 1 1 0.00250329939885
5 0 -1 1 11 -1 0.00506383976444
7 11 1 -1 1 -1 -88.4390433304
0 0 1 -1 11 -1 0.576652847831
1 9 -1 -1 6 0 0.105451568403
7 4 -1 1 2 1 0.00332211024942
4 0 1 -1 10 1 -2.69736882534
4 0 1 -1 11 0 -3.46574464218
1 1 -1 1 2 -1 0.142536372931
0 2 -1 1 2 0 0.198704194971
9 11 -1 1 10 1 0.000713529610434
8 0 1 1 5 1 -62.5968344718
2 8 1 1 9 0 1.37065790333
3 4 -1 -1 1 1 0.0240480238758
6 5 -1 1 2 1 0.00554968166206
8 2 -1 -1 10 1 0.00129461518677
5 1 -1 1 7 -1 0.00921861150458
9 1 -1 -1 8 1 0.000641813532442
0 9 -1 1 11 0 0.282695469947
5 4 -1 1 1 -1 0.0100453862127
11 3 1 -1 2 -1 482.557927024
1 10 1 1 7 1 1.00720885644
6 3 -1 1 0 0 0.00449287946029
6 11 -1 -1 4 -1 0.00495880765486
3 7 1 1 7 1 3.90672303744
5 6 -1 -1 6 -1 0.00778706531561
6 9 1 -1 11 1 15.0703090776
0 1 1 1 0 -1 0.0
10 7 -1 1 3 0 0.000282947636658
1 8 -1 1 4 -1 0.131001117951
8 0 -1 1 8 1 0.00213951131781
4 1 1 -1 9 -1 6.73664102092
6 11 -1 1 11 1 0.00527151467547
7 9 -1 1 2 0 0.0
1 6 1 -1 8 -1 0.685606877835
4 4 -1 -1 7 0 0.020987197144
10 6 -1 1 2 0 0.000272231811647
4 11 -1 -1 6 -1 0.0110868751883
6 7 -1 1 6 0 0.0053089276356
9 5 -1 -1 9 0 0.000831073025893
1 1 -1 1 11 1 0.186793308664
6 1 -1 1 8 -1 0.0
2 4 -1 -1 2 0 0.0
4 0 -1 -1 4 1 0.0219696801792
9 2 -1 1 0 0 0.000628457987187
5 10 1 -1 4 -1 8.98181620044
8 1 -1 1 2 0 0.00153153150834
0 10 1 -1 10 0 0.473217137432
1 8 -1 -1 5 0 0.105439292681
0 10 1 -1 11 1 0.477925541885
7 5 1 -1 0 0 -86.578017984
5 3 -1 1 3 0 0.00838362603969
2 0 -1 -1 0 1 0.100770670576
6 4 -1 1 6 0 0.0
7 0 1 1 11 1 -75.335626731
11 11 1 1 7 0 -949.319799087
8 1 1 1 10 1 -34.080240192
-1 0 -1 1 2 1 0.0
9 10 -1 -1 5 -1 0.0
5 11 -1 -1 11 -1 0.00892550153123
4 8 -1 -1 9 -1 0.014036734353
-1 11 -1 -1 9 -1 0.382531480848
9 4 1 1 10 -1 -243.408021986
8 7 1 1 8 -1 82.2339326854
3 3 -1 1 1 0 0.0448910300185
2 7 1 1 10 -1 1.67865649189
9 6 -1 1 6 0 0.000812554852053
4 5 -1 -1 3 1 0.0187161048678
2 9 -1 1 4 1 0.0699713620406
1 6 -1 -1 1 0 0.0
3 11 -1 -1 9 -1 0.0263767452916
2 5 -1 -1 3 1 0.0536212403517
5 10 1 -1 11 0 10.3654298023
4 3 1 1 6 1 5.31430981002
5 11 -1 1 5 -1 0.00509699212241
10 4 -1 -1 5 1 0.000461164561399
4 6 1 -1 9 -1 4.23027627931
8 11 1 1 2 -1 -175.388132523
3 7 -1 1 7 0 0.038479229152
2 5 -1 -1 11 -1 0.0600778606517
5 9 1 1 9 1 19.2537289064
1 0 -1 -1 9 -1 0.116061149139
3 2 -1 -1 6 0 0.0363638000807
3 2 -1 -1 7 1 0.0361224093563
10 4 -1 1 3 0 0.000386717556153
2 8 -1 1 3 0 0.0367171690593
8 4 -1 -1 6 -1 0.00226450133607
5 9 1 1 8 0 14.9098064684
6 5 -1 -1 9 0 0.00585508503976
6 2 1 1 8 0 30.5261392245
10 7 1 1 4 0 -605.087157137
2 11 1 -1 7 1 1.7825650654
2 11 1 -1 6 0 1.09715311804
7 11 1 -1 5 0 -26.4441021687
0 3 1 -1 9 -1 0.525593893174
1 0 -1 1 8 0 0.145626069257
0 7 -1 -1 7 -1 0.20556353932
5 6 1 1 11 0 0.0
11 8 1 -1 5 -1 -840.049708957
9 7 1 -1 5 1 128.361190516
8 8 -1 -1 8 -1 0.00100457478327
0 8 -1 1 7 1 0.251204425701
6 9 -1 -1 1 0 0.0055959505378
0 11 -1 1 2 -1 0.12716866612
3 8 -1 1 8 1 0.044769635508
11 8 1 1 6 1 -998.537987241
2 8 -1 1 6 0 0.054660464764
7 1 1 -1 9 -1 -82.3122011304
7 2 1 1 2 0 49.4253370159
9 1 1 -1 2 -1 140.070104296
11 10 -1 1 11 -1 0.000186847026909
2 5 1 1 0 1 0.0
5 9 -1 -1 0 1 0.0
1 3 1 -1 0 1 0.766520291377
1 11 1 -1 4 1 0.916043524004
8 8 1 1 9 1 98.5373325816
7 6 -1 -1 10 0 0.00236475941284
2 6 1 -1 7 -1 1.3160630486
2 0 -1 1 9 -1 0.055761320573
1 0 -1 1 3 0 0.207418900164
5 11 -1 -1 2 -1 0.0
2 4 1 1 4 0 1.78588269466
0 8 1 1 3 0 0.0946629091256
2 6 1 1 10 -1 2.10159863338
9 0 -1 1 7 1 0.000567236806267
5 7 1 1 4 1 -18.3807935685
0 6 -1 -1 7 -1 0.249304592925
4 8 -1 1 7 0 0.0186417764883
2 11 1 -1 3 -1 0.0
1 3 -1 1 7 -1 0.151278765525
0 3 -1 1 1 0 0.166314249156
4 8 1 1 10 0 5.98026142386
0 10 -1 -1 1 0 0.0450640197329
11 11 -1 -1 10 -1 0.0
9 4 1 -1 11 -1 -343.020911088
10 9 1 1 0 1 -653.847245052
1 4 1 1 11 1 0.760282819346
8 6 -1 1 5 0 0.00127326185442
4 0 1 -1 2 -1 5.86860746035
5 9 1 -1 5 0 13.566500821
5 4 -1 1 2 -1 0.00977725302387
2 10 -1 -1 3 0 0.0465398740379
3 7 -1 1 2 -1 0.0088249852729
3 0 1 1 4 0 3.40645367224
3 0 1 1 5 1 3.22425451024
4 10 1 -1 0 0 0.0
5 5 1 1 7 0 9.96307588556
10 0 1 -1 5 -1 -444.876939956
0 11 -1 -1 0 -1 0.0
2 5 -1 -1 7 -1 0.0647075241731
10 0 1 1 0 1 339.360446888
4 2 -1 -1 11 1 0.0135147227458
1 0 -1 1 9 0 0.0
2 1 1 1 9 0 1.16027077388
5 0 -1 -1 9 0 0.00717897357927
7 5 1 -1 11 1 -81.9392673396
9 9 1 1 5 -1 -323.956372615
1 6 -1 1 6 -1 0.109923179905
9 6 -1 1 3 -1 0.000694256106066
11 1 1 1 0 1 721.416725989
9 9 -1 -1 9 -1 0.000677012910595
6 2 -1 -1 9 1 0.00371839874493
2 2 1 1 3 -1 1.48872490723
4 5 1 1 7 0 7.71417090092
11 5 -1 -1 6 0 0.00019443641191
11 4 1 -1 11 0 -915.49504801
10 10 1 1 7 -1 -538.6200116
7 4 1 -1 6 1 -54.4110745489
11 3 -1 -1 2 1 0.000299413236389
4 6 -1 -1 5 1 0.0181867304482
6 10 -1 1 10 0 0.00521994393167
2 5 1 1 7 0 1.61833861116
7 7 1 -1 2 -1 -65.2617995227
10 2 -1 1 1 -1 0.000481517809427
11 11 -1 1 11 1 0.000150420596877
9 8 1 -1 5 0 -105.270277918
5 0 1 -1 0 1 14.9851567605
9 9 1 -1 9 1 167.293418697
2 8 -1 -1 1 1 0.0
1 8 -1 1 3 1 0.209501819833
11 2 1 1 7 1 -1000.0
6 7 -1 1 3 -1 0.00541661171212
8 11 1 1 4 -1 -202.159705932
2 5 1 1 9 1 2.49599371951
7 10 1 -1 1 -1 -104.44664772
6 0 -1 1 1 -1 0.00860547037931
4 3 -1 1 3 -1 0.0214923075021
8 11 1 -1 7 1 25.3577699183
8 11 1 -1 6 0 -150.868823777
11 1 1 -1 10 0 -1000.0
1 8 -1 -1 0 1 0.0
2 8 1 -1 11 1 0.672412887045
10 3 -1 -1 5 0 0.000662385917466
-1 11 -1 -1 6 0 0.30554661462
9 8 -1 -1 6 1 0.000439010793633
9 6 -1 1 5 0 0.000755320155225
9 8 -1 -1 7 0 0.000511846836566
6 3 1 1 2 -1 0.0
2 0 -1 -1 7 0 0.0700029098853
1 5 -1 -1 9 -1 0.117216448981
4 8 1 -1 10 1 3.49537682532
0 6 -1 -1 11 -1 0.21035884676
4 6 1 -1 7 1 3.82674221727
5 1 1 1 2 0 8.19331584436
5 7 -1 -1 9 0 0.00844645145384
5 5 1 -1 8 1 -7.68187486266
11 5 1 -1 4 0 650.842443422
10 4 -1 -1 11 1 0.000552020004496
3 8 -1 1 11 0 0.0
8 6 1 1 1 -1 -155.449242259
5 1 1 -1 0 -1 17.7247441307
1 2 1 1 10 0 0.790913303155
11 3 -1 1 4 -1 0.000197499191507
6 5 -1 1 4 -1 0.00711552468061
0 7 1 -1 3 0 0.240139285758
4 1 -1 -1 9 0 0.0256200297541
0 7 1 -1 2 1 0.385531705198
9 1 -1 -1 2 0 0.0011527817778
0 2 1 1 1 -1 0.107057537486
8 8 1 1 8 0 63.5690102353
9 10 -1 -1 9 -1 0.000553858914609
9 11 1 1 10 0 148.765475873
2 6 1 -1 2 -1 0.806321743611
0 10 -1 1 2 1 0.0
10 10 1 -1 6 1 -382.654152485
0 5 1 1 10 -1 0.37673110646
0 1 -1 1 7 -1 0.253385059547
1 1 1 -1 7 0 0.72586571776
8 10 1 1 7 -1 -78.9047573135
11 8 -1 -1 10 0 0.000230491801912
2 6 1 1 9 1 1.76365977015
6 5 -1 -1 4 -1 0.00697672605669
8 0 1 -1 5 -1 -8.83331640153
6 1 -1 1 2 -1 0.00602641142294
3 6 1 -1 11 -1 -2.80074702032
0 1 -1 -1 8 1 0.257460619189
11 6 -1 1 8 1 0.000141992836375
8 10 1 -1 4 1 -19.0009104188
2 2 1 -1 8 0 1.27294304899
3 7 1 -1 3 0 3.16516223688
0 0 -1 -1 7 0 0.173377109103
8 9 -1 1 9 1 0.00127437555934
3 4 -1 -1 5 1 0.0335968818263
0 0 -1 -1 6 1 0.216876229626
4 8 -1 1 7 1 0.0217564271826
9 11 1 1 0 1 -404.541789004
6 10 -1 1 6 0 0.00336853790397
7 10 -1 -1 6 0 0.00178932470157
3 7 1 -1 7 -1 2.0639592075
3 7 -1 -1 3 0 0.024395238881
4 2 1 -1 5 -1 6.27687674841
6 10 1 1 8 1 27.6681851827
7 9 1 1 6 1 29.8583472838
10 9 -1 1 11 1 0.0
10 6 -1 -1 10 1 0.000426875561721
10 9 -1 1 10 0 0.000412198084537
2 4 -1 -1 8 1 0.0659812918434
10 11 1 1 9 0 -14.436407484
5 1 1 1 11 1 2.5616379079
8 4 1 1 8 1 79.90698649
7 0 1 1 5 -1 44.0190425508
5 10 1 1 0 0 -3.63645146644
6 7 1 1 7 -1 23.6731630235
11 10 1 -1 6 1 -997.808082887
8 5 1 -1 8 -1 -26.4963991123
5 5 1 1 1 0 -8.13546162991
9 6 1 -1 6 -1 159.884683295
10 3 1 1 8 -1 -483.69185065
11 10 1 1 3 1 -831.81041133
11 3 1 -1 4 -1 321.786761923
5 9 1 1 2 -1 -7.46680386596
10 5 -1 -1 3 0 0.0
3 2 -1 -1 1 1 0.0512400644543
9 10 1 1 4 1 -400.68468071
10 7 1 -1 10 1 -579.889266298
9 10 1 1 5 0 -239.970256863
9 2 1 -1 4 1 -286.203821277
2 9 -1 1 7 1 0.0735085894216
11 3 1 1 7 1 -999.916217146
6 4 -1 -1 2 0 0.0
1 6 -1 -1 5 1 0.101997828262
2 9 -1 1 5 -1 0.07421921487
10 7 1 1 2 0 -651.016186915
3 10 -1 -1 10 0 0.0303661809278
7 7 1 1 10 -1 50.0058044984
7 8 1 1 11 1 36.9370401736
3 3 -1 -1 1 1 0.0278366244901
0 9 -1 -1 8 -1 0.237866531314
2 1 -1 -1 5 1 0.075814628511
8 6 1 -1 0 -1 -65.6696931843
5 7 -1 1 1 -1 0.0
9 6 1 -1 2 1 145.711067722
0 10 -1 -1 1 -1 0.0
6 7 1 -1 6 -1 15.2739225619
3 5 -1 -1 0 0 0.0568572138022
7 0 1 -1 4 -1 52.5302258671
6 2 1 -1 3 1 16.3927288846
0 11 -1 -1 8 0 0.221034148116
8 6 1 1 11 1 38.4281595706
5 9 -1 -1 4 -1 0.00741072504804
8 8 -1 1 5 -1 0.0015028458008
4 3 1 -1 6 -1 5.741981658
9 2 -1 -1 0 1 0.00113428423443
2 3 1 1 5 0 1.77150381385
4 7 1 -1 7 1 4.68461021423
7 1 1 -1 10 -1 -57.4077213012
3 2 1 -1 5 1 3.1368623127
9 9 1 1 1 1 -288.013767207
2 9 1 1 11 0 1.62045318281
8 5 1 -1 0 0 -183.95674941
10 10 1 -1 10 1 350.996482934
11 11 1 -1 5 1 -889.112599579
10 4 1 -1 7 1 -529.760202419
11 7 -1 -1 5 0 0.000228331713448
8 1 1 1 9 -1 -9.78317993145
5 7 1 1 1 -1 -18.4385854051
2 9 1 -1 9 0 1.30160292785
8 3 -1 1 8 0 0.0
3 1 1 1 0 0 0.0
9 3 1 -1 2 0 228.300562697
9 3 1 -1 3 1 85.6794634053
8 0 1 -1 1 1 79.806812216
2 9 1 1 5 1 2.17332767413
3 10 1 1 9 0 3.43211731426
8 6 -1 1 1 1 0.000961068921621
1 3 -1 -1 5 0 0.16023852658
1 9 -1 1 10 0 0.0793671802912
0 0 -1 1 11 0 0.210932135137
0 9 1 1 9 1 0.548702300446
8 5 1 1 7 -1 101.395578848
0 5 1 1 2 -1 0.0
0 8 -1 -1 7 -1 0.211726985994
4 0 1 1 9 -1 6.30803930905
10 1 1 -1 0 0 376.889425986
9 4 -1 -1 11 0 0.00054083994243
5 9 -1 -1 9 0 0.0081714123469
0 4 1 1 5 1 0.594278399172
0 1 1 -1 2 -1 0.793886829702
6 2 -1 1 8 0 0.0
10 0 1 -1 1 0 201.208931673
4 3 -1 -1 2 0 0.0222388028475
9 5 1 -1 3 0 164.69214053
0 9 1 -1 7 0 0.378264944388
11 4 -1 -1 4 -1 0.00028695605577
2 0 1 1 3 1 1.67150639743
2 5 1 -1 4 1 1.56736566161
4 1 1 1 3 0 8.27478194472
1 0 1 1 3 1 0.712412511982
1 11 1 1 4 -1 0.661823326913
6 7 1 1 1 0 -39.4970675845
0 0 1 1 3 1 0.555079178706
11 11 1 1 1 1 -843.072755753
7 1 -1 -1 8 -1 0.00276721995265
2 3 -1 -1 6 0 0.0639393958627
9 4 -1 -1 1 -1 0.0
6 6 1 -1 7 0 16.7165200126
11 7 -1 1 3 1 0.0
6 11 1 1 9 1 27.1604425626
8 6 -1 -1 6 0 0.00120100342853
5 11 1 -1 5 0 13.9515747459
7 11 1 -1 9 0 53.4586377295
9 0 -1 -1 11 1 0.00132464154855
1 1 1 1 2 -1 0.622354627311
3 2 1 -1 7 -1 3.22906076048
0 10 -1 -1 8 0 0.211050626501
9 2 -1 -1 2 -1 0.00107127156627
5 11 -1 1 4 1 0.00555987695626
3 10 1 1 3 0 -0.360281454783
3 2 1 1 4 1 3.23696956025
8 1 -1 1 8 1 0.0
2 11 -1 1 11 -1 0.0563936093312
8 10 -1 1 2 1 0.00143966209442
2 5 -1 1 8 0 0.0
2 9 1 1 7 0 1.420325033
8 3 -1 -1 11 -1 0.00154675982136
7 11 1 -1 10 -1 49.0842032288
1 2 -1 1 9 1 0.10651757069
2 1 1 -1 11 -1 0.46909011471
6 0 -1 -1 11 0 0.0
11 8 1 -1 9 0 -150.644017149
11 0 1 -1 5 0 -851.810625372
3 5 -1 1 5 -1 0.0371332320918
0 10 1 1 9 -1 0.701418964812
2 1 1 1 0 1 2.47028852489
4 3 1 -1 8 0 -5.4611064297
2 3 -1 1 0 1 0.0
11 7 -1 1 5 -1 0.000234321459863
9 7 -1 1 7 0 0.000839394448238
9 2 -1 -1 9 -1 0.00124808876507
0 7 -1 -1 0 -1 0.126390937996
5 1 -1 1 11 -1 0.0
1 0 1 -1 1 0 1.06005854102
4 8 -1 1 1 -1 0.0124728907062
11 6 1 1 0 0 -754.321348101
0 6 1 -1 11 0 0.284858034763
0 6 1 1 10 1 0.466210968422
11 5 1 -1 2 0 -959.099858598
0 7 -1 1 11 1 0.309368766019
4 10 -1 -1 0 1 0.0
6 2 1 -1 5 1 16.248502039
5 2 -1 -1 10 -1 0.00845458013788
9 4 -1 -1 7 0 0.00105111545347
5 9 -1 -1 5 0 0.00481249237871
11 6 1 -1 1 1 -999.635626078
7 4 1 -1 2 -1 36.0140932598
10 11 1 1 10 -1 147.899402966
8 0 -1 -1 3 -1 0.00176660601418
0 1 1 1 2 0 0.638097847615
4 8 -1 1 9 0 0.0
1 2 1 1 0 0 2.09758627285
1 1 1 1 3 0 0.909031272073
6 10 1 -1 2 0 -18.8130587621
1 11 1 1 7 1 1.02596492203
8 6 1 1 2 -1 -79.4125080573
10 11 1 -1 1 1 -671.616564522
0 6 1 -1 5 1 0.408217476325
1 9 -1 -1 8 1 0.118122540856
1 3 -1 1 3 1 0.218264951184
4 9 -1 -1 5 0 0.0184255072178
2 10 1 -1 7 0 1.5831383979
4 9 1 -1 3 -1 2.78178511202
4 7 1 -1 10 -1 3.58803854651
4 1 -1 1 11 -1 0.0262921610889
6 1 -1 1 4 -1 0.00628267662837
5 2 -1 1 2 1 0.00982090552055
10 6 1 -1 3 -1 -659.94955606
9 3 1 1 4 1 189.761541446
7 5 1 1 1 0 -78.768600658
1 6 1 -1 1 0 0.0
3 6 -1 -1 11 0 0.0279119185334
4 8 -1 1 4 1 0.0242184972628
7 11 -1 1 4 -1 0.00238914014991
5 4 1 -1 0 1 9.65099110427
8 7 1 1 2 0 -204.495047425
5 5 1 -1 1 1 14.4433841655
5 11 -1 -1 7 -1 0.00713960900139
2 6 1 -1 1 0 0.743139305991
9 11 1 1 9 -1 105.739056307
6 0 -1 -1 9 1 0.00491065530003
8 0 -1 1 9 0 0.0
7 2 1 -1 5 0 7.72116498361
8 9 -1 1 4 0 0.00110534592375
5 1 1 1 4 1 10.2240413089
1 8 -1 1 4 1 0.13623597739
5 11 -1 1 8 1 0.00808044559929
6 8 -1 1 7 1 0.00585822232726
9 11 1 -1 2 1 -316.216742858
3 6 -1 1 6 1 0.0444741886037
2 2 -1 1 11 1 0.0693597548687
4 7 1 -1 2 0 0.0
6 2 1 1 5 0 25.0470762966
4 10 1 -1 9 -1 6.5460408843
5 10 1 -1 6 1 15.106335077
8 9 1 1 11 -1 96.9968797827
11 4 -1 -1 2 -1 0.000381293311955
10 10 -1 -1 9 -1 0.0
10 3 1 1 6 0 -341.465358599
6 3 1 1 8 -1 22.2404667994
4 5 -1 1 8 0 0.0
2 1 -1 1 2 1 0.122473206512
3 7 -1 -1 5 1 0.0307077752321
0 4 -1 -1 9 0 0.211774734644
5 11 1 -1 10 0 14.5967427501
7 11 -1 -1 11 0 0.00248905685533
0 10 1 1 5 -1 0.369627058594
9 11 -1 1 9 -1 0.000619976695521
2 0 -1 1 6 -1 0.0554330423349
4 3 1 -1 4 0 7.89046585619
8 0 1 -1 4 0 28.5041840577
5 3 1 1 10 0 7.39464632608
10 6 1 1 1 -1 -643.627215255
7 2 -1 -1 6 1 0.00321574916176
7 7 1 -1 0 0 -50.5319958005
10 7 1 1 8 0 358.512051969
3 1 -1 1 3 0 0.0412450147377
8 5 -1 -1 6 1 0.00154311310675
7 9 -1 1 4 0 0.00209799705262
9 6 -1 -1 4 1 0.000725966056874
0 6 1 1 6 1 0.648581014357
8 11 1 1 6 1 -16.9148746166
5 1 -1 1 3 0 0.010346829415
4 7 -1 -1 9 0 0.0160376440991
7 0 1 1 6 0 -5.8821770239
9 2 1 -1 2 0 163.179857564
7 0 -1 -1 0 -1 0.00535883130744
10 1 -1 -1 4 1 0.000373223865144
7 3 1 1 3 -1 27.4844002935
4 3 1 -1 0 -1 6.21610811405
2 10 -1 1 0 -1 0.0
7 3 1 -1 6 0 -61.4826871815
0 11 -1 1 5 0 0.204649208952
6 4 1 -1 8 0 -35.2528575783
11 8 1 1 10 1 316.542472053
11 8 1 1 11 0 -961.538461538
5 7 -1 -1 8 -1 0.00802400214294
1 10 1 -1 0 1 0.0
1 10 -1 -1 6 0 0.105924941431
4 6 1 -1 1 0 2.43981635491
5 7 -1 1 9 -1 0.0171541461887
3 3 1 -1 3 0 3.77525789069
0 3 -1 -1 8 -1 0.252376739421
3 4 1 1 9 0 3.54157203605
8 2 1 1 2 0 84.6593981738
3 10 1 -1 11 0 3.31361876136
7 9 1 -1 10 -1 46.2672084392
6 5 -1 1 10 0 0.0
1 5 -1 1 2 0 0.0904401030953
10 1 1 1 3 -1 321.158548139
5 2 -1 1 7 -1 0.00863487477026
4 3 -1 -1 8 1 0.0194510161905
6 2 -1 1 0 1 0.00726027335486
7 5 1 -1 7 0 12.8216510587
11 8 -1 1 4 1 0.0
1 1 1 1 10 0 0.900619857551
8 0 1 1 0 1 108.859127558
8 5 1 1 1 -1 -157.961449368
3 4 1 1 7 1 3.52024340496
7 2 1 1 0 1 18.7314151415
8 6 1 1 7 -1 73.8726918676
6 9 1 1 10 1 30.4694663769
0 6 -1 1 0 1 0.0235706506789
0 6 -1 1 1 0 0.0
1 4 1 1 7 1 1.14161181608
5 3 1 -1 2 1 10.6443631213
4 7 1 1 4 -1 -7.20913488304
3 1 1 -1 1 -1 3.34169627667
8 4 1 -1 7 -1 -32.5700590971
1 3 -1 1 6 -1 0.122570125798
8 0 1 -1 11 0 -127.30230624
9 4 1 -1 8 0 -294.957314583
4 5 1 -1 9 -1 2.71241435829
3 5 1 1 3 1 -0.841454346625
5 5 -1 1 1 -1 0.0106135144536
8 9 1 1 7 -1 -38.7741158938
4 8 1 1 9 -1 5.75056982097
7 8 -1 1 8 0 0.00280050647472
6 7 -1 -1 11 1 0.00440877926076
5 5 1 -1 7 -1 8.3549522737
1 8 1 -1 6 -1 0.715048898283
2 0 1 1 9 1 1.50450356499
0 8 1 -1 5 1 0.297560002104
8 10 -1 -1 10 0 0.00118571447176
7 1 -1 1 2 0 0.00232551364439
6 6 -1 1 0 0 0.00214800886181
10 3 -1 1 0 0 0.000475764581577
10 2 -1 1 3 1 0.000290577274405
8 11 -1 1 0 1 0.0
5 10 -1 1 9 -1 0.00605991524112
2 9 1 -1 5 -1 1.06216671836
1 11 1 -1 6 -1 0.695701649481
7 2 -1 1 1 1 0.00371649999811
10 8 1 1 11 0 -358.840206081
6 3 -1 1 8 -1 0.00670871291317
4 5 1 1 11 0 4.88682703179
9 5 1 1 2 -1 -371.168937709
7 4 1 -1 10 1 -98.6200508694
8 9 1 -1 6 -1 61.1750813059
10 6 -1 1 1 1 0.0
5 10 -1 1 3 1 0.0062113010688
2 0 -1 -1 5 1 0.0823250295789
5 11 1 1 8 -1 11.9471539021
8 4 1 1 6 -1 96.6652984977
4 11 -1 1 5 0 0.0139779936839
11 7 1 1 11 1 -999.278499278
0 11 -1 1 0 1 0.0
6 1 1 -1 3 1 17.8488729404
11 7 1 1 5 1 -876.57634203
11 7 1 1 4 0 -795.087494084
1 9 1 -1 2 0 0.0
0 10 -1 -1 0 -1 0.0
10 11 1 -1 4 0 -535.917191318
9 3 -1 1 3 0 0.000691457459093
5 1 1 -1 1 0 11.410997565
2 11 1 -1 5 -1 2.20499329818
7 8 1 -1 11 0 -59.7577943354
8 11 1 -1 10 0 97.1693239816
11 1 1 -1 6 0 -999.985339608
7 9 1 -1 11 1 7.90458519898
9 1 1 1 0 1 176.862607783
7 5 -1 -1 8 1 0.00273013556746
6 11 1 1 5 1 -41.865334225
8 6 -1 -1 11 0 0.00137306246555
1 0 -1 -1 11 1 0.149219494819
0 4 -1 1 0 1 0.254754944835
1 5 -1 -1 7 -1 0.123296709897
8 3 1 -1 1 1 72.2470021311
5 5 1 -1 9 1 -7.12459897635
4 6 1 -1 11 1 -2.94499459783
8 9 -1 1 1 1 0.000656487767283
5 2 1 -1 11 1 -16.4129659954
2 10 -1 1 1 1 0.0
5 2 1 -1 10 0 -15.0259164403
4 8 -1 1 0 0 0.0176524299314
9 6 1 1 3 0 -349.860232105
0 11 1 -1 3 0 0.225970048963
4 5 -1 -1 5 0 0.0198847635757
3 1 -1 -1 11 0 0.0310676966312
8 7 1 -1 11 1 -194.383551668
8 4 -1 1 0 0 0.000698966862469
6 10 1 -1 8 0 17.6915306503
11 6 1 1 6 1 747.023740078
5 0 -1 -1 11 1 0.0
6 1 -1 -1 4 0 0.00745482080165
1 5 -1 1 8 0 0.191148739545
2 6 1 1 5 1 2.31509244106
1 5 -1 1 9 1 0.136343725749
0 5 -1 1 5 0 0.333103122737
1 6 -1 -1 8 1 0.117052004913
7 11 -1 1 2 -1 2.13262100412e-06
5 7 1 -1 10 1 -4.41828080058
5 10 -1 -1 8 -1 0.00585967853936
1 3 1 1 0 0 0.00286212033596
3 3 1 1 6 -1 3.31632118892
10 10 1 1 9 -1 -612.810860478
3 7 1 -1 11 -1 1.54873168442
3 7 1 1 9 -1 3.06083020621
6 2 -1 -1 3 0 0.00624424279141
10 9 -1 1 6 0 0.000246935097654
2 10 -1 1 11 -1 0.0731102106088
4 2 1 1 7 -1 5.82773996522
0 8 -1 1 0 1 0.0
11 6 -1 -1 8 0 0.00030862839803
9 6 1 -1 7 -1 148.152225291
10 0 -1 -1 1 1 0.000610934199412
8 1 -1 -1 6 0 0.00119081846195
8 1 1 1 2 -1 94.1172849794
2 0 -1 1 5 -1 0.0642376028112
9 5 -1 -1 1 -1 0.0
3 8 1 -1 9 -1 2.17794723531
7 2 -1 1 3 0 0.00326603205627
7 7 -1 1 8 1 0.00272429913356
10 0 -1 1 0 -1 0.000603428539667
4 1 -1 -1 1 -1 0.0289190976851
0 1 -1 -1 10 0 0.0
3 4 -1 -1 3 -1 0.0307878241801
1 2 -1 -1 8 0 0.106268004106
11 4 -1 1 3 1 0.000222658473969
11 2 -1 -1 6 0 0.0
5 6 1 -1 0 0 7.02773406121
7 6 1 -1 11 0 -76.5925059613
6 1 -1 -1 5 -1 0.00818929237723
7 3 -1 1 4 0 0.00316102402992
-1 10 -1 -1 8 0 0.0
2 2 1 1 3 1 1.74597654091
8 8 -1 -1 10 0 0.00125091930238
2 5 -1 -1 8 0 0.0649403598705
9 1 -1 1 2 1 0.000960343946914
2 10 1 -1 9 -1 1.66696168439
0 7 -1 1 7 -1 0.343102483197
5 0 -1 1 8 0 0.00899272005426
0 0 1 -1 4 1 0.512909110996
8 0 -1 -1 4 -1 0.00199726118323
4 11 1 1 7 0 6.66238957767
3 8 -1 -1 9 -1 0.0258672747447
9 1 -1 -1 5 -1 0.00121214152532
7 9 -1 1 3 -1 0.00125552751542
10 11 1 1 11 1 395.683234052
1 10 -1 1 8 0 0.115505481349
11 4 1 1 9 1 -1000.0
7 4 -1 1 0 1 0.00261379376851
1 1 -1 1 4 1 0.128302403433
1 7 1 -1 5 1 0.705178472971
7 5 1 -1 6 -1 32.8404757022
-1 0 -1 1 6 1 0.753270614849
6 1 -1 -1 9 -1 0.00381009152995
3 1 -1 -1 2 -1 0.0519184890336
3 3 -1 1 2 -1 0.0440675777007
11 1 -1 1 2 1 0.0
9 5 -1 -1 11 -1 0.000548534553301
3 8 -1 1 8 0 0.0250500036739
1 4 -1 -1 3 1 0.142748490461
5 1 -1 -1 2 -1 0.0135046392914
11 11 1 -1 9 1 -868.757449019
7 0 -1 1 6 1 0.00154873571383
10 9 1 -1 8 0 255.696707628
8 1 1 1 5 -1 83.8078696742
10 5 1 1 8 1 -486.115243132
10 2 -1 -1 7 0 0.000399356022081
3 0 -1 1 3 1 0.0477683218718
3 5 -1 -1 4 -1 0.0463159944561
5 7 1 -1 6 1 9.23961586972
2 1 1 -1 10 1 0.160327863498
1 4 1 -1 8 1 0.845403932798
-1 11 -1 -1 6 1 0.326722747955
4 8 1 1 1 -1 -0.0101309466959
-1 11 -1 -1 7 0 0.337369311282
6 6 1 -1 0 1 -2.85708017377
8 11 1 1 8 -1 -17.797568913
1 4 -1 1 5 1 0.14665365026
9 0 -1 -1 6 1 0.000735125445358
0 5 1 -1 8 1 0.365578585661
1 9 1 1 10 0 0.832196124404
8 11 -1 1 1 -1 0.000516750095442
0 4 1 1 8 0 0.384338227034
0 5 1 1 7 -1 0.506816832946
4 4 -1 -1 2 1 0.0168904394996
8 1 1 -1 3 1 -9.40846175767
9 7 -1 -1 8 -1 0.000553082236753
1 10 1 1 11 0 1.02057386061
7 3 1 1 2 0 23.0874951011
10 4 1 1 10 1 -442.225748515
5 8 1 1 7 -1 12.645984041
9 10 1 -1 3 -1 -148.531789674
4 2 -1 1 5 -1 0.0206171585877
4 11 1 -1 1 0 0.177327430365
5 4 -1 1 2 0 0.0131216460231
7 9 -1 -1 0 -1 0.0
0 2 -1 -1 0 1 0.337478991608
1 11 -1 1 8 0 0.16633559496
0 2 -1 1 2 1 0.395668717161
0 3 1 1 0 -1 0.0
2 8 1 1 9 1 1.47875499409
2 1 1 1 10 1 2.20150041548
3 4 -1 -1 1 0 0.0345332438308
3 9 -1 -1 8 1 0.0304191006118
8 8 1 -1 9 -1 92.1465862447
10 10 1 1 3 -1 -611.183186896
9 11 1 -1 11 -1 184.433874918
1 11 1 1 3 0 0.0708849462392
3 3 1 1 8 1 2.61087603746
6 8 -1 -1 2 1 0.0
1 10 1 1 7 0 0.961777121224
5 7 1 -1 8 -1 9.06288502375
10 3 -1 -1 1 -1 0.000485916682323
1 2 1 -1 3 -1 1.20495668274
0 8 -1 -1 6 1 0.174401904985
1 11 -1 -1 8 1 0.144171083616
10 7 -1 1 3 1 0.000397165503144
1 6 1 1 1 1 0.23225457658
8 10 1 1 11 1 87.2104539747
7 9 -1 1 2 1 0.00301363920117
10 0 1 1 11 -1 -233.538415933
8 3 -1 -1 7 -1 0.0020430415985
9 10 -1 -1 9 0 0.000471318707423
0 8 -1 -1 11 1 0.153175575204
1 3 -1 -1 3 0 0.107797356815
3 1 -1 1 9 -1 0.0
4 4 -1 1 11 -1 0.0126537389202
6 6 -1 -1 9 -1 0.00459337936425
9 5 -1 -1 9 1 0.000787923830822
8 1 1 -1 2 -1 92.7644723394
4 10 1 1 6 -1 -2.54109211501
7 5 1 1 11 0 16.3832938999
10 9 -1 -1 11 -1 0.000369965757537
9 4 1 1 6 -1 190.180418812
4 0 -1 -1 4 0 0.0258754751597
3 0 -1 -1 1 1 0.0552013064276
11 11 1 -1 4 -1 -710.90376321
0 10 1 -1 10 1 0.455330805161
0 10 1 -1 11 0 0.46563137847
7 5 1 1 10 1 27.9995777797
2 0 -1 -1 1 1 0.0911786759931
9 0 -1 1 5 -1 0.00102182055365
2 0 -1 -1 0 0 0.110875911872
6 8 1 -1 4 -1 15.0363611016
6 4 -1 1 6 1 0.00638280283083
4 3 -1 1 11 1 0.0117287829202
11 11 1 1 7 1 -999.964937273
6 3 1 1 8 0 27.8223435352
3 7 -1 1 0 0 0.0
3 8 -1 -1 6 0 0.0294809849102
9 11 1 1 4 -1 -369.64710947
2 3 1 1 1 1 0.0
11 6 1 -1 0 1 -999.838735688
4 7 1 1 4 0 -6.81985170055
4 4 -1 -1 2 0 0.0
4 7 1 1 5 1 6.75469173936
4 5 -1 -1 3 0 0.0121482799748
5 4 1 1 7 1 11.9883544662
2 9 -1 1 4 0 0.073279070159
10 3 1 -1 1 -1 300.769321902
4 1 -1 1 10 -1 0.0200133968668
2 5 -1 -1 3 0 0.0847891567579
2 1 -1 -1 4 -1 0.0830619784729
7 5 1 1 11 1 21.565781813
7 7 -1 1 6 -1 0.00214217248058
-1 0 -1 1 4 1 0.399113372277
3 2 -1 1 9 -1 0.0320203771399
8 6 1 -1 6 -1 64.5301212024
0 5 -1 -1 6 -1 0.233059791503
3 2 -1 -1 6 1 0.0456324362342
4 5 1 1 8 -1 5.41387505234
3 2 -1 -1 7 0 0.0388686288108
1 6 -1 -1 9 -1 0.120569253878
10 7 1 -1 11 -1 -487.512983073
11 8 1 -1 9 -1 691.817470472
8 3 1 1 9 -1 53.1316778909
7 11 -1 1 8 -1 0.00193360652077
7 11 1 -1 3 0 -82.0172811444
4 1 -1 -1 2 1 0.0219342873406
4 6 1 1 3 -1 -5.14325773752
10 7 1 1 4 1 -477.553908999
8 9 1 -1 5 0 25.2477457003
5 8 -1 -1 8 -1 0.00656619415933
0 8 1 1 11 0 0.294699430924
7 11 -1 -1 3 1 0.00247559085525
8 2 1 -1 0 -1 99.024917898
8 2 -1 1 2 -1 0.00133919273239
10 1 -1 -1 7 1 0.0
10 6 -1 -1 11 0 0.000391078973269
8 5 -1 -1 2 -1 0.0
6 10 -1 -1 2 0 0.00049132417005
8 3 -1 1 10 1 5.25793242476e-05
1 1 -1 -1 11 -1 0.095430727273
7 0 1 1 8 1 -81.1153057183
9 7 1 -1 5 0 95.0431483872
0 8 -1 1 7 0 0.369163713268
2 4 -1 1 9 0 0.115182624026
3 11 1 -1 10 0 3.99708609877
10 4 -1 1 0 -1 0.000248699303012
2 8 -1 1 6 1 0.0559560031492
3 9 1 -1 6 -1 2.47292972755
8 3 1 1 0 1 80.3949117427
0 2 1 1 4 0 0.541585917727
0 0 -1 -1 10 -1 0.178531666862
2 6 1 -1 5 -1 1.58092581928
7 6 -1 1 5 -1 0.00337200973018
4 9 1 -1 2 -1 0.224093111746
7 4 -1 1 8 0 0.0
1 9 1 1 3 0 0.155643093605
1 1 -1 -1 1 0 0.196515318529
4 2 1 1 11 0 0.0
7 6 -1 -1 10 1 0.00236986423734
9 9 1 1 4 1 -389.855249522
2 9 -1 1 5 0 0.0650860987851
0 1 1 -1 0 0 0.61612349912
3 4 1 -1 1 -1 3.05713639008
1 3 1 -1 1 1 0.991260056356
7 8 -1 1 2 1 0.00166247987287
0 8 1 1 3 1 0.0
5 1 1 -1 2 -1 12.7884757353
10 10 1 1 4 1 -617.77750024
11 5 1 1 6 1 554.762458947
8 8 1 -1 2 0 -177.166486974
10 8 -1 1 11 -1 0.0
5 1 1 1 1 1 3.73932580095
11 7 -1 1 9 -1 0.000201713238064
0 7 1 1 10 0 0.415969577779
1 4 1 1 10 1 0.844273696886
8 0 1 1 1 0 79.3023616568
1 4 1 1 11 0 0.841257761686
4 4 -1 1 1 1 0.0277181572411
3 0 1 -1 11 -1 0.408669588219
7 8 -1 1 9 1 0.00314652022274
0 9 1 1 4 -1 0.367213477976
9 11 -1 1 5 -1 0.0
5 11 1 1 4 0 -18.8300730006
5 5 1 -1 4 -1 12.8958118982
2 10 -1 -1 3 1 0.044462109133
1 5 -1 -1 8 1 0.0997433015365
0 2 1 -1 0 -1 0.567157074476
3 0 1 1 4 1 3.21995305058
10 11 -1 1 9 0 0.000283858805426
3 0 1 1 5 0 3.47633759145
6 6 -1 -1 3 -1 0.0
5 5 1 1 7 1 12.909314669
-1 11 -1 -1 1 1 0.0
9 0 1 -1 0 -1 198.67151776
10 1 1 1 2 -1 354.291958779
10 0 1 1 0 0 300.281858541
9 4 1 1 0 -1 -304.150304067
1 0 -1 1 9 1 0.1182175985
10 2 -1 -1 1 0 0.000601898674499
4 7 -1 1 1 -1 0.0
4 10 -1 1 7 -1 0.0147635033347
8 11 -1 1 7 0 0.00109496665391
5 9 -1 1 5 -1 0.00763292350786
8 11 -1 1 6 1 0.000919796788114
11 3 1 -1 8 0 -1000.0
5 1 -1 -1 0 -1 0.0196002968152
11 3 1 -1 9 1 -953.731683903
11 1 1 1 0 0 660.777757073
8 0 -1 1 4 1 0.00152823897781
9 8 1 1 6 0 -222.674701399
4 11 -1 -1 3 1 0.0144128564245
1 5 1 1 5 1 1.19087193249
11 4 1 -1 11 1 -999.838735688
7 4 1 -1 6 0 9.40353305068
11 3 -1 -1 2 0 0.000267606202873
9 8 1 1 10 -1 133.673320752
6 10 -1 1 10 1 0.00606622252804
10 6 -1 -1 7 0 0.000397730421191
7 7 1 -1 3 -1 -4.95426030196
5 0 1 -1 1 -1 13.608818561
2 7 -1 -1 2 1 0.0
6 4 1 1 3 -1 -20.7890957991
11 5 1 1 1 1 -999.986629204
11 11 -1 1 11 0 0.000192831575686
3 5 -1 -1 3 0 0.0227590003802
9 8 1 -1 5 1 116.965435512
9 11 -1 1 10 0 0.000682855864552
5 0 1 -1 0 0 16.0459235805
9 9 1 -1 9 0 175.933846461
7 11 -1 -1 3 0 0.0
5 11 1 -1 6 1 0.0
11 5 1 1 0 0 -972.982821315
11 2 1 1 7 0 -925.079739514
4 8 1 1 5 -1 -2.89789982428
11 0 -1 -1 2 0 0.000496277161684
5 1 -1 -1 5 0 0.00984928160091
1 0 1 -1 7 0 0.706645424942
6 8 1 -1 6 0 17.6993109854
2 5 1 1 9 0 1.62056279202
4 8 1 -1 6 1 4.82854382738
9 0 -1 -1 2 0 0.00103628106847
3 1 -1 -1 9 0 0.0295464253203
4 4 -1 -1 11 0 0.0148203216183
6 6 1 1 6 0 17.1526934084
11 1 1 -1 10 1 -972.794219904
4 5 -1 -1 11 1 0.0139533531016
1 5 -1 1 7 1 0.0993661881586
2 8 1 -1 11 0 1.03303143031
9 5 1 1 3 -1 -349.608147455
10 3 -1 -1 6 0 0.000476199607682
2 5 -1 1 6 -1 0.064434676243
0 1 1 1 8 0 0.587063008807
8 8 -1 -1 5 -1 0.00112077461161
11 11 1 1 2 0 -979.963883027
8 6 -1 -1 7 1 0.00142630654666
9 5 1 -1 8 1 -338.56051949
6 9 -1 -1 9 1 0.00334962092807
4 6 1 -1 6 1 4.63138681594
11 3 1 -1 6 -1 -914.424963403
4 6 1 -1 7 0 4.42550283746
11 10 1 1 3 0 -1000.0
5 7 -1 -1 9 1 0.00812190422634
7 5 1 -1 1 0 53.2617649577
11 5 1 -1 4 1 690.204940555
8 3 1 -1 4 -1 63.6055067845
11 0 1 1 0 1 678.808724802
0 7 1 1 8 -1 0.392433758217
8 7 1 -1 8 1 54.8070124078
6 1 -1 -1 2 0 0.00787269462116
7 6 1 -1 0 -1 -51.6616686602
1 2 1 1 10 1 1.20955535805
2 3 -1 1 8 1 0.061810964505
0 7 1 -1 3 1 0.346615030157
0 7 1 -1 2 0 0.0
6 9 1 -1 8 1 21.3908023084
5 2 -1 -1 8 0 0.00933558239063
2 6 1 -1 3 -1 1.35229915918
0 8 -1 1 6 0 0.211678065377
0 5 -1 1 0 1 0.0
0 4 -1 -1 0 0 0.181790201301
2 3 1 1 11 -1 1.87574368403
5 6 1 -1 2 1 7.65808115139
7 2 -1 -1 7 -1 0.00290282158504
1 1 1 -1 4 0 1.07247025394
11 8 -1 -1 10 1 0.000243223058206
10 8 1 -1 0 -1 -609.666051255
4 10 -1 1 11 -1 0.016315881293
0 7 1 1 3 1 0.0
11 6 -1 1 8 0 0.0
5 4 1 -1 10 0 -14.058989152
0 11 -1 1 6 0 0.193769955552
5 10 -1 -1 5 -1 0.00639343426654
0 2 1 1 5 -1 0.499593310377
4 9 -1 1 3 0 0.0134795262638
0 6 1 1 8 -1 0.455794404339
0 0 -1 -1 6 0 0.21710523379
4 8 -1 1 3 1 0.0213620518026
8 5 -1 -1 8 -1 0.00143946757846
6 10 -1 1 6 1 0.00509746501515
1 3 -1 1 11 1 0.139947363545
7 10 -1 -1 6 1 0.00182546402917
6 6 -1 1 6 1 0.00535275064368
3 7 -1 -1 3 1 0.0327876389034
6 10 1 1 8 0 22.3688449378
8 1 -1 1 10 1 0.00293221980785
2 3 1 -1 2 -1 2.08429627274
10 7 1 -1 6 1 343.881414064
2 4 -1 -1 8 0 0.0693127330718
5 9 1 1 0 0 -9.39051517371
5 11 1 -1 7 -1 8.75152224539
9 4 -1 -1 5 -1 0.00102682902747
10 1 -1 1 2 1 7.76076253643e-05
8 4 1 1 8 0 68.2999862148
9 2 1 1 0 0 56.9487408512
11 10 1 -1 6 0 -881.807256325
3 10 1 -1 10 -1 3.74225146937
10 3 1 1 9 -1 -201.34697503
1 2 -1 1 11 -1 0.124399453852
7 4 1 1 1 0 -57.8975933773
1 10 -1 -1 10 -1 0.102813393941
3 4 1 1 2 0 0.134060855826
8 5 -1 1 0 1 0.000304466559088
3 2 -1 -1 1 0 0.0526689928844
3 4 -1 1 0 -1 0.00634259764867
10 7 1 -1 10 0 -564.207745732
2 11 1 1 10 0 1.41010365269
9 2 1 -1 4 0 -105.690634049
3 10 -1 1 5 -1 0.0244655903175
3 9 -1 1 0 0 0.0
1 6 -1 -1 5 0 0.131787906633
0 11 1 -1 8 -1 0.497985514506
7 3 1 -1 0 0 34.4198974382
6 4 -1 -1 6 -1 0.00770924234288
3 10 -1 -1 10 1 0.0282950799381
2 0 -1 -1 11 0 0.0712980261965
7 8 1 1 11 0 49.4591789401
1 10 1 -1 10 1 0.931529559018
2 1 -1 -1 5 0 0.0674504793366
1 0 1 1 1 1 0.828123649153
3 1 -1 1 1 -1 0.043199937122
9 6 1 -1 2 0 -344.707128275
8 8 -1 -1 3 0 0.0
0 4 -1 -1 1 0 0.297771446303
10 5 1 1 5 1 364.641343142
6 2 1 -1 3 0 26.1442825679
0 11 -1 -1 8 1 0.274724923879
11 7 -1 -1 9 0 0.000214001936251
9 3 1 1 10 -1 -346.511178739
6 0 -1 1 8 1 0.00542763427748
3 6 -1 -1 0 1 0.0
11 6 -1 -1 5 1 0.000243698341122
5 11 -1 -1 10 1 0.011486555303
0 2 1 1 2 0 0.469694805381
6 6 1 -1 1 0 -17.1747528011
9 10 -1 1 4 -1 1.78055702935e-05
6 0 -1 1 11 1 0.00304159260879
9 5 -1 -1 6 -1 0.000807767383025
1 5 -1 -1 3 -1 0.139428149643
9 5 -1 1 3 1 0.000780489610039
1 9 1 -1 8 -1 0.802503824348
11 11 1 -1 5 0 -999.982720316
10 4 1 -1 7 0 -464.152040801
5 11 1 -1 4 0 5.84774189257
5 4 1 1 2 1 -4.71811779029
3 5 -1 -1 11 -1 0.0245286129144
7 3 1 1 9 0 29.6880158028
9 3 1 -1 2 1 161.93486071
9 3 1 -1 3 0 145.086892701
8 0 1 -1 1 0 90.8975341859
7 1 -1 -1 7 1 0.0038575550094
2 9 1 1 5 0 1.65066137243
6 9 -1 -1 2 -1 0.00130159000546
8 6 -1 1 1 0 0.00155709107652
10 5 -1 1 6 1 0.000443451602977
1 3 -1 -1 5 1 0.13013404639
3 4 1 -1 11 0 -2.67584728217
1 9 -1 1 10 1 0.0595579875298
1 5 1 -1 11 1 0.0
0 9 1 1 9 0 0.378504841046
10 11 1 1 7 1 -375.095083802
1 5 1 1 1 1 2.04520745437
0 8 1 -1 3 1 0.462158217926
10 8 1 -1 4 0 -643.20901521
0 11 1 1 4 -1 0.367882827796
3 6 -1 1 11 -1 0.0394156763621
5 9 -1 -1 9 1 0.00826349901868
5 9 1 1 7 1 14.8696282243
2 8 1 1 6 -1 1.50379973024
4 5 -1 -1 8 1 0.0179014432752
8 4 -1 1 3 0 0.00137548699269
2 8 1 -1 3 1 1.21471973552
8 1 1 1 11 1 -83.481406067
7 1 -1 1 9 -1 0.00271540979086
0 7 -1 -1 2 -1 0.142851269122
9 4 1 -1 3 0 138.320122488
3 0 1 -1 5 0 2.80902231456
0 9 1 -1 7 1 0.377659530115
4 8 1 1 2 1 -0.768171580984
1 0 1 1 3 0 1.01844708657
10 5 1 1 9 1 -611.798788639
11 10 1 1 11 1 747.419055898
6 7 1 1 3 -1 -36.4505590393
5 9 -1 -1 7 0 0.00839097866365
10 2 -1 -1 7 -1 0.0
3 1 1 -1 10 0 -0.257339857958
2 3 -1 -1 6 1 0.103984931736
4 10 1 -1 4 -1 3.57358258936
0 0 1 1 2 -1 0.372438993733
4 3 -1 1 8 1 0.0180043698028
2 1 1 -1 6 1 1.52342413182
7 9 1 1 9 0 47.9949134489
11 7 -1 1 3 0 0.0
6 1 -1 1 7 0 0.00313587810581
7 10 1 -1 6 0 31.2558824621
6 4 1 -1 5 0 15.4123392793
6 6 -1 1 0 -1 0.0
10 1 1 1 4 0 24.1924979761
9 10 -1 1 5 0 0.000514947716756
9 11 -1 -1 4 -1 0.0
0 4 1 1 4 -1 0.510331593176
1 9 1 1 11 -1 0.871945881937
7 9 1 -1 1 1 -85.1893507294
1 5 -1 1 4 -1 0.134004457819
7 3 1 -1 5 -1 19.0163946396
3 10 1 -1 0 -1 0.0
7 3 1 1 10 0 -17.5279292081
8 1 1 -1 8 -1 -154.45754762
11 0 1 1 6 -1 -999.853216446
1 10 -1 -1 0 -1 0.0
2 5 -1 1 4 -1 0.0879878502309
6 0 -1 -1 11 1 0.00321628179468
10 9 1 1 2 0 -655.986825804
11 0 1 -1 5 1 -901.28856088
1 1 1 -1 1 1 1.2987583003
2 11 1 1 1 1 0.0
2 10 -1 1 7 1 0.071152648421
0 11 -1 -1 1 -1 0.119028559041
5 0 1 1 1 -1 4.9022321261
2 3 -1 1 0 0 0.0
-1 0 -1 1 9 -1 0.0
11 6 1 -1 11 -1 -999.530723216
5 8 -1 1 0 -1 0.0
6 11 -1 1 6 1 0.00454072997662
6 5 -1 -1 6 0 0.00471195898771
6 1 1 -1 2 1 24.2194406335
1 0 1 -1 1 1 1.31657069097
3 9 -1 -1 6 0 0.0281641618753
11 6 1 1 0 1 -987.499709044
0 6 1 1 10 0 0.706066747109
10 10 -1 1 4 -1 0.0
11 5 1 -1 2 1 392.460994874
8 1 1 1 8 0 -70.3660829517
10 0 1 1 7 0 -691.264728675
6 2 1 -1 5 0 14.2527797113
10 7 1 -1 3 0 -525.69150659
7 7 1 -1 11 -1 -70.3327802402
5 4 -1 -1 3 -1 0.00998407861998
5 9 -1 -1 5 1 0.00834905467728
3 11 1 1 3 0 0.0
7 0 -1 -1 9 0 0.00100444398472
0 9 -1 1 5 -1 0.239943811791
5 6 -1 1 4 0 0.00930334100946
0 1 1 1 2 1 0.732891136346
1 2 1 1 0 1 0.0
8 3 -1 1 11 1 0.0
6 10 1 -1 2 1 -12.1129242437
4 7 -1 1 2 1 0.014634539773
7 10 -1 1 0 0 0.0
0 6 1 -1 5 0 0.541570917616
7 4 1 -1 1 0 33.8474593697
1 3 1 -1 11 -1 0.567019170867
8 0 -1 1 0 -1 0.00194058863195
1 3 -1 1 3 0 0.135841496637
10 3 1 -1 9 0 -383.828882287
1 6 1 1 10 -1 1.27303410296
9 10 1 1 2 0 -425.432936284
5 9 1 1 3 1 -16.4392431724
3 7 1 1 5 0 3.01702349746
6 3 1 -1 2 -1 27.0433326031
9 3 1 1 5 1 113.850822493
9 2 -1 -1 4 0 0.00100622712071
9 3 1 1 4 0 180.284451802
3 1 1 -1 6 0 2.49955386934
11 3 1 1 6 -1 -799.102202482
3 3 1 1 0 1 0.0
0 3 1 1 0 0 0.0
10 4 -1 -1 8 1 0.000560049427136
8 2 -1 1 3 1 0.00134709858838
3 1 -1 1 6 -1 0.0
5 7 -1 -1 10 -1 0.00863584804838
6 9 -1 1 1 -1 0.0
5 4 1 -1 0 0 11.8080725059
4 9 -1 1 4 1 0.0152625062968
8 7 1 1 2 1 -180.029321922
2 5 -1 -1 6 -1 0.0524947300327
9 11 1 1 8 -1 -200.852296309
9 6 1 1 4 0 -364.308810753
3 4 1 1 11 0 2.46400867868
5 1 1 1 5 1 11.2597738908
6 1 1 1 1 1 20.6983061437
5 1 1 1 4 0 11.2616535556
4 7 1 1 9 1 7.7333502772
6 2 1 -1 0 0 29.9478796053
3 4 -1 1 1 0 0.0321384254493
6 8 -1 1 7 0 0.00685874661011
3 6 -1 1 6 0 0.0472669397103
7 10 -1 -1 7 0 0.00200542309144
2 3 1 -1 8 -1 1.8697021444
8 7 1 -1 9 -1 50.2623405354
6 1 -1 -1 3 -1 0.00708024563303
9 3 1 -1 10 0 -176.544382915
6 2 1 1 5 1 22.6530333516
2 1 -1 -1 8 -1 0.0706398251867
1 3 -1 1 4 -1 0.175810189272
5 10 1 -1 6 0 9.00787380849
1 7 -1 1 3 1 0.156505795178
6 7 1 1 0 1 -44.3006460369
10 3 1 1 6 1 -536.844388275
1 4 1 1 10 0 1.26966282292
11 8 1 -1 2 0 -949.851064753
2 1 -1 1 3 1 0.0752153489705
6 5 -1 1 9 -1 0.00523544781836
2 1 -1 1 2 0 0.0660048802854
8 8 1 -1 5 1 78.8374656716
0 4 -1 -1 9 1 0.224818702073
5 3 -1 -1 4 1 0.0115951385071
3 9 -1 1 6 0 0.0317682683045
6 7 1 1 4 0 -51.5622792541
0 1 1 1 9 -1 0.490010538325
10 7 1 -1 7 0 346.5289303
8 0 1 -1 4 1 47.1139469809
7 9 -1 -1 11 -1 0.00227200811713
5 8 1 1 4 1 -7.50607980649
5 9 -1 1 6 0 0.00793777603841
5 9 -1 1 7 1 0.00952766433277
7 3 1 1 10 1 0.0
10 7 1 1 8 1 369.160738881
7 9 -1 1 4 1 0.00260049833552
10 8 -1 1 8 -1 0.000293367639418
0 6 1 1 6 0 0.468113707356
0 7 -1 -1 11 1 0.140755843109
10 9 1 1 9 -1 -106.970547441
7 8 -1 1 9 0 0.0
2 4 -1 -1 5 -1 0.0844570935242
7 0 1 1 6 1 -0.991825034613
1 1 -1 -1 7 -1 0.142388782921
2 3 -1 1 7 -1 0.0858941616953
0 11 -1 -1 1 1 0.0
1 10 -1 1 5 -1 0.124736362694
2 4 -1 1 10 1 0.0
6 4 1 -1 8 1 -33.7998223736
3 11 1 1 7 0 3.51247140744
0 0 -1 -1 11 -1 0.238952108242
6 3 -1 -1 7 1 0.00653153594342
1 10 1 -1 0 0 0.0
5 5 -1 -1 4 1 0.011888153918
1 10 -1 -1 6 1 0.0994949499104
2 5 1 -1 9 0 1.14853732149
5 6 1 1 7 -1 12.7170713199
4 3 1 1 8 0 5.62170965097
3 10 1 -1 11 1 3.18386203665
8 1 1 -1 1 -1 106.084504385
8 10 1 -1 7 -1 32.2906358212
8 10 1 1 10 1 101.523632022
1 5 -1 1 2 1 0.224852272473
9 10 1 -1 2 0 -245.866580696
11 8 -1 1 4 0 0.000269797863194
10 2 -1 -1 0 -1 0.000486754807703
4 1 -1 -1 4 0 0.0246197364166
1 0 1 -1 9 -1 0.999803551257
7 3 1 1 2 1 -22.4670525001
5 11 1 -1 5 -1 1.50637926053
5 10 1 1 7 0 10.5992910463
3 9 1 -1 8 0 2.91639774192
3 4 1 1 7 0 2.60255890611
6 3 -1 -1 8 -1 0.00591939748225
10 8 1 1 7 -1 -320.111751133
1 8 -1 1 2 -1 0.114886208011
0 11 -1 1 8 0 0.211235004822
3 8 -1 1 4 1 0.0334286368035
11 6 -1 1 5 -1 0.0002206421604
1 4 1 1 7 0 0.943034428675
7 8 -1 -1 3 0 0.0
11 6 -1 -1 10 0 0.00032957089477
3 0 -1 -1 4 0 0.0432144005147
10 7 -1 1 9 0 0.0
4 8 1 1 8 -1 6.74013362568
0 8 1 1 5 1 0.674492005092
2 9 1 1 3 1 1.43709329685
6 7 -1 -1 11 0 0.00439154386472
7 2 1 -1 3 0 44.30230638
10 4 -1 -1 9 -1 0.0
5 4 -1 -1 6 0 0.00920640520027
0 8 1 -1 5 0 0.290174049589
2 1 -1 -1 2 0 0.0942132827978
11 8 1 1 4 -1 -983.097446522
7 1 -1 1 2 1 0.00323996514715
6 6 -1 1 0 1 0.00489994375635
8 11 -1 1 9 -1 0.00111518404664
8 11 -1 1 10 1 0.00122878591849
11 7 -1 1 5 0 0.000184495260131
9 5 1 -1 11 1 -234.764378245
10 8 1 1 11 1 414.817379033
11 5 1 -1 5 -1 705.955990811
1 7 -1 -1 1 1 0.0
6 9 -1 -1 4 1 0.00283806534256
9 0 1 -1 1 -1 190.254477222
10 6 -1 1 1 0 0.000419091509042
10 1 1 -1 11 -1 -641.060504779
8 7 -1 1 7 -1 0.00156886582106
6 7 1 1 6 1 24.9853433708
1 8 -1 1 0 -1 0.143565030421
10 5 1 -1 3 -1 236.717559093
4 11 -1 1 5 1 0.0121891344887
11 10 1 1 8 1 -981.543698152
0 11 -1 1 0 0 0.000641951495977
5 3 -1 1 11 1 0.00645505897211
1 11 1 -1 8 -1 0.718114062393
1 9 1 -1 2 1 0.0
5 4 1 1 5 -1 9.65477221139
6 3 -1 -1 11 1 0.00729797502371
8 10 1 1 4 1 -171.202043692
6 8 -1 -1 7 0 0.00489833059098
9 8 -1 1 2 1 0.000585147305887
10 5 1 -1 1 -1 -562.612513679
11 10 1 -1 3 -1 -1000.0
9 7 1 1 2 -1 -332.206758878
6 2 -1 1 2 -1 0.0113640430723
9 10 -1 1 3 1 0.0
6 5 -1 1 3 0 0.00547695454066
7 8 1 -1 11 1 -60.490215445
11 1 1 -1 6 1 -853.314645413
7 9 1 -1 11 0 -15.1558428303
3 8 1 1 5 0 2.59553188696
9 4 -1 -1 3 1 0.001295902761
7 5 -1 -1 8 0 0.00267827986969
6 11 1 1 5 0 -9.5740774859
11 7 1 -1 0 -1 -998.413005954
1 2 -1 1 1 0 0.226662195841
1 0 -1 -1 11 0 0.107246771109
6 3 1 -1 1 -1 25.2138202566
3 11 1 -1 2 1 0.697331141097
4 4 -1 1 8 0 0.016033154912
5 5 1 -1 9 0 -8.58972262273
6 4 -1 -1 7 1 0.00611331770023
4 6 1 -1 11 0 -2.27245491194
9 9 -1 -1 5 0 0.0
8 11 1 -1 4 1 -189.189617322
2 10 -1 1 1 0 0.0673108472343
8 10 1 -1 9 1 92.9905764224
0 11 1 -1 3 1 0.322141977173
2 0 -1 1 10 0 0.060793905992
6 3 -1 -1 2 0 0.0053108018083
3 4 -1 1 7 -1 0.0318312304674
8 5 -1 1 6 -1 0.00171273083223
0 0 1 -1 3 1 0.469208708644
0 11 1 1 5 1 0.375137021873
7 10 -1 1 6 0 0.00143989487684
3 1 1 -1 5 0 3.37000037186
6 3 1 1 4 -1 23.6241374076
6 10 1 -1 8 1 26.3073123261
4 8 -1 1 8 -1 0.0240482001887
8 9 1 -1 11 -1 107.397437695
5 4 -1 -1 1 0 0.0
11 10 -1 1 9 1 0.000223262202587
1 5 -1 1 8 1 0.0987283546243
1 5 -1 1 9 0 0.0
10 7 1 1 3 0 -645.921091283
8 1 -1 1 0 -1 0.00250145131264
1 7 1 -1 7 1 0.654917986764
7 6 -1 1 8 0 0.00372001118425
5 6 -1 1 0 1 0.0100802588944
8 6 1 -1 8 0 11.2740485699
10 9 -1 -1 10 0 0.000334176126554
3 3 1 -1 7 1 2.47513477715
7 10 -1 -1 1 -1 0.00547695634751
11 9 -1 1 9 -1 0.00019891153539
5 10 -1 -1 3 1 0.00658486691745
1 7 -1 1 0 -1 0.00200992930356
7 3 -1 1 9 -1 0.00400292042683
0 0 -1 1 4 0 0.251171675274
2 6 1 1 11 0 1.39913532934
6 8 -1 1 1 0 0.00214476928315
2 7 1 1 10 0 1.52916283775
5 2 -1 -1 3 -1 0.0110555316729
8 4 -1 -1 8 1 0.00155310747327
0 1 -1 -1 6 0 0.258573419621
6 2 -1 1 7 -1 0.0
4 7 1 1 10 -1 7.15952598381
11 6 -1 -1 8 1 0.000286631637536
0 10 -1 1 0 0 0.0
4 9 -1 1 0 1 0.0185265373007
2 6 1 -1 9 1 0.785125324492
10 0 1 1 10 -1 -598.987379213
7 7 -1 1 3 -1 0.00234229425193
1 2 -1 1 7 -1 0.10705144362
3 9 1 1 5 1 3.74144593728
7 1 1 1 1 -1 25.8942434326
7 11 -1 1 5 0 0.00248411596719
0 7 1 -1 5 -1 0.421032463619
1 0 1 1 0 0 1.40819956421
9 3 -1 1 5 -1 0.0
0 1 -1 -1 10 1 0.175924928564
8 8 1 -1 8 0 93.5861213001
1 2 -1 -1 8 1 0.109880024258
1 8 1 -1 11 -1 0.812429923883
7 6 1 -1 11 1 -75.5150133926
4 9 -1 -1 4 -1 0.0137574240598
2 5 -1 -1 8 1 0.0611729409506
9 10 -1 -1 10 0 0.000648858844342
11 9 -1 1 5 0 0.000391085148788
5 7 -1 -1 4 1 0.00766368895994
4 2 -1 -1 3 0 0.0297854335053
4 2 -1 -1 2 1 0.0177654208529
2 7 -1 -1 2 0 0.0523700823592
10 11 1 1 11 0 386.212524401
11 4 1 1 9 0 -972.669953579
9 0 1 1 6 0 -239.379670163
7 4 -1 1 0 0 0.0034731315672
8 7 -1 -1 4 -1 0.000988973508266
1 7 1 -1 5 0 0.971300869975
6 2 -1 -1 0 1 0.00713683586999
10 4 -1 -1 1 1 0.000411942656209
6 8 1 1 0 1 -43.5738995643
1 5 1 -1 8 -1 0.914135185391
3 4 -1 1 3 -1 0.051779658647
4 7 -1 -1 1 1 0.0
1 4 -1 -1 3 0 0.180421094509
8 1 1 -1 4 1 6.21237088617
11 11 1 -1 9 0 -719.838768219
3 9 -1 -1 7 -1 0.0224262041926
7 0 -1 1 6 0 0.0
0 0 1 -1 6 -1 0.518175118007
3 1 -1 -1 4 0 0.0480803620537
7 7 1 1 5 0 -20.5296495498
2 0 -1 1 0 1 0.0873482362971
0 11 -1 -1 5 -1 0.226910017538
1 7 1 -1 11 1 0.376536902137
10 2 -1 -1 7 1 0.00071059629995
1 1 1 -1 2 -1 1.19446487061
7 3 1 1 0 1 29.6702765535
2 1 1 -1 10 0 1.97457066909
1 2 -1 -1 11 -1 0.113277339343
3 8 1 -1 7 0 2.40057387932
6 10 -1 1 1 -1 0.00547863654114
8 2 1 1 10 1 -160.270202999
7 0 1 -1 6 -1 33.7852409979
9 1 1 1 8 1 -289.058384414
6 5 1 1 5 -1 2.73115629738
0 11 -1 -1 2 0 0.330907079641
11 1 1 1 7 -1 -1000.0
3 6 -1 1 10 -1 0.045132524754
6 8 1 1 4 1 -34.9261404308
0 5 1 -1 8 0 0.36870279376
4 3 -1 -1 0 0 0.0178355919415
5 0 -1 -1 2 0 0.0161652805448
4 6 -1 -1 9 -1 0.0165238642007
0 5 1 -1 7 -1 0.450107632926
7 0 1 -1 8 1 -64.6583877783
10 4 1 1 10 0 -579.372653565
11 6 -1 1 3 1 0.000231136342067
7 11 1 1 1 -1 -102.174416319
4 11 1 -1 1 1 0.0
3 3 1 -1 9 -1 2.85700250345
4 2 -1 1 0 -1 0.0282744072773
3 3 1 1 4 1 3.96624617887
3 8 1 1 0 -1 0.0
0 8 1 1 6 0 0.579018498564
0 4 -1 -1 7 0 0.245828530661
7 8 -1 1 2 -1 0.00201309971802
9 7 1 -1 0 -1 -278.219565714
0 2 -1 -1 0 0 0.27775022841
1 11 -1 1 8 1 0.114454180834
4 0 1 1 5 0 6.00691398934
7 6 1 -1 10 -1 -61.1506840048
4 0 1 1 4 1 6.00003977344
7 4 -1 -1 0 1 0.00453105371663
9 11 1 1 2 1 -177.130182078
0 10 -1 1 10 0 0.0
3 9 -1 -1 8 0 0.0265578644473
1 11 1 1 11 -1 1.26574441228
10 0 1 -1 0 -1 379.888320524
3 3 1 1 8 0 3.72273869171
7 10 1 1 6 -1 -54.4288482046
1 7 -1 1 0 1 0.0
5 7 1 -1 9 -1 7.53597020116
10 0 1 1 11 1 -604.189227752
0 1 -1 -1 0 0 0.360991832739
1 2 1 -1 2 -1 1.08494996614
0 1 -1 -1 1 1 0.332532226635
6 8 -1 -1 4 0 0.0
8 7 -1 -1 8 -1 0.0012269181368
2 4 -1 -1 3 0 0.061350129671
0 8 -1 -1 6 0 0.185248781076
4 5 1 1 3 1 1.92373836031
1 11 -1 -1 8 0 0.17226650502
5 6 1 1 0 1 0.0
1 6 1 1 1 0 0.000359498617834
6 2 -1 1 9 -1 0.00216410511785
6 6 1 -1 0 -1 -0.909515846104
5 9 1 1 1 -1 -14.3439984271
5 10 -1 1 11 0 0.0080649839378
6 6 -1 -1 1 -1 0.00117193650879
5 11 -1 1 11 1 0.00910821243291
1 3 -1 -1 3 1 0.152190684253
7 1 1 -1 6 0 -17.3554299386
6 6 -1 -1 8 -1 0.00508322061931
10 11 1 1 1 1 -517.639757581
1 10 -1 1 2 0 0.000404630426482
2 8 -1 -1 5 0 0.0600711276955
5 7 1 1 0 0 -2.76253629368
6 10 1 1 2 0 -31.596979167
3 2 1 1 6 0 2.76233179265
3 2 1 1 7 1 2.75696086432
-1 0 -1 1 5 -1 0.418932443827
4 8 1 -1 6 0 3.65236046025
5 1 -1 -1 10 -1 0.0071017470978
6 6 1 1 1 0 -23.6430685248
2 7 -1 -1 5 -1 0.0707655096753
1 6 1 1 2 1 0.0533908446202
8 9 -1 1 2 -1 0.00058324430189
2 9 1 1 10 -1 1.50439565481
6 0 -1 1 4 -1 0.00714650812995
6 3 1 1 8 1 21.8050239161
6 3 1 1 9 0 14.9376503234
0 8 -1 -1 11 -1 0.203304102291
11 6 1 -1 0 0 -892.874382825
6 4 -1 -1 10 1 0.00602927035218
4 10 1 1 8 -1 6.70922449562
5 1 1 1 6 0 11.8293373313
3 3 -1 1 8 0 0.032006894574
4 7 1 1 5 0 1.66946372553
5 0 1 -1 9 -1 -8.06200862154
5 4 1 1 7 0 9.72382386131
1 4 1 1 2 -1 0.0
11 0 1 -1 0 -1 737.505177371
8 3 1 -1 9 0 -146.638273513
4 7 1 1 1 0 -1.02235341742
9 9 -1 1 5 1 0.0005482789644
2 5 -1 -1 0 0 0.0463979202728
8 7 1 -1 4 1 64.7565527947
1 6 -1 -1 0 -1 0.0909664717916
9 10 1 -1 7 0 -102.77614055
9 1 1 1 2 0 147.35827139
5 2 1 -1 2 1 12.0012869167
2 8 -1 -1 0 1 0.0
9 5 1 1 0 1 -375.866457795
11 7 1 1 10 -1 852.934940459
9 2 -1 -1 8 0 0.000545217278241
6 5 -1 1 1 -1 0.0055205841587
3 10 -1 1 2 -1 0.0
8 9 1 1 6 -1 -140.330884765
1 11 -1 1 4 1 0.0915650232812
10 5 -1 1 2 0 0.000346942146143
1 10 1 1 2 -1 0.0
3 3 -1 1 6 0 0.0
0 7 -1 1 10 -1 0.214816459818
8 1 -1 1 0 1 0.0017550073146
8 9 1 -1 5 1 76.801976898
10 10 1 -1 3 1 -348.694408678
8 9 1 -1 4 0 -243.259477319
2 10 1 -1 5 1 1.83109223705
10 1 -1 -1 7 0 0.0
8 3 1 1 1 1 9.94080340877
10 6 -1 -1 11 1 0.000497331582034
3 11 1 1 5 -1 2.78168721621
5 8 1 1 11 1 11.8658083146
5 9 1 1 0 1 -10.9867746492
6 2 -1 -1 5 0 0.00666638693613
0 10 1 1 1 0 0.0
9 7 1 -1 6 0 95.2886531397
1 5 -1 1 8 -1 0.105127758158
3 11 1 -1 10 1 3.777163034
4 4 1 -1 1 1 6.88557539184
1 3 -1 1 8 -1 0.197928942649
3 11 1 1 11 1 3.08087790936
1 1 -1 1 7 1 0.115276105697
8 4 1 1 7 -1 106.02562099
2 0 1 -1 2 0 2.23263876534
7 6 -1 1 4 -1 0.00310056571045
1 0 1 1 8 0 0.707705736757
8 10 -1 1 3 1 0.00129678884737
2 10 -1 1 3 -1 0.0146827658245
1 9 1 1 3 1 0.923113457416
7 5 -1 -1 7 -1 0.0032102299596
4 2 1 1 11 1 3.94633639222
6 11 -1 1 1 0 0.0
8 7 1 -1 4 -1 38.0772954525
2 7 1 -1 2 0 0.0
9 9 1 1 4 0 -221.382389036
2 9 -1 1 5 1 0.0924242173195
0 1 1 1 4 1 0.591323569771
0 3 -1 1 5 -1 0.259543652541
1 3 1 -1 1 0 1.36348389481
2 0 1 1 10 1 0.823669346849
4 7 -1 1 4 1 0.017212602297
10 10 1 1 4 0 -416.045952289
0 7 -1 -1 7 1 0.220269104282
11 5 1 1 6 0 667.52007116
3 4 -1 -1 10 -1 0.0345052971477
3 0 -1 1 8 1 0.0355861469165
7 8 1 1 5 0 -77.1230568856
8 8 1 -1 2 1 -155.331328298
6 9 1 -1 5 -1 17.4188689204
8 10 1 1 3 0 -213.820749802
5 9 1 -1 9 -1 10.7438219196
6 4 1 -1 7 -1 2.93200441603
6 1 1 1 6 1 17.6168520144
4 6 1 -1 6 0 4.16513397771
5 0 -1 1 0 1 0.0248562978698
7 4 -1 -1 2 0 0.00235521903211
9 9 -1 1 9 1 0.000612981080668
3 9 -1 -1 1 0 0.0
1 5 -1 -1 8 0 0.125511080363
7 11 1 -1 1 1 -55.5998407113
3 8 -1 -1 0 -1 0.0
5 2 1 1 11 -1 12.0327190284
4 1 1 1 5 -1 6.62847127867
2 2 -1 -1 10 1 0.0788494836984
3 8 1 -1 0 -1 -1.19455370105
7 0 1 -1 9 -1 -24.586047809
11 9 1 1 5 0 -999.593133049
9 6 -1 -1 6 -1 0.000670842915885
7 6 1 1 3 -1 -57.1304793818
5 9 -1 -1 1 -1 0.0125984292391
4 2 -1 1 1 1 0.0290894200418
10 5 -1 1 2 -1 0.00037589582318
8 11 -1 1 7 1 0.000843991321493
5 3 1 1 3 0 3.88191712914
8 11 -1 1 6 0 0.0011395395629
11 3 1 -1 8 1 -903.574953146
11 3 1 -1 9 0 -961.538461538
11 9 1 -1 1 1 -999.302830817
3 4 -1 -1 7 1 0.034961609576
9 8 1 1 6 1 -76.2073531937
4 11 -1 -1 3 0 0.0127976097497
9 8 -1 -1 4 -1 0.0
11 4 -1 -1 1 0 0.000478995288799
1 4 -1 1 2 -1 0.0973085794638
5 8 1 -1 5 0 7.79894634397
11 0 1 -1 2 -1 -475.308819418
3 9 1 -1 5 1 3.34229793883
4 6 -1 1 6 0 0.021014781321
10 6 -1 -1 7 1 0.000373791036566
4 6 -1 1 7 1 0.0137889434126
7 9 1 1 9 -1 55.7265619635
10 8 1 -1 2 -1 -623.219373219
7 4 -1 1 9 1 0.0
0 11 -1 1 7 1 0.272938495932
3 5 -1 -1 3 1 0.051978212875
6 10 -1 -1 5 1 0.00422745057549
4 4 1 1 8 -1 5.41193704443
3 7 1 1 0 1 0.0
2 5 1 1 6 -1 1.87950322871
9 0 1 1 1 -1 196.929129264
1 0 1 1 4 -1 1.09349143266
5 5 -1 1 7 -1 0.00854636023562
5 5 1 1 11 -1 8.87259620121
6 5 1 -1 4 -1 20.6382503383
0 7 -1 1 3 0 0.142837159185
11 0 -1 -1 2 1 0.000357017633282
4 5 1 1 6 -1 6.43699329217
5 1 -1 -1 5 1 0.00958137463774
1 0 1 -1 7 1 0.751393201288
-2 0 -1 1 7 1 0.0
6 8 1 -1 6 1 19.4210263179
9 0 -1 -1 2 1 0.00115722657864
7 0 1 1 2 1 50.481636663
10 10 -1 1 6 1 0.000384686219953
8 10 -1 -1 7 0 0.00109454146851
4 4 -1 -1 11 1 0.0133183666899
0 1 1 -1 7 -1 0.384880036377
4 5 -1 -1 11 0 0.0261598467034
7 6 1 1 0 0 -110.763133224
6 9 -1 -1 0 -1 6.43594705968e-05
3 11 -1 -1 0 -1 0.0
10 6 1 1 4 -1 -481.542241332
0 1 1 1 8 1 0.419809185089
9 2 1 1 2 0 138.538025266
2 0 1 1 6 1 1.45102417639
9 5 1 1 9 1 86.2525398371
1 7 -1 1 6 0 0.139964094914
3 7 -1 1 3 0 0.0283828340238
6 9 -1 -1 9 0 0.00299816836916
0 0 1 -1 3 -1 0.399158095067
0 11 1 -1 0 1 0.000451561323282
8 0 -1 -1 6 0 0.00190048651472
8 9 1 1 10 0 74.2245955914
3 5 1 -1 1 0 2.09072847243
5 9 1 -1 6 0 8.36696083752
8 4 -1 -1 2 -1 0.0
4 10 1 -1 8 0 6.29023212883
8 7 1 -1 8 0 42.5286811519
6 1 -1 -1 2 1 0.00801553611447
7 2 1 -1 9 1 -37.5889003827
2 3 -1 1 8 0 0.05662084254
9 3 -1 -1 11 -1 0.000519090705137
1 5 -1 -1 4 0 0.170579736618
11 10 -1 -1 11 -1 0.000178250163712
4 2 1 -1 10 -1 -4.09083502512
10 5 -1 -1 9 -1 0.000459226437545
1 1 1 1 7 -1 1.03667516729
0 3 1 -1 0 -1 0.532731726974
5 11 -1 1 1 1 0.0104540124979
10 10 1 1 5 -1 -611.460517121
1 1 1 -1 4 1 0.988612434891
3 2 1 1 1 1 4.8357792333
0 7 1 1 2 1 0.419647708665
0 7 1 1 3 0 0.297122654672
11 7 1 -1 10 0 -996.073649091
1 6 1 -1 0 -1 0.138348970469
7 2 1 1 3 1 52.803927572
3 11 -1 1 3 1 0.0281161407724
0 3 1 1 9 -1 0.412260296993
4 0 -1 1 4 0 0.0208536235935
8 2 1 -1 5 -1 -20.6904818324
3 10 1 1 10 0 3.18155281413
4 9 -1 1 3 1 0.0179208760066
11 4 -1 1 1 0 0.000203320112377
7 7 -1 -1 10 -1 0.00236991712917
9 5 -1 1 1 1 0.000868806671011
3 3 1 1 1 1 6.16637237227
3 2 -1 1 3 1 0.0418882662589
0 1 -1 1 9 -1 0.166834762172
1 3 -1 1 11 0 0.106233809886
9 11 1 1 11 1 206.167644679
5 7 1 -1 1 -1 -6.6062487193
10 2 1 -1 7 -1 -421.050741068
0 11 1 1 4 0 0.381328438117
10 7 1 -1 6 0 226.227789364
11 9 -1 1 6 0 0.000286661580448
6 2 1 1 1 -1 0.0116732828893
1 8 1 1 10 0 0.788444096077
10 1 -1 1 2 0 0.000636302808723
9 2 1 1 0 1 184.434440292
5 2 1 -1 4 1 11.7780566002
4 9 -1 1 7 0 0.0157238681044
11 6 1 1 1 -1 -997.513502392
3 0 -1 1 0 1 0.0430727697125
8 5 -1 1 0 0 0.0
3 11 -1 1 9 -1 0.0301915143971
8 6 -1 1 2 0 0.00124819794938
3 10 -1 1 4 -1 0.0274415976299
10 4 -1 1 2 -1 0.000510807346795
8 1 -1 -1 9 -1 0.00164548908658
0 4 -1 -1 0 1 0.276127299832
11 9 1 1 10 -1 -179.229367527
6 3 1 -1 1 1 23.6406493181
10 6 1 1 8 -1 335.195914603
6 6 1 1 0 1 -33.1994625651
7 1 1 1 10 1 -9.69434634924
1 10 1 -1 10 0 0.769595671901
1 0 -1 -1 1 -1 0.219351948881
1 0 1 1 1 0 0.569407318007
6 2 -1 1 6 -1 0.00415913408406
9 0 1 -1 8 -1 -294.568940619
7 0 -1 1 8 0 0.00182374311544
0 4 -1 -1 1 1 0.219880455751
9 6 -1 1 7 -1 0.000697207715146
11 7 -1 -1 9 1 0.000270293730215
0 10 1 1 3 1 0.619706643356
11 6 -1 -1 5 0 0.000267231883409
11 3 1 -1 0 0 -879.09623527
5 11 -1 -1 10 0 0.00829810899847
9 9 1 -1 8 -1 135.464757494
6 0 -1 1 11 0 0.00289313373889
1 2 1 1 6 -1 0.760470833921
1 9 1 -1 7 -1 0.78021668102
9 5 -1 1 3 0 0.00103149917137
9 11 1 -1 6 0 -106.199280957
7 8 -1 -1 4 -1 0.00120496530141
4 0 1 -1 9 1 0.935431343599
1 8 1 -1 0 1 0.207940338839
2 2 -1 1 5 -1 0.0628547262883
0 9 1 1 0 0 0.0
9 4 1 1 5 1 180.471414367
7 3 1 1 9 1 -9.42128147459
6 8 -1 1 0 -1 0.0
9 1 1 -1 10 -1 -351.999828915
7 0 -1 1 5 -1 0.00217972372763
3 8 1 1 9 -1 4.08263937407
6 7 -1 1 10 -1 0.0
2 10 -1 -1 1 0 0.189591919886
0 11 -1 1 7 0 0.277984523344
3 4 1 -1 11 1 -3.0767222451
1 5 1 -1 11 0 -0.111463002083
10 11 1 1 7 0 -584.377315531
0 8 1 -1 3 0 0.347532663813
9 0 1 1 11 1 -115.613646229
6 11 -1 -1 5 0 0.00318151217775
4 10 -1 -1 5 0 0.0124491941993
8 0 1 1 11 1 -136.274158643
6 11 -1 1 5 0 0.00389326211789
2 8 1 -1 3 0 0.876026308138
4 4 1 -1 8 0 2.41594961796
8 1 1 1 11 0 -161.785403736
5 4 -1 1 8 1 0.00575929138404
1 3 1 1 0 -1 0.0
4 8 1 1 2 0 -7.27305883994
1 9 -1 1 11 -1 0.190671510953
3 9 -1 -1 11 -1 0.029646580981
9 8 1 1 1 1 -204.782832637
10 5 1 1 9 0 202.926717608
6 0 1 1 11 0 -20.2255415679
11 10 1 1 11 0 662.542234802
7 7 1 1 9 0 39.8457994577
5 9 -1 -1 7 1 0.0072875995895
3 10 1 1 5 1 2.79825408284
3 5 1 -1 5 -1 3.37174772612
3 1 1 -1 10 1 -0.0786656242712
2 10 -1 -1 11 0 0.0722730620301
4 3 -1 1 8 0 0.0228375592453
1 8 1 1 2 -1 0.0
2 1 1 -1 6 0 1.49330796291
5 10 -1 -1 4 -1 0.00769212108224
8 2 -1 -1 5 -1 0.00205893128797
0 0 -1 1 3 -1 0.267309263068
10 3 1 -1 7 0 -557.213613932
9 6 1 1 8 1 148.159889919
3 3 -1 1 9 -1 0.0
9 10 -1 1 5 1 0.000662263171939
9 9 1 1 0 0 -276.620481006
9 9 1 1 3 0 -389.623681828
7 9 1 -1 1 0 -101.102736529
6 6 1 1 5 0 1.72902924741
8 0 -1 1 9 -1 0.00174606516782
5 1 1 -1 4 0 12.8182386002
11 0 1 1 7 -1 -944.793059242
4 2 1 -1 6 0 5.22882083473
5 7 -1 1 0 0 0.0
0 11 -1 1 9 0 0.181951619459
2 7 -1 -1 10 0 0.0652623025111
0 6 -1 1 5 1 0.266022063412
10 9 1 1 2 1 -785.14737498
1 1 1 -1 1 0 1.20139794932
3 5 1 -1 10 0 -2.3261538388
7 8 -1 -1 11 -1 0.00233476712225
3 10 -1 -1 11 -1 0.035190258034
1 8 -1 -1 4 0 0.117030235909
6 0 1 1 4 -1 17.2109543734
7 6 -1 1 3 0 0.00298342822021
1 6 1 -1 7 0 0.683059777763
6 8 1 -1 11 1 -10.6072474583
0 9 1 1 11 0 0.245006513754
8 4 1 1 1 1 -110.37508063
0 2 1 -1 10 0 0.177540274758
6 5 -1 -1 6 1 0.00540792151495
6 3 -1 -1 11 -1 0.00536181540395
7 4 1 1 1 -1 -80.9837983537
2 10 1 1 7 1 1.58826324383
9 8 1 -1 3 0 -211.725636369
5 0 -1 1 5 -1 0.0104222167124
11 7 1 -1 2 -1 -1000.0
10 0 1 1 7 1 -598.56826226
10 7 1 -1 3 1 -335.307303488
10 2 1 1 4 -1 358.206577193
7 2 -1 1 5 0 0.00281257310774
7 2 -1 1 4 1 0.00244896942021
3 11 1 1 3 1 3.18667275671
8 3 1 1 7 -1 71.775460512
11 11 1 1 10 1 -202.109514127
9 1 -1 -1 6 1 0.0
4 7 -1 1 2 0 0.0174966837367
10 5 -1 1 3 0 0.000354440862167
6 10 -1 -1 8 -1 0.00337630417864
5 10 -1 1 7 0 0.00907999484923
5 10 -1 1 6 1 0.00749714928712
8 9 -1 -1 11 -1 0.001110761881
6 2 -1 -1 1 -1 0.00721897320932
10 3 1 -1 9 1 -540.024743623
9 3 1 -1 1 -1 179.427709148
6 2 1 1 3 -1 13.3876235918
9 10 1 1 2 1 -249.528584078
3 7 1 1 5 1 5.03229136366
5 8 1 1 10 1 15.3548268473
9 2 -1 -1 4 1 0.00109853400362
5 6 -1 1 10 -1 0.00452084893941
3 1 1 -1 6 1 3.58216935078
9 11 1 -1 9 -1 102.598281547
4 0 -1 1 2 0 0.0242171102589
10 4 -1 -1 8 0 0.000459601939525
4 9 -1 1 5 1 0.0198409675892
3 11 1 1 1 0 0.0
4 9 -1 1 4 0 0.0263847335364
7 7 -1 1 0 0 0.00135615551168
0 0 -1 1 6 -1 0.24106589569
1 8 1 -1 5 1 0.77010577402
3 6 -1 -1 0 0 0.0
4 3 1 -1 2 1 6.51224977249
9 6 1 1 4 1 -62.7533471576
4 3 -1 -1 2 -1 0.0220880036229
8 6 1 1 3 1 -99.1870626016
6 1 -1 1 10 -1 0.00291082191247
7 9 1 1 4 1 -92.1595177858
4 7 1 1 9 0 5.22546014291
3 4 -1 1 1 1 0.0605155572358
5 0 1 1 6 1 9.56285061408
11 5 -1 1 7 1 2.40534050755e-05
1 2 1 1 11 -1 0.898438374657
2 8 -1 -1 3 -1 0.0566511642263
1 3 1 1 10 -1 0.800286700299
2 8 -1 1 3 1 0.0725418493771
9 3 1 -1 10 1 -248.559003878
1 3 -1 1 5 -1 0.17516601884
6 3 -1 -1 9 -1 0.00546240887458
5 1 -1 -1 8 -1 0.0147908937959
2 6 -1 -1 3 0 0.0456157454265
1 7 -1 1 3 0 0.180250943336
1 10 -1 1 0 1 0.0
3 7 -1 -1 11 0 0.027866954282
5 10 -1 -1 11 1 0.00844142623267
10 11 1 -1 10 -1 227.631686323
7 1 -1 1 7 -1 0.0
11 4 1 -1 8 -1 -906.199089809
9 1 -1 1 2 0 0.000656847676337
5 3 -1 -1 4 0 0.0135809701008
3 9 -1 1 6 1 0.034329963234
6 7 1 1 4 1 -40.4848886682
6 2 1 -1 7 -1 10.3204405097
1 5 -1 -1 10 1 0.0902071482811
4 3 1 -1 7 1 3.69583479483
6 2 1 1 3 0 15.6654311886
5 9 -1 1 6 1 0.0106393055096
5 9 -1 1 7 0 0.0118455307528
0 8 1 -1 6 -1 0.348367912935
7 4 1 1 9 1 21.0331315722
3 3 -1 -1 5 0 0.0420853406838
0 3 -1 1 9 0 0.211177016434
0 3 -1 1 8 1 0.240467318624
0 7 -1 -1 11 0 0.154400264926
8 5 -1 -1 1 -1 0.0
11 11 1 1 0 0 -723.755069947
4 3 -1 1 10 0 0.0164937943301
2 3 -1 1 6 -1 0.0869329587863
3 11 1 -1 11 1 3.48854003777
6 6 1 -1 3 1 14.7140497597
9 7 1 -1 10 0 -246.111012392
11 3 1 1 11 -1 -983.468873901
4 8 -1 -1 4 0 0.0139621774222
7 8 1 1 3 1 -79.3753301164
2 1 1 1 11 -1 1.56208261243
5 11 1 -1 1 1 0.0
6 3 -1 -1 7 0 0.00631139454875
5 5 -1 -1 4 0 0.00784620041548
2 5 1 -1 9 1 -0.19698066638
9 5 1 -1 6 -1 151.622200828
6 10 -1 1 11 -1 0.00652669114464
0 5 1 1 4 -1 0.52945732162
1 2 -1 1 2 -1 0.0
2 7 -1 1 0 -1 0.0345057063029
0 5 1 1 9 -1 0.365791937956
7 8 -1 1 4 1 0.00279268350323
-1 0 -1 -1 0 -1 0.0
7 5 -1 -1 11 -1 0.00289787840196
3 0 -1 -1 9 1 0.0483907932711
8 10 1 1 10 0 75.9358451225
9 9 1 -1 7 1 201.211377442
9 1 1 -1 0 -1 187.009077364
0 3 -1 -1 11 1 0.0406304535596
5 0 -1 1 3 -1 0.0144890139635
2 6 1 1 1 0 0.0
11 4 -1 -1 3 -1 0.000189830280083
0 4 1 1 10 0 0.562706318509
3 9 1 -1 8 1 3.33931956614
6 9 1 1 4 0 -42.4129831078
9 8 1 -1 6 1 221.333625156
3 0 -1 1 11 -1 0.0471742022078
1 1 1 -1 6 0 0.86576722897
9 10 1 1 0 0 -357.902565403
3 0 -1 -1 4 1 0.0400093005723
9 1 -1 -1 0 1 0.00122072878269
10 7 -1 1 9 1 0.000422642316118
2 0 1 1 5 -1 1.72373925452
6 10 -1 1 7 1 0.00459479503649
9 0 -1 1 0 -1 0.00141880502232
10 10 1 -1 4 0 -453.000949054
4 7 -1 -1 4 1 0.017689106586
4 0 1 1 1 -1 5.16740158392
5 4 -1 -1 6 1 0.00928937824648
9 9 -1 -1 7 0 0.000567849842034
1 9 -1 1 1 -1 0.0
9 4 1 -1 5 -1 77.8226488514
4 1 -1 1 6 1 0.0127142409147
10 1 1 -1 7 -1 -375.476622765
0 1 1 -1 10 -1 0.636932816216
6 4 1 -1 3 -1 27.6670383559
1 5 1 1 9 0 1.25693366569
1 2 1 1 4 0 1.0685406763
8 11 -1 1 10 0 0.00096004521655
11 1 -1 -1 2 0 0.00042444768276
11 3 1 1 3 0 733.061022839
0 2 1 1 3 -1 0.451624032848
9 5 1 -1 11 0 -404.706413608
4 7 -1 -1 7 -1 0.0190569972414
3 2 -1 -1 5 -1 0.0474964129661
4 4 -1 1 2 -1 0.0181815969381
8 3 -1 1 1 1 0.00162165205335
5 11 1 1 9 0 10.5940700937
5 10 1 -1 5 -1 10.8370200638
10 3 -1 1 3 0 0.000404891924123
4 6 -1 1 11 1 0.0114085898221
11 8 -1 1 8 -1 0.000169420681693
9 11 -1 1 11 1 0.000691467688601
-2 0 -1 1 3 1 0.0
10 6 1 1 2 1 -406.703880608
5 2 -1 1 11 1 0.00920261532733
5 2 -1 1 10 0 0.00723318150402
6 8 -1 1 4 -1 0.00367475101133
5 3 -1 1 11 0 0.010210663106
5 4 1 -1 4 1 10.5570722983
9 11 1 -1 10 -1 167.850851094
6 5 1 -1 8 -1 -1.09088282931
3 4 1 1 4 -1 0.968444195705
6 8 -1 -1 7 1 0.00410936392523
2 7 -1 1 3 0 0.075358978966
9 0 -1 -1 3 1 0.00100533335146
8 9 -1 -1 4 0 0.00139460188986
3 3 -1 1 9 0 0.0388033306126
4 4 -1 -1 10 1 0.0175742563349
3 6 -1 1 8 1 0.0564293779286
7 5 1 1 0 0 -109.98435738
1 7 -1 1 9 1 0.094778766146
9 9 1 -1 11 1 102.364633318
5 3 -1 1 10 1 0.0103214853687
0 9 -1 1 7 -1 0.224759931184
6 11 1 1 6 0 -37.9895250672
1 2 -1 1 1 1 0.133820039863
2 6 1 -1 11 1 0.0
0 1 -1 1 3 1 0.28528157781
9 9 -1 1 10 -1 0.000595624185347
5 7 -1 1 10 1 0.00956798585047
7 7 -1 -1 1 0 0.00867683761315
4 4 -1 1 8 1 0.0
7 7 -1 -1 0 1 0.0
5 5 1 1 10 1 9.20067467908
3 3 -1 -1 6 -1 0.0374459455086
2 11 1 1 10 1 1.51971846664
8 11 1 -1 4 0 -192.763373548
8 6 1 1 9 0 71.9432607746
8 10 1 -1 9 0 96.6165821992
8 6 1 1 8 1 95.7106409522
1 6 1 -1 1 1 0.0
1 6 -1 1 7 1 0.134005085149
2 2 1 -1 5 1 1.61663980368
0 11 1 1 5 0 0.498040333822
0 3 1 -1 7 0 0.470642234037
0 3 1 -1 6 1 0.370638990682
7 9 1 -1 6 1 35.6229600803
0 3 1 -1 1 -1 0.497375809305
2 10 1 1 10 0 1.64606519429
4 8 1 -1 5 -1 5.41374768534
8 5 -1 -1 0 -1 0.0
4 9 -1 -1 1 1 0.0
9 3 1 1 3 0 148.49575527
6 4 -1 1 7 -1 0.00732089232545
0 5 -1 1 3 -1 0.328765513442
7 3 -1 1 5 -1 0.0
8 6 1 1 3 -1 -160.518543697
3 1 1 1 2 1 2.58029838598
10 2 1 1 8 1 -634.978229318
1 7 1 -1 7 0 0.696541802429
4 8 1 1 8 1 7.58002694278
3 2 1 -1 1 -1 2.93441795443
8 6 1 -1 8 1 -79.9943035103
7 7 -1 -1 11 -1 0.00260023680997
10 9 -1 -1 10 1 0.000402460169022
9 10 -1 1 3 0 0.00102061790123
3 3 1 -1 7 0 2.50662994972
7 0 -1 -1 4 1 0.00376742116322
5 10 -1 -1 3 0 0.00579278929376
9 1 1 1 4 0 110.865733383
6 10 -1 -1 7 0 0.0047485457649
0 0 -1 1 4 1 0.230843837416
7 6 -1 -1 2 -1 0.0
10 6 1 -1 11 -1 -551.915980793
4 0 -1 -1 0 1 0.0295609328215
11 9 1 -1 5 -1 -821.9623369
3 11 -1 -1 7 0 0.0254511204836
8 4 -1 -1 9 1 0.00144384476341
8 4 -1 -1 8 0 0.00166667207915
0 1 -1 -1 6 1 0.258323745609
6 7 1 1 2 0 -29.3773144405
8 2 -1 -1 8 -1 0.00145304596924
1 1 -1 -1 4 -1 0.138434121259
10 0 1 -1 3 1 -436.266847292
2 6 -1 -1 4 1 0.0603568524441
6 0 -1 -1 6 -1 0.00525662435385
2 6 1 -1 9 0 1.07696135954
6 7 1 1 3 1 -41.1238115026
10 2 1 1 1 1 396.699769737
4 1 1 1 1 1 3.223139272
8 9 -1 -1 8 0 0.00103107110096
8 6 -1 1 6 0 0.00127710417056
11 9 -1 1 9 0 0.000179895015541
5 11 -1 -1 3 0 0.00565127081514
1 4 1 1 3 1 1.13604226823
3 4 1 1 5 1 4.01661248217
8 8 1 -1 8 1 80.9845257785
11 1 1 -1 0 -1 689.542991802
4 4 1 -1 7 -1 5.30955846278
8 1 -1 -1 5 -1 0.00164434993808
4 3 1 1 9 -1 7.63155762683
2 4 -1 1 9 -1 0.0
8 1 1 -1 9 -1 -117.303790758
0 2 -1 1 3 -1 0.294049416343
8 9 1 1 3 -1 -111.866222756
4 9 1 -1 0 1 -0.258893799642
4 11 -1 -1 8 0 0.0148855384944
6 8 1 -1 1 -1 -22.7008649178
2 1 -1 1 10 1 0.0616996145382
5 7 -1 -1 4 0 0.00698187580108
9 0 1 -1 9 -1 -298.68604224
4 2 -1 -1 3 1 0.0243427876132
10 5 1 -1 11 -1 -543.670925933
4 2 -1 -1 2 0 0.0141233637988
3 2 -1 -1 3 1 0.0414985955429
1 9 1 1 10 -1 0.868055345801
8 1 -1 -1 2 1 0.00203627514185
3 9 -1 1 4 -1 0.0263090335101
9 0 1 1 6 1 -288.327623822
4 5 -1 1 7 1 0.0
9 4 1 -1 2 1 198.629371265
6 0 1 -1 10 0 -25.6353728168
11 8 1 -1 2 -1 -999.140313659
6 0 1 -1 11 1 -23.1090543265
7 11 -1 1 3 -1 0.0
4 5 -1 1 6 0 0.0134341403338
6 8 1 1 0 0 -14.1879263691
2 6 -1 -1 5 -1 0.0529677471638
0 7 -1 1 10 0 0.206734981461
4 7 -1 -1 1 0 0.0191614732196
7 7 1 -1 10 -1 14.6190201213
8 1 1 -1 4 0 7.35720153123
4 11 -1 1 1 0 0.0
9 9 1 -1 1 1 -160.158449286
7 7 1 1 5 1 27.7611120513
6 4 1 -1 0 0 15.6895579056
7 10 1 -1 6 -1 -33.2745076564
6 4 1 -1 1 1 26.6731641547
1 7 1 -1 11 0 0.480302449573
3 8 1 1 8 -1 3.46374641624
5 5 -1 1 8 -1 0.00700432904568
3 9 1 -1 9 -1 2.97933579064
3 10 1 1 2 0 -0.470199502205
9 7 -1 1 8 1 0.000776994808517
8 8 1 -1 4 -1 -86.8137713186
1 11 -1 1 10 0 0.0953412261672
0 3 -1 -1 0 -1 0.31002395754
3 8 1 -1 7 1 2.54034726096
1 9 1 -1 6 1 0.613699892094
3 9 1 1 8 1 4.13662863092
8 2 1 1 10 0 -33.2890164763
7 4 -1 -1 6 1 0.00302166235753
9 1 1 1 8 0 -353.224217183
5 0 -1 -1 5 1 0.010505845007
0 9 -1 -1 5 0 0.240072296611
4 3 -1 -1 0 1 0.0182147684681
5 0 -1 -1 2 1 0.0131365914557
1 7 1 1 5 0 1.08829864254
0 5 -1 1 11 0 0.171699462673
0 5 1 -1 6 -1 0.574137489398
9 5 1 -1 0 0 -368.510487426
3 11 -1 1 6 0 0.0245805503588
8 5 1 1 9 -1 19.5825704087
6 1 -1 1 11 1 0.00384723597989
7 0 1 -1 8 0 -37.1653770151
5 11 1 1 6 0 -5.51810009077
1 9 -1 1 7 -1 0.136078351056
7 8 1 1 4 -1 -101.766209027
3 3 1 1 4 0 3.71440870682
0 1 -1 1 1 -1 0.424421795791
3 1 1 -1 9 -1 4.39672983495
1 2 1 1 2 0 0.652321425303
4 4 1 -1 11 -1 -4.16075747986
3 11 1 -1 0 -1 0.0466994746772
0 4 -1 -1 7 1 0.225060286876
4 9 1 1 10 0 6.23489073189
0 1 1 -1 0 -1 0.65224340762
7 0 -1 1 11 0 0.00168763971666
0 2 -1 -1 3 0 0.363409388108
4 0 1 1 5 1 5.96086015084
2 3 1 1 8 -1 1.87683905377
4 0 1 1 4 0 5.78538350393
9 11 1 1 2 0 -408.721390123
2 6 1 -1 10 -1 1.32335299377
0 10 -1 1 10 1 0.234316494633
5 8 -1 1 7 0 0.00924084662965
8 11 -1 -1 2 0 0.0
5 11 1 -1 2 -1 -9.2989459606
5 10 1 -1 3 -1 0.143640405585
4 5 -1 1 4 0 0.0259351808484
2 6 1 1 1 1 0.000732412803626
6 6 -1 1 8 0 0.0
4 10 -1 1 2 -1 0.0204259512109
9 2 -1 1 3 -1 0.000668065342613
3 6 1 -1 3 -1 2.18441169459
0 1 -1 -1 0 1 0.277273373734
0 1 -1 -1 1 0 0.27285381801
7 2 -1 1 9 1 0.0
8 2 1 1 5 1 75.9604119757
11 7 1 -1 5 -1 -788.536770624
4 5 1 1 3 0 -3.82542862531
11 7 1 1 0 1 -1000.0
2 3 1 1 10 1 1.53872355203
7 1 1 1 5 -1 46.1679456557
4 1 1 -1 10 -1 -1.10270498926
5 10 -1 1 11 1 0.0142428685435
7 7 1 -1 6 -1 30.3508653936
5 11 -1 1 11 0 0.00620369904029
3 2 1 -1 9 -1 -0.893563813162
7 1 1 -1 6 1 -40.9030780032
10 11 1 1 1 0 -619.738289696
6 11 1 -1 7 0 25.1852251804
6 4 1 1 8 -1 24.1342778675
6 11 1 -1 6 1 7.37722263597
3 2 1 1 6 1 3.86261249023
3 8 1 1 4 -1 -0.347020644491
3 2 1 1 7 0 3.41926136928
6 0 -1 -1 1 -1 0.0128094651937
2 6 -1 1 7 -1 0.0684327387481
8 5 -1 -1 4 0 0.0019546520755
10 3 1 1 0 -1 -447.624445258
0 5 -1 1 8 0 0.279563432686
9 6 1 1 2 -1 -315.119561676
3 2 -1 -1 9 1 0.0251194750584
8 9 -1 1 5 0 0.00086499723484
8 11 -1 -1 5 1 0.000935790759321
8 11 1 -1 2 0 -136.556320202
3 4 -1 1 2 1 0.0448238067531
7 1 -1 -1 10 1 0.00240562826472
6 4 -1 -1 10 0 0.00401955076568
8 3 1 1 6 -1 103.561553168
10 6 1 1 11 0 153.851908848
10 8 -1 -1 8 -1 0.000348645161471
7 9 1 -1 10 0 39.8379901415
4 9 1 1 0 -1 0.0
11 8 1 1 9 1 676.019662308
7 7 1 1 2 -1 -107.23703354
3 10 1 1 3 -1 0.40964657304
8 3 1 -1 9 1 -146.543266122
9 10 1 1 8 -1 -358.215689014
3 11 -1 1 10 0 0.0230639680802
9 9 -1 1 5 0 0.000403456750973
4 6 1 -1 3 1 3.80310223512
2 5 -1 -1 0 1 0.0660389936885
3 10 1 -1 11 -1 2.97526474575
9 6 1 -1 10 1 -382.827617683
6 8 1 -1 6 -1 18.7806917161
9 10 1 -1 7 1 -62.4958809691
0 8 -1 -1 0 0 0.457923168659
5 2 1 -1 2 0 10.6529079321
8 0 -1 -1 1 -1 0.00230223410655
0 11 1 -1 11 0 0.478376799988
4 3 1 1 1 -1 0.0230662571277
3 6 -1 -1 8 0 0.0245397648337
9 5 1 1 0 0 -281.099798874
4 3 -1 -1 10 0 0.0176397195814
6 5 -1 1 0 -1 0.00411310375762
9 2 -1 -1 9 0 0.0
0 7 1 -1 6 1 0.343078983863
1 2 1 -1 5 0 0.920925909178
11 5 -1 -1 4 1 0.000229382311372
7 2 1 -1 2 -1 55.6383254917
1 8 1 1 2 0 0.0
2 7 -1 1 0 0 0.0
11 10 1 -1 1 0 -997.822931785
10 10 1 -1 3 0 -623.219373219
6 3 1 -1 3 1 20.5592265633
7 7 -1 -1 9 0 0.00240582642247
8 1 1 1 1 -1 55.297607676
7 2 -1 -1 2 -1 0.00367221624138
2 10 1 -1 5 0 1.48246568496
9 7 1 1 5 -1 -271.662739415
8 3 1 1 1 0 -72.8077239281
0 6 -1 1 3 1 0.309022291582
7 10 1 1 11 1 56.8973310073
6 2 -1 -1 5 1 0.00679651282917
9 3 1 -1 11 1 -336.895309527
0 10 1 1 1 1 0.00377180661573
8 0 1 -1 9 1 -194.678767285
11 7 1 -1 9 -1 48.1260583381
1 7 1 -1 3 1 0.794342626841
4 4 1 -1 0 1 6.80831390716
7 10 -1 1 9 1 0.00162785783176
4 4 1 -1 1 0 5.77720537253
3 6 -1 1 4 1 0.0445080290946
10 7 1 1 2 -1 -623.191998417
3 8 -1 1 6 -1 0.0264943333618
1 3 -1 -1 4 1 0.157659324599
6 9 -1 1 4 1 0.00383137033217
3 7 -1 -1 6 1 0.0385286193855
2 0 1 -1 2 1 1.85874738269
3 9 1 1 11 1 2.92678983614
1 0 1 1 8 1 0.928427818092
3 4 1 1 10 1 2.97672856041
0 5 1 -1 1 1 0.239870906466
7 5 -1 -1 6 -1 0.00404745652622
6 11 1 -1 10 1 30.1678631024
9 4 -1 -1 0 -1 0.0
10 2 1 1 1 0 331.436932625
2 4 1 -1 5 -1 1.76196039629
4 10 1 -1 7 -1 5.65307537105
1 5 1 1 10 0 1.43669907025
5 9 1 -1 5 -1 11.8673140518
1 5 1 1 1 0 0.0
7 11 1 1 11 1 57.6423005095
1 8 1 1 6 -1 0.724039284221
2 0 1 1 10 0 1.10972723457
3 2 -1 -1 2 1 0.0493146989925
4 7 -1 1 4 0 0.0205571217994
6 3 -1 1 11 0 0.00212390895224
0 7 -1 -1 7 0 0.203715484619
5 3 1 1 11 -1 15.451049055
7 11 1 1 10 0 43.1421306434
7 1 -1 -1 0 -1 0.0044945323586
5 1 -1 1 2 0 0.0123774582571
5 6 1 -1 8 0 6.24529321624
7 6 1 -1 3 0 26.9692733129
7 10 1 1 9 1 56.0268769483
6 0 1 1 1 0 20.643400891
0 0 1 1 11 -1 0.445685012762
3 9 -1 1 10 -1 0.0
9 7 -1 -1 3 1 0.0
8 10 -1 -1 4 0 0.0
4 9 1 -1 6 0 6.19143511067
11 4 1 -1 4 1 558.926511824
5 3 1 1 6 1 9.8490838498
5 0 -1 1 0 0 0.0226202782128
10 6 -1 1 3 1 0.000365900911704
9 9 -1 1 9 0 0.000514168871988
5 4 1 -1 6 -1 10.5118342195
3 9 -1 -1 1 1 0.0
8 10 -1 -1 0 1 0.0
7 11 1 -1 1 0 -96.0909467322
7 8 1 -1 7 1 42.0585783672
9 2 1 -1 3 0 96.7051953846
8 10 -1 1 7 -1 0.00101844772891
11 0 1 1 2 0 -758.062726104
2 2 -1 -1 10 0 0.0662691851812
5 0 1 1 6 -1 13.0769864628
8 5 1 1 0 1 -243.631806498
1 3 1 1 6 1 1.01217510861
9 6 -1 -1 7 -1 0.00073655973708
11 1 -1 -1 1 -1 0.000340136391989
11 11 -1 -1 10 1 0.000216041919011
6 0 -1 1 6 0 0.00710399479575
4 5 1 -1 6 -1 6.30081408861
9 3 -1 -1 9 -1 0.000604917656449
5 6 1 -1 4 -1 9.42919031663
6 11 1 -1 7 1 19.7444646353
8 3 -1 -1 3 -1 0.001536942443
0 3 -1 -1 6 -1 0.27710618135
11 9 1 -1 1 0 -1000.0
7 0 1 1 11 0 -63.0081657825
3 4 -1 -1 7 0 0.040667194386
2 5 1 1 10 -1 2.36323024191
2 5 1 -1 6 -1 1.55512324776
4 2 -1 -1 4 -1 0.0252690295921
6 4 -1 -1 5 1 0.00648193553304
9 10 -1 -1 2 1 0.0
6 7 -1 1 0 1 0.00240581229394
5 8 1 -1 5 1 10.9461369858
1 10 -1 1 6 1 0.1550973889
3 9 1 -1 5 0 2.11586583059
6 9 1 1 9 1 28.1630487367
4 6 -1 1 6 1 0.0111036101606
5 3 1 -1 4 1 10.4896125948
4 6 -1 1 7 0 1.72476862132e-05
5 0 1 1 8 1 -0.620368341015
5 7 1 1 9 1 12.4045242311
7 5 -1 1 10 0 0.00037522659308
0 4 1 -1 1 -1 0.374420103299
5 8 -1 1 9 -1 0.00876086646198
5 10 1 1 8 0 13.5960743842
0 7 -1 -1 8 -1 0.205156306818
6 8 -1 -1 4 1 0.00410583337843
3 0 -1 -1 9 0 0.0352005917665
1 6 1 1 7 1 1.03398578519
9 3 -1 -1 6 -1 0.00125550585383
5 0 1 1 9 0 2.84572226673
2 3 -1 1 6 0 0.0889675715133
0 7 -1 1 3 1 0.323469400586
2 2 -1 1 4 0 0.0871587628209
8 11 1 1 7 -1 -194.603170054
9 9 -1 -1 10 1 0.000610837604146
1 8 1 1 3 -1 0.0652688089184
3 11 1 -1 6 -1 2.52817273954
0 11 1 1 1 -1 0.00242378094883
11 8 -1 -1 7 1 0.000130576072631
9 8 -1 1 6 -1 0.000570370140774
5 10 1 -1 7 1 9.77953654963
7 6 1 1 0 1 -48.4625308099
1 7 -1 -1 5 -1 0.0969214292481
2 6 1 1 9 0 2.52169861602
8 6 -1 1 9 1 0.0
7 11 1 -1 7 0 19.6165680553
9 2 1 1 2 1 197.027625818
2 0 1 1 6 0 1.63311561158
1 7 -1 1 6 1 0.126763556831
0 7 -1 1 9 -1 0.326914840663
0 2 -1 -1 5 -1 0.253304338043
3 7 1 -1 8 -1 2.38957019922
0 10 -1 1 8 1 0.243668154289
0 11 1 -1 0 0 0.107569594131
2 3 1 -1 7 0 1.7251261015
8 9 1 1 10 1 104.442971831
10 4 -1 1 5 1 0.0003417521797
5 9 1 -1 6 1 10.3346117128
6 11 -1 -1 0 -1 0.0
3 7 1 1 3 1 -1.74300138045
8 11 1 -1 1 -1 -97.6190562924
8 8 1 -1 1 -1 -100.50802707
9 11 1 -1 3 -1 -340.627387165
6 9 -1 -1 7 1 0.00411767339299
1 1 1 1 6 -1 0.782954304634
7 7 -1 1 10 0 0.0
2 5 -1 1 0 1 0.0577559484254
2 10 1 1 0 -1 0.0
1 0 1 1 2 0 1.16051111874
10 3 -1 -1 9 -1 0.000622472370931
1 2 1 -1 11 -1 0.553144899725
2 7 1 -1 9 -1 1.25585478173
1 11 -1 -1 0 1 0.0
3 2 1 1 1 0 1.99489651542
4 0 -1 -1 11 -1 0.0172724817269
11 5 -1 1 4 0 0.000213131646948
11 7 1 -1 10 1 -785.944839917
3 10 1 -1 5 -1 2.36142114733
0 10 1 1 2 -1 0.0
9 5 -1 1 6 -1 0.000651856228813
3 11 -1 1 3 0 0.0219254185164
1 3 1 -1 4 0 0.853611894102
4 0 -1 1 4 1 0.0264881792324
7 3 -1 1 0 0 0.00331720040261
1 3 -1 -1 11 0 0.0432872226294
3 10 1 1 10 1 3.61258417334
11 4 -1 1 1 1 0.000317638096578
9 5 -1 1 1 0 0.000785165314096
11 7 1 1 7 0 580.06140318
0 1 -1 1 8 -1 0.277119387405
2 0 1 -1 10 0 0.857967021617
10 11 1 -1 0 -1 -911.704842153
2 9 -1 -1 5 -1 0.0540180301288
8 5 1 -1 11 0 -144.173624178
11 7 1 -1 4 0 -999.767687622
8 8 -1 1 3 0 0.00120205129797
11 1 -1 1 0 0 0.000288967304302
4 8 -1 1 5 -1 0.0174961734742
8 9 -1 1 11 -1 0.0
0 3 1 -1 10 1 0.305200562257
2 11 -1 -1 3 1 0.0516304580411
5 2 1 -1 4 0 10.7432754302
9 10 1 -1 4 -1 -387.878292445
9 2 1 1 4 -1 130.238985128
2 10 -1 1 5 0 0.0577471927772
5 8 -1 1 6 1 0.00896704918209
7 6 -1 1 11 -1 0.0
4 9 1 1 6 -1 3.03409300046
2 0 -1 1 2 1 0.0726625140211
8 3 1 -1 10 -1 -176.489727541
2 3 -1 -1 8 0 0.0659775448291
10 2 1 -1 2 0 361.684404477
8 5 -1 1 5 -1 0.0021697937285
5 7 1 -1 5 1 7.01160999069
7 4 1 1 1 1 0.327100647023
9 7 1 1 8 1 185.467188459
9 0 -1 1 4 -1 0.0013160014068
2 0 -1 1 3 0 0.069750551335
7 1 1 1 10 0 -51.3690887542
7 0 -1 1 4 1 0.00343890899197
5 1 1 -1 0 0 13.0505057597
4 6 -1 1 9 -1 0.0
1 5 1 1 6 1 1.10223653918
6 0 1 1 7 1 4.24937703045
3 4 -1 1 11 0 0.022935519954
8 3 -1 -1 10 1 0.000855725390481
1 5 -1 1 11 1 0.126185329086
11 8 1 -1 1 -1 -1000.0
4 9 1 1 8 1 6.96525614245
2 8 1 1 8 0 1.54016952928
0 8 -1 1 3 1 0.264592336717
3 2 1 1 5 -1 3.60606318694
6 3 -1 -1 11 0 0.00560944751923
10 5 -1 -1 6 -1 0.000471343063325
2 8 -1 -1 6 -1 0.0551488976509
7 1 -1 -1 1 -1 0.00497743682696
11 9 1 -1 9 1 680.746709301
7 11 -1 -1 11 1 0.00266199756503
8 2 1 -1 8 -1 -145.555020952
11 1 1 1 5 1 -984.905355967
7 11 1 1 3 -1 -77.2096265792
4 10 1 -1 2 -1 0.0
6 4 1 1 7 -1 22.6504324515
0 6 -1 1 9 0 0.474204439794
6 8 -1 1 3 1 0.00621712318358
9 11 1 -1 6 1 -238.403605438
3 5 1 1 1 1 -0.193539455012
4 0 1 -1 9 0 1.0292425726
6 5 -1 1 5 0 0.00531705798289
4 6 1 -1 2 1 6.70173151095
2 7 -1 1 1 -1 0.0
9 4 1 1 5 0 154.097905943
7 10 1 -1 7 0 43.2039530145
6 4 1 1 5 0 25.1206847145
3 5 1 1 0 0 6.08352756816e-06
10 9 1 -1 11 -1 274.449546129
0 0 -1 -1 2 -1 0.375992639134
10 4 1 1 4 1 318.766491681
11 0 1 -1 8 1 -923.948630084
0 9 1 1 7 1 0.562479244269
5 2 1 -1 5 0 10.0079500965
10 10 1 -1 11 0 333.770192729
6 11 -1 -1 6 -1 0.00299417610234
9 0 1 1 11 0 -306.05412536
11 8 1 -1 3 0 -995.807127883
2 11 1 1 11 -1 1.48937036389
4 1 1 1 2 -1 0.0
4 10 -1 -1 5 1 0.0159265902888
6 11 -1 1 5 1 0.00467760648976
4 4 1 -1 8 1 -2.58235774052
5 10 1 1 10 -1 11.901119714
5 1 -1 -1 0 1 0.0147407031846
8 8 1 -1 10 0 -33.4182475882
3 1 -1 1 10 -1 0.0233636826127
9 5 -1 -1 4 0 0.00108935833392
0 5 1 1 8 1 0.421039433658
2 6 -1 1 3 0 0.077455961138
5 8 -1 -1 1 -1 0.0
6 0 1 1 11 1 -12.4799960381
8 3 -1 -1 9 1 0.00107631252982
7 7 1 1 9 1 52.3213173485
2 6 -1 1 6 1 0.0570198820641
1 1 -1 1 1 1 0.0
5 11 1 -1 4 -1 7.42859330944
5 8 1 1 9 0 10.4544827999
7 10 1 -1 3 -1 -73.2550641125
2 10 -1 -1 11 1 0.0621040713159
4 4 1 -1 6 0 4.74592447956
3 1 -1 -1 0 -1 0.0461801096173
6 8 -1 1 0 0 0.00574638536723
6 10 -1 1 4 0 0.00436855610802
5 8 1 -1 0 -1 -12.6250942974
3 7 -1 1 4 0 0.0437617203536
2 2 -1 1 0 -1 0.0712679945556
5 11 -1 -1 9 -1 0.00735860706179
9 4 1 1 8 -1 -103.206324794
10 3 1 -1 7 1 -505.78851268
1 3 -1 1 5 0 0.11556454739
4 0 1 1 2 1 6.77007927338
7 9 1 1 6 0 -119.793726483
1 11 -1 1 5 1 0.148493079889
7 5 -1 -1 0 1 0.0
7 2 1 -1 7 1 -70.6872564981
9 2 -1 -1 1 -1 0.00104693772872
9 9 1 1 3 1 -221.847560019
2 0 1 -1 8 -1 1.34774653307
11 9 1 1 0 -1 -1000.0
2 3 1 -1 9 0 0.405873454879
10 6 1 -1 10 0 -617.791722838
7 2 1 1 4 1 46.4294204
4 2 1 -1 6 1 5.033185515
9 8 1 1 2 -1 -241.399529915
5 7 -1 1 0 1 0.0
8 0 -1 -1 11 1 0.000698354079339
2 7 -1 -1 10 1 0.0563700657128
6 4 1 1 11 -1 20.8816156395
0 6 -1 1 5 0 0.266025620672
6 3 -1 1 3 0 0.00563207315333
4 0 -1 -1 5 0 0.0186857125706
3 5 1 -1 10 1 -0.456790162827
9 7 -1 -1 6 -1 0.000562737789302
2 11 1 1 9 0 2.1978814917
1 8 -1 -1 4 1 0.116573545396
2 7 1 -1 11 0 0.212516667935
7 6 -1 1 3 1 0.00307191091447
3 2 1 -1 3 0 3.61407441413
7 6 -1 1 2 0 0.00183385415262
0 4 -1 1 8 0 0.261557113346
10 4 1 1 8 1 -496.262399018
8 1 -1 -1 0 0 0.00249880493996
7 8 -1 -1 1 0 0.0
4 4 -1 -1 3 0 0.015486958871
9 11 -1 -1 8 -1 0.000381664257201
2 4 -1 -1 2 1 0.120655300956
2 3 1 -1 10 -1 1.70062866008
5 3 -1 -1 1 -1 0.0101005112506
7 2 -1 1 5 1 0.00331478062411
8 6 1 1 5 -1 -103.544552956
7 2 -1 1 4 0 0.00269160051901
6 2 1 1 8 1 15.9905193981
11 11 1 1 10 0 -950.710108991
3 1 1 1 6 0 2.86433829463
10 10 1 1 1 -1 -686.910850204
9 1 -1 -1 6 0 0.0
10 5 -1 1 3 1 0.00043308128731
9 3 1 -1 4 0 -58.1441157668
5 10 -1 1 7 1 0.0100472189166
9 9 -1 1 2 -1 0.00116871465398
5 10 -1 1 6 0 0.012349842919
2 6 1 -1 6 -1 1.39027867049
2 8 -1 -1 4 1 0.0534009028745
1 7 -1 -1 7 0 0.101395053286
3 3 -1 -1 8 1 0.0306828849022
7 6 -1 -1 4 0 0.00352130249097
1 11 -1 -1 10 1 0.134209670876
4 0 -1 1 2 1 0.0258926108636
6 1 1 1 6 0 15.8805346408
6 5 1 1 2 0 -27.499770415
2 6 1 1 8 -1 1.70723418728
5 8 -1 1 11 -1 0.0142031016601
0 0 -1 1 7 -1 0.176479549013
11 5 -1 -1 3 0 7.26334457281e-05
8 9 -1 -1 5 -1 0.00116064286275
1 2 -1 -1 1 1 0.130282883774
5 11 -1 -1 7 0 0.00780557408645
11 2 1 -1 4 1 -959.973835756
10 9 -1 -1 9 -1 0.000321376300726
5 8 1 1 10 -1 14.3655019294
7 9 1 1 4 0 -82.5878672684
10 11 -1 1 7 0 0.000250567433239
10 9 -1 1 5 -1 0.000179942498638
8 1 -1 -1 8 0 0.0017348773319
6 0 -1 -1 0 -1 0.00900989201013
3 7 -1 1 0 -1 0.00224034679951
6 4 -1 1 8 1 0.0
10 11 -1 1 6 1 0.0
2 6 -1 -1 3 1 0.0308413995083
10 6 -1 -1 6 1 0.000479444372449
0 11 -1 -1 0 0 0.00180637652502
6 3 1 1 7 1 19.2726404121
1 10 -1 1 0 0 0.00103597001213
2 11 -1 -1 9 1 0.0753824980377
3 7 -1 -1 11 1 0.0274609117907
2 5 -1 1 9 0 0.0
5 10 -1 -1 11 0 0.00937609878422
1 9 -1 1 0 1 0.0
11 0 -1 -1 3 1 0.00043654405089
0 5 -1 1 6 -1 0.241261642848
8 5 -1 1 3 -1 0.00156448124806
1 6 -1 1 4 -1 0.118381797722
6 0 -1 -1 10 1 0.00429616533251
10 0 1 -1 11 1 -631.308445527
5 11 1 -1 9 0 13.5526302263
4 8 1 -1 7 0 5.68663595721
0 3 -1 1 9 1 0.346205225603
4 0 1 1 3 -1 5.61436727357
0 3 -1 1 8 0 0.21931650181
8 6 1 -1 4 -1 37.3048498306
9 7 -1 1 1 -1 1.13146508067e-05
3 9 -1 1 8 0 0.0440721614339
6 11 -1 -1 2 0 0.0
3 11 1 -1 11 0 3.2957810999
10 3 -1 -1 7 1 0.0
9 7 1 -1 10 1 -263.077278527
8 3 1 1 2 -1 -100.711092327
1 4 1 -1 0 1 0.820990244537
7 8 1 1 3 0 -58.5719215322
5 11 -1 -1 1 -1 0.0
1 1 1 1 5 0 0.881595955811
4 0 -1 1 7 -1 0.0185149106663
1 0 1 1 9 1 0.663404736997
2 5 1 1 11 1 1.29286890796
0 2 -1 1 4 0 0.343954151301
0 5 1 -1 0 1 0.468681612086
1 6 1 1 0 1 0.000250969429685
9 1 -1 -1 10 -1 0.0
8 10 -1 -1 11 0 0.00132805455617
8 7 -1 1 4 -1 0.00150046208788
10 7 -1 -1 9 1 0.000337241225401
11 1 1 -1 8 0 -983.495147728
7 8 -1 1 4 0 0.00228391342706
0 1 1 -1 3 -1 0.558772465623
5 7 1 1 5 -1 -0.07650884252
9 9 1 -1 7 0 117.557797928
0 1 1 -1 11 0 0.125362803651
8 11 1 -1 9 -1 82.6869696851
6 7 -1 -1 6 -1 0.00536476874501
7 7 -1 -1 4 1 0.00281656829257
8 9 -1 1 1 -1 0.000161601017013
0 5 1 1 8 0 0.440248556694
0 3 -1 -1 11 0 0.243652712802
5 6 -1 -1 3 -1 0.0
1 1 1 -1 5 1 0.92248513576
6 9 1 1 4 1 -41.7918701138
1 9 -1 -1 1 0 0.0
2 1 1 1 10 0 1.58227219925
8 11 -1 -1 9 1 0.00122651989907
5 8 -1 1 4 -1 0.014080967567
2 6 -1 1 8 -1 0.0602078341237
11 11 -1 1 8 0 0.0
9 7 1 1 7 0 121.515072907
9 7 1 1 6 1 95.0329747811
9 1 -1 -1 0 0 0.00158486191775
7 9 -1 -1 10 -1 0.00194840189963
0 10 1 -1 6 1 0.362503148232
3 8 -1 1 0 -1 0.0
3 7 1 -1 1 1 0.0
6 10 -1 1 7 0 0.00363147468418
1 5 1 -1 3 1 0.877839651069
5 4 -1 -1 5 -1 0.0113432907235
10 10 1 -1 4 1 -544.593355788
6 8 1 1 7 0 23.8100973678
4 10 -1 1 6 0 0.0143968870737
10 7 1 -1 8 -1 267.530490468
9 9 -1 -1 7 1 0.000566004326662
1 6 -1 1 8 1 0.099315596793
7 7 -1 1 9 -1 0.00411374853655
1 2 1 1 4 1 0.901329877976
0 8 1 1 3 -1 0.438319379317
7 9 -1 1 11 0 0.00271883783728
4 2 -1 -1 5 -1 0.0225313565027
9 1 -1 1 3 -1 0.000975450840411
5 9 1 -1 4 0 9.86223914422
6 6 1 1 7 0 23.488186481
1 3 1 -1 10 0 0.294273565994
9 5 -1 -1 1 1 9.39556092416e-06
9 10 1 1 6 0 -249.766604988
7 4 1 -1 9 1 -92.1846948263
2 5 1 -1 2 1 0.0
6 10 1 1 10 1 33.7819980122
4 6 -1 1 11 0 0.0239699714171
9 11 -1 1 11 0 0.000563247871654
8 5 -1 -1 11 0 0.00132396806751
10 6 1 1 2 0 -645.395270401
8 10 -1 1 9 1 0.000879262269168
11 2 1 1 4 0 -561.195418277
5 4 1 -1 4 0 11.0179915114
8 5 1 -1 6 -1 71.3462736881
6 3 1 1 1 1 7.18497235168
10 3 1 1 10 -1 -653.480619968
2 7 -1 1 3 1 0.0900048039619
9 0 -1 -1 3 0 0.000914278503539
1 10 1 -1 2 1 0.0
8 9 -1 -1 4 1 0.0
4 10 1 1 1 -1 -1.59582266526
3 0 1 -1 6 0 2.42023025031
10 8 -1 -1 10 1 0.000349573443108
11 7 -1 -1 11 -1 0.0
11 7 -1 -1 8 1 0.000224638714405
9 7 1 -1 2 -1 -209.135302759
6 11 1 -1 5 -1 11.5785906391
4 1 -1 1 2 -1 0.0214011572019
9 9 1 -1 11 0 -130.025573255
2 10 1 1 5 0 1.18627140718
4 1 1 1 4 1 6.21812264451
1 10 1 1 11 1 1.00759510187
7 8 1 1 9 1 55.6884711458
6 11 1 1 6 1 -26.503179761
11 0 -1 -1 0 0 0.000278394144552
2 6 1 -1 11 0 -1.07990855541
4 11 1 -1 4 1 4.61923321042
3 11 -1 1 1 1 0.00904168798247
7 7 -1 -1 1 1 0.0
3 3 -1 1 7 1 0.0312746087188
0 9 -1 -1 7 -1 0.180318609634
1 1 1 -1 9 1 0.452781112404
6 10 -1 -1 9 0 0.00325308445568
1 7 1 -1 0 -1 0.22491354553
3 1 1 1 8 -1 3.44400100942
9 1 -1 1 10 0 0.0
4 3 1 1 7 -1 5.3300304942
8 6 1 1 8 0 110.569736693
3 6 1 -1 1 0 2.34856894215
8 4 1 1 9 0 31.068248608
4 6 1 1 11 1 4.65967575201
7 2 -1 -1 0 0 0.00462857337985
5 2 -1 -1 9 0 0.0146058247138
8 2 1 1 2 1 88.4381374319
0 3 1 -1 7 1 0.446290943119
0 3 1 -1 6 0 0.441775889179
1 5 1 1 0 0 0.0
11 11 1 -1 7 1 -1000.0
7 3 1 -1 10 -1 -84.2384150797
9 2 1 1 9 -1 -405.225654572
1 2 1 -1 7 -1 0.889689752884
1 10 -1 1 4 1 0.0975533204162
3 8 1 1 5 1 4.42426400679
3 11 1 -1 2 0 0.0
9 3 1 -1 5 -1 -15.3342173548
3 11 1 -1 3 1 0.0
3 1 1 1 2 0 3.58722187468
1 8 1 -1 7 -1 0.590016896473
10 2 1 1 8 0 -439.996889652
9 5 1 1 9 -1 137.325381653
3 5 1 -1 11 -1 -1.59590852575
1 3 -1 -1 7 0 0.138868883589
1 3 -1 -1 6 1 0.135413231392
9 6 1 1 7 -1 141.19893293
7 3 1 -1 10 0 -82.0767791489
9 10 1 1 10 0 147.673224993
11 2 1 -1 2 1 374.787983367
4 2 1 1 3 0 5.00585481295
5 1 1 -1 5 -1 13.238348573
4 2 1 1 2 1 7.95471728668
4 0 -1 -1 0 0 0.0350030309033
5 0 1 1 4 1 10.9658713735
3 11 -1 -1 7 1 0.0281261534694
7 3 1 -1 11 1 -51.4034330643
4 8 -1 1 4 -1 0.0198863026753
4 9 1 -1 8 1 4.64308556631
11 2 1 1 8 0 -991.405512608
2 2 1 -1 6 0 1.27513610756
8 9 -1 1 7 -1 0.000866393575496
10 0 1 -1 3 0 -313.549282125
10 5 1 -1 6 1 -214.660539053
2 6 -1 -1 4 0 0.0736193665351
10 0 -1 -1 5 -1 0.00127871603892
0 3 -1 -1 2 0 0.231982861124
3 4 1 1 3 0 3.29149715687
11 6 1 -1 4 1 461.09514633
4 1 1 1 1 0 9.49097157296
8 9 -1 -1 8 1 0.000986340863465
10 8 -1 -1 6 1 0.000242306057542
6 5 1 -1 2 0 16.0463499338
3 10 1 1 7 -1 3.60126837625
1 8 -1 -1 10 -1 0.0987733871892
2 3 -1 -1 4 0 0.0847436789358
8 0 1 1 4 -1 107.249670981
4 11 -1 1 3 -1 0.0103405299156
3 2 1 -1 11 0 -1.55130483571
6 3 -1 -1 9 1 0.0042799916127
4 9 1 -1 0 0 -5.52607634465
7 7 1 -1 4 0 30.5746760964
10 10 1 1 1 0 -527.68020866
10 9 1 1 3 1 -672.96837979
4 11 -1 -1 8 1 0.0149123935345
7 9 1 1 11 0 44.2289311027
2 1 -1 1 10 0 0.0655157251364
4 5 -1 1 4 1 0.0213265920975
1 4 -1 1 8 0 0.137386638629
11 4 1 -1 1 -1 -997.822931785
6 10 -1 -1 5 0 0.00287283802479
3 2 -1 -1 3 0 0.0423229342477
6 0 1 -1 8 -1 -25.4371879036
7 0 1 1 2 0 48.2287666743
0 5 -1 1 5 -1 0.343189483556
3 10 -1 1 7 -1 0.0298969656959
11 3 1 -1 1 1 694.933689264
4 10 -1 -1 4 -1 0.0136006543568
2 9 -1 -1 5 1 0.0596443937883
3 2 -1 1 5 1 0.0338283597388
2 0 1 1 1 0 0.0
6 0 1 -1 10 1 -22.9619265739
6 1 1 1 11 0 0.0
8 9 1 -1 0 1 -67.7513846538
11 4 1 -1 2 0 -617.83366929
1 10 1 -1 4 1 0.967753325619
10 1 1 1 7 -1 -619.877790838
10 9 1 1 1 -1 -403.652731678
10 4 1 -1 4 0 306.971818657
7 0 -1 1 8 1 0.0030788288287
8 1 1 -1 11 0 -157.111433286
4 11 -1 1 1 1 0.0
6 10 1 1 5 1 -26.4817387329
9 11 -1 1 3 1 0.000220541269451
9 9 1 -1 1 0 -249.216181523
2 11 -1 -1 7 -1 0.0548083583958
6 4 1 -1 0 1 18.1224563281
6 4 1 -1 1 0 29.7675137852
0 4 1 1 7 0 0.397263963815
7 8 1 -1 2 -1 -71.5245124351
0 9 1 -1 10 0 0.419406807849
8 9 -1 -1 10 -1 0.00101582367903
3 0 -1 1 10 -1 0.0570555834666
3 9 1 1 9 1 4.34292018563
4 10 -1 1 6 -1 0.0150027674722
3 9 1 1 8 0 2.4247752525
3 10 1 1 11 -1 3.63761591529
1 7 1 -1 6 -1 0.918443371307
8 2 -1 1 3 0 0.00156140142057
3 1 1 -1 7 1 2.70287225955
1 7 1 1 5 1 0.918250381936
0 1 1 1 0 0 0.354551202049
0 1 1 1 1 1 0.0
9 8 1 1 8 0 96.4947012117
7 4 1 1 8 -1 43.1617793776
2 4 1 1 3 0 1.42297463495
9 5 1 -1 0 1 -231.21752245
1 5 1 -1 5 1 0.809867608873
3 11 -1 1 6 1 0.0283618834003
7 3 -1 -1 5 1 0.00379852655506
3 2 -1 1 2 1 0.05045664824
6 3 -1 -1 0 -1 0.00632166930018
9 3 1 1 5 0 158.661119187
3 5 1 -1 9 1 -0.453279013014
4 9 1 -1 1 -1 0.0
4 7 1 1 4 1 6.63100956543
10 1 1 1 5 1 -489.305243249
1 3 1 1 3 1 1.1442309933
9 3 1 1 6 1 77.9284007382
3 11 1 -1 1 -1 0.0
1 2 1 1 3 0 1.27368278169
6 1 1 -1 4 0 17.9197036949
8 0 1 1 8 -1 -110.787132608
8 11 -1 1 11 0 0.00131749977054
6 9 1 -1 0 1 -18.6092392002
0 2 -1 -1 3 1 0.274399311862
5 0 1 1 1 1 12.0577929309
1 1 -1 -1 1 1 0.172788386939
3 11 -1 1 8 0 0.0348443229186
9 11 1 1 1 0 -378.043100226
2 1 1 1 4 -1 1.42185584433
1 10 1 -1 6 -1 0.739542816026
0 5 -1 -1 7 -1 0.258801417863
4 4 1 1 2 1 4.70333472391
8 9 1 -1 2 -1 -117.649772621
1 8 -1 -1 3 -1 0.0
6 2 -1 -1 3 1 0.00785704073957
4 10 -1 1 3 -1 0.0115152038531
0 4 1 -1 6 1 0.384982895323
5 2 -1 -1 4 0 0.0116981790255
0 3 1 1 6 1 0.506949172157
4 10 -1 -1 8 -1 0.0173649468782
5 3 -1 -1 3 -1 0.0101019117156
10 8 1 1 3 1 -618.901564574
9 8 1 -1 9 -1 175.411099134
11 7 1 1 0 0 -1000.0
10 0 -1 -1 3 -1 0.000763053088652
0 6 1 1 0 -1 0.0
9 6 1 1 6 0 143.133225668
7 7 -1 -1 3 -1 0.0
2 3 1 1 0 1 0.0
5 1 1 1 8 -1 10.2479890676
4 11 1 -1 6 -1 5.44381065478
2 1 -1 1 0 1 0.16326913832
11 5 -1 1 3 1 0.000261742249933
2 2 1 1 2 -1 0.0
7 10 -1 -1 8 0 0.00192367395982
11 0 1 -1 5 -1 -923.710033214
4 0 -1 1 5 -1 0.0221452883114
7 10 -1 1 0 1 0.0
5 3 -1 1 7 -1 0.0
8 0 -1 1 7 -1 0.00142049862911
7 9 1 1 2 -1 -42.2449294621
10 11 1 1 2 0 -392.091963342
6 11 1 -1 6 0 19.8302410363
0 5 -1 -1 5 -1 0.270418722491
11 7 -1 -1 10 -1 0.000249489092938
9 2 1 1 8 0 -158.546703565
4 7 1 1 3 -1 -6.83201257597
3 10 1 -1 2 -1 0.0
8 9 -1 -1 6 -1 0.00113842611596
8 5 -1 -1 4 1 0.0013629377316
10 8 1 -1 9 0 278.230187182
4 8 -1 -1 3 0 0.0117565278941
3 4 1 1 10 0 3.42550280437
10 0 -1 -1 7 1 0.0
3 2 -1 -1 9 0 0.0255289098024
0 9 1 1 5 1 0.542162044502
8 9 -1 1 5 1 0.000818756965257
0 6 -1 -1 1 1 0.139111204619
3 4 -1 1 2 0 0.0371908402364
3 6 1 -1 7 0 2.51767946362
1 8 1 -1 9 0 0.622605426111
10 6 1 1 11 1 -521.426262005
7 3 1 -1 8 0 -45.3153573811
5 0 1 1 9 1 4.61799936691
3 10 -1 -1 2 1 0.0539013596923
11 8 1 1 9 0 743.798413389
5 10 1 -1 7 0 12.5114478214
2 6 1 -1 0 1 0.280646899937
5 11 -1 -1 1 1 0.000695917561391
4 4 -1 1 0 0 0.0225801667191
3 11 -1 1 10 1 0.0335852220708
4 6 1 -1 3 0 7.81582418174
1 0 -1 -1 8 -1 0.121705483698
8 4 -1 1 2 -1 0.00171341876929
9 6 1 -1 10 0 -361.638660009
3 2 -1 1 6 -1 0.0389982211529
3 10 1 -1 9 0 2.90406620113
8 4 -1 -1 7 -1 0.00159826941192
7 3 -1 -1 7 1 0.00330389514506
3 4 1 1 11 1 3.85819084411
9 3 1 1 2 -1 78.0014265178
10 6 1 1 5 0 -145.336803216
3 6 -1 -1 8 1 0.0322354657307
10 1 1 -1 5 0 -559.678961288
4 3 -1 -1 10 1 0.0217024922742
0 5 -1 1 1 0 0.0
4 5 -1 1 7 -1 0.0143786504198
0 7 1 -1 6 0 0.517726530789
1 2 1 -1 5 1 0.913598586384
6 10 1 -1 0 1 -35.8039806446
10 4 1 1 5 1 287.916868421
7 6 -1 1 7 -1 0.00354456146204
3 9 1 -1 11 1 2.33601824373
0 6 1 -1 3 -1 0.396944138297
1 5 1 -1 1 -1 0.917603868352
8 5 1 -1 7 0 -38.914808849
4 6 1 1 0 -1 0.0
0 3 1 -1 5 -1 0.534425436872
5 1 1 1 5 0 10.931922902
7 7 -1 -1 9 1 0.00223622006984
5 1 1 1 0 0 0.0245024741898
9 7 1 1 4 -1 -349.464956555
9 8 1 -1 4 1 -89.0630220721
1 5 -1 1 1 0 0.0616583288909
0 7 1 1 7 1 0.651570913798
0 6 -1 1 3 0 0.431207713222
2 4 -1 1 0 0 0.0
11 6 1 1 4 1 -625.424122269
9 0 1 1 0 0 163.751397164
3 1 1 -1 3 -1 3.87331674476
7 2 1 -1 4 1 18.989584331
9 3 1 -1 11 0 -346.487621873
4 4 1 1 9 0 4.42058393912
8 0 1 -1 9 0 -135.809968203
1 7 1 -1 3 0 0.484606846663
3 7 1 -1 4 0 2.49568698715
7 10 -1 -1 9 -1 0.00224211791252
0 2 -1 -1 9 0 0.272497511551
1 1 1 -1 11 -1 0.494642077416
8 3 -1 1 0 1 0.00167539913393
10 3 -1 -1 6 -1 0.000688975559377
7 1 1 1 2 0 67.9147720023
1 11 1 -1 5 1 0.939500855855
1 5 1 1 8 0 0.795589066288
0 8 1 -1 11 1 0.306461225111
3 7 -1 -1 6 0 0.030077533794
8 1 -1 -1 0 -1 0.00205596744208
4 1 -1 -1 5 -1 0.0200976024062
3 6 -1 -1 1 0 0.0
3 4 -1 1 3 0 0.0513639677278
6 11 1 -1 10 0 21.0850305887
3 5 -1 1 3 1 0.0325385892055
11 8 -1 -1 9 -1 0.000169610378222
11 6 -1 -1 3 -1 0.0
10 7 -1 -1 11 -1 0.000439956656971
1 3 1 1 9 -1 0.848270211502
10 8 1 1 8 1 331.224141192
3 4 1 -1 2 -1 3.77690393021
1 3 1 -1 2 1 0.8284117838
6 9 -1 1 10 1 0.00436232160438
4 3 -1 1 2 1 0.0355943320187
0 7 -1 -1 4 0 0.197963703711
1 4 1 -1 2 -1 1.00521101499
5 8 -1 1 5 0 0.00822561004851
8 10 -1 1 11 -1 0.0010490663361
3 9 -1 1 5 1 0.0404871778974
7 6 1 -1 3 1 29.1699655526
2 3 1 -1 9 -1 1.52611367851
6 0 1 1 1 1 16.9847558947
7 9 -1 -1 9 -1 0.00199056664586
11 4 1 -1 4 0 811.902597984
4 4 1 1 5 1 7.59076751491
4 4 -1 -1 8 -1 0.0201841063287
6 7 1 -1 5 0 20.8551933589
10 6 -1 1 3 0 0.000303959501977
1 0 -1 -1 4 -1 0.169831903998
5 1 -1 -1 8 1 0.0116711502849
10 0 1 -1 9 -1 -671.134235497
3 8 1 -1 2 1 0.0
11 0 1 1 2 1 -809.712231351
6 2 1 1 4 1 25.9820791641
0 0 1 1 4 0 0.585189941239
2 3 1 1 5 1 2.15500291276
1 0 -1 1 7 1 0.124303255179
2 3 -1 1 5 -1 0.0621952165806
7 9 1 -1 9 1 44.186818701
6 2 -1 -1 8 1 0.00621010678939
11 1 1 -1 9 -1 -991.077770587
7 5 -1 -1 10 1 0.00229639481349
7 5 1 1 6 1 47.4361063663
7 6 1 1 2 0 -60.6887140173
7 2 1 -1 9 -1 -75.285014986
2 4 1 1 10 0 1.53783411519
0 2 1 1 9 -1 0.526879350451
11 4 1 1 3 -1 600.400765221
10 6 -1 -1 4 -1 0.00034454389395
2 6 -1 -1 1 -1 0.0255434796005
5 0 1 1 7 -1 12.3817607948
10 2 -1 1 0 -1 0.000440627912138
6 7 -1 1 0 0 0.0
5 11 -1 -1 0 0 0.0
1 10 -1 1 6 0 0.134077956653
6 9 1 1 9 0 23.6683771256
2 6 -1 1 10 1 0.0496112252513
11 3 1 1 10 1 -1000.0
2 9 -1 -1 1 -1 0.00302337354294
5 8 -1 1 8 -1 0.0114833800371
4 4 1 1 5 0 6.51393039361
11 2 1 -1 6 -1 -907.755918736
9 7 -1 1 0 0 0.0
5 5 -1 -1 6 0 0.00745830980502
0 11 1 1 10 1 0.0
1 2 -1 -1 3 -1 0.121275224445
6 0 1 -1 2 1 26.3368741378
6 0 -1 1 0 -1 0.0104044476494
7 0 -1 -1 10 0 0.00146538102363
7 0 -1 -1 11 1 0.00197159426502
7 0 -1 -1 10 1 0.00166910860307
2 1 -1 1 3 0 0.0954855547189
5 2 1 1 8 1 14.8844912334
2 7 -1 1 6 -1 0.0450924751475
9 9 -1 -1 10 0 0.000684664104521
2 8 1 1 2 -1 0.0
0 5 -1 1 7 0 0.282919410033
11 8 -1 -1 7 0 0.000136908705349
7 0 -1 -1 11 0 0.00161658703494
11 7 1 1 11 0 182.101537688
5 6 -1 -1 1 -1 0.0
9 5 1 -1 4 0 182.211672516
4 6 1 1 6 -1 5.75089486974
5 3 -1 1 8 -1 0.0115122900825
-1 0 -1 -1 8 -1 0.459111262028
6 6 1 1 10 1 18.1880378634
6 3 1 -1 3 0 20.9363467648
2 10 1 -1 0 0 0.0
2 3 1 -1 7 1 1.63996331413
9 7 1 -1 8 -1 150.54089897
7 2 -1 1 7 -1 0.00397483348796
8 3 1 -1 8 -1 -160.110959516
5 2 -1 -1 5 -1 0.0133480570501
2 1 1 1 2 0 2.08243274298
0 7 1 1 11 -1 0.493076368946
0 8 -1 -1 2 1 0.182945541633
7 7 -1 -1 5 -1 0.00257300933609
4 11 1 1 4 0 -2.86531916572
0 0 1 1 2 1 0.460929844388
4 8 -1 1 6 -1 0.0159608618864
8 7 -1 1 9 -1 0.00146285544356
6 9 -1 -1 7 0 0.00344055055295
7 7 -1 1 10 1 0.0
11 3 -1 -1 4 1 0.000357378209909
2 5 -1 1 0 0 0.0
9 3 1 -1 6 -1 -134.114264851
0 1 -1 -1 9 1 0.1634225443
1 2 -1 -1 7 1 0.132346295799
6 11 1 -1 0 0 -50.1115603159
3 1 1 1 1 -1 7.35442410082
6 1 -1 -1 11 -1 0.00321999146879
3 10 1 -1 4 -1 4.29160453733
0 1 -1 1 2 0 0.604472044729
7 1 -1 1 4 -1 0.00379255633736
5 2 -1 -1 11 0 0.00910952196096
1 3 1 -1 4 1 0.967623415345
7 3 -1 1 0 1 0.00383892840177
1 3 -1 -1 11 1 0.0545076196587
6 4 -1 1 10 -1 0.0
1 10 -1 1 10 0 0.0831115009624
2 0 1 -1 10 1 1.52234357974
5 6 -1 1 3 0 0.0107188149051
6 2 1 -1 6 -1 16.2916035999
9 11 -1 -1 9 0 0.000496709008319
11 7 1 -1 4 1 -445.985561903
11 10 1 1 7 -1 -812.561484548
10 3 1 -1 5 -1 -126.360669175
11 1 -1 1 0 1 0.000250088167751
10 2 1 1 3 1 427.889647049
0 3 1 -1 10 0 0.318053015752
2 11 -1 -1 3 0 0.0345320808626
1 11 1 1 0 1 0.0
9 2 1 1 5 -1 194.458416052
9 7 -1 -1 7 0 0.000739707934275
0 11 1 -1 1 1 0.0
6 0 1 -1 7 0 -3.14473536212
7 7 1 1 11 -1 34.470744703
2 3 -1 -1 8 1 0.0673551695706
10 2 1 -1 2 1 121.856383448
7 8 -1 1 3 0 0.00177537699275
0 4 -1 -1 6 -1 0.142129325438
2 1 1 -1 8 1 1.37181230169
5 7 1 -1 5 0 8.86604342856
0 10 -1 -1 11 -1 0.252144205003
8 2 -1 -1 9 0 0.00141270137629
-1 11 -1 -1 5 0 0.290064532382
6 10 -1 1 2 -1 0.000543303910604
7 0 -1 1 4 0 0.00347926020274
3 3 1 -1 8 0 2.93091965691
7 0 1 -1 5 -1 41.7795816053
8 2 -1 -1 0 1 0.00207430949734
6 7 1 -1 10 -1 10.3702558402
9 5 1 1 8 1 -152.529723179
4 10 -1 -1 7 -1 0.0158673395186
3 4 -1 1 11 1 0.0598124138213
1 5 -1 1 11 0 0.124346544243
6 8 1 1 3 -1 -43.9845682851
10 10 -1 1 5 1 0.000584379330949
6 11 1 -1 1 0 -35.140286032
4 7 -1 1 9 0 0.0
11 3 -1 1 0 1 0.00026765553651
1 3 1 -1 2 0 1.65911493246
7 5 -1 1 5 1 0.00309381597042
10 2 -1 -1 8 -1 0.0
11 1 1 1 10 1 -931.488361126
4 6 1 -1 10 1 -3.69442029587
11 9 1 -1 9 0 595.361471219
5 7 -1 1 6 -1 0.00856819303595
11 11 1 1 4 -1 -956.420621492
10 4 1 1 6 -1 318.847644868
0 4 -1 1 0 -1 0.0
7 3 -1 1 7 -1 0.000742810440157
2 7 -1 -1 0 0 0.0
5 0 -1 -1 1 1 0.0141040541932
3 8 1 -1 6 -1 2.76283949651
6 6 1 1 10 0 21.7099342327
6 8 -1 1 3 0 0.00335820381061
1 5 1 1 4 1 1.15205985757
1 9 1 -1 11 -1 0.814448292906
1 8 -1 -1 6 -1 0.114324587464
5 10 1 1 3 0 -21.5069279807
1 7 -1 1 2 -1 0.0
10 7 -1 1 1 0 0.000427489416778
11 6 -1 -1 10 1 0.000361405331712
0 11 -1 -1 4 0 0.19412346647
7 10 1 -1 7 1 43.9320761634
6 4 1 1 5 1 24.1547997845
7 2 1 -1 11 -1 -45.8853150386
10 4 1 1 4 0 272.925466299
4 7 -1 -1 2 0 0.0150771734227
11 0 1 -1 8 0 -801.458063102
0 9 1 1 7 0 0.477275197409
0 5 1 -1 9 0 0.449946046441
5 2 1 -1 5 1 10.996104291
4 6 -1 1 0 0 0.00813477121349
1 2 1 -1 1 -1 1.04734420768
7 0 1 1 7 1 5.15850490592
11 8 1 -1 3 1 -626.043097164
8 2 -1 1 8 1 0.0
6 6 -1 -1 4 1 0.00568437935355
9 7 1 1 3 0 -248.841306008
7 5 -1 1 6 0 0.00479426934407
0 9 -1 1 9 1 0.234598962835
5 1 -1 1 4 0 0.015920450909
8 8 1 -1 10 1 -6.45000513389
4 2 -1 1 6 0 0.0145850504291
9 9 1 1 2 1 -312.547289751
2 3 -1 1 3 -1 0.106230493196
6 8 1 -1 0 1 -35.0117575363
3 10 -1 1 2 1 0.0214920596117
10 1 1 1 6 -1 26.3890109904
2 7 1 1 9 1 1.56464235702
2 10 1 -1 6 0 1.30876715312
1 1 -1 1 1 0 0.275636884915
8 4 -1 1 0 -1 0.0
1 9 -1 -1 5 -1 0.0846593722121
4 4 1 -1 6 1 3.81294858914
5 2 -1 1 8 1 0.00789504915005
7 3 1 1 2 -1 -58.8847848197
8 7 1 -1 3 0 -138.453714271
10 10 1 1 2 1 -342.358910079
2 11 1 -1 9 0 1.7988516433
3 7 -1 1 4 1 0.0337979602886
5 0 1 1 6 0 11.6133524093
6 5 1 1 6 1 22.4546016269
11 9 1 1 11 1 555.099831467
8 7 1 -1 2 1 -168.395605248
4 7 1 1 7 1 8.60252244447
1 11 -1 1 5 0 0.106901095227
5 0 1 1 7 1 11.2236987955
5 0 -1 1 4 1 0.0118905096047
1 1 -1 -1 2 0 0.115634516947
1 7 1 1 9 1 1.28835050241
3 5 -1 -1 7 0 0.0420639699754
3 4 -1 1 10 -1 0.0228195403414
11 11 -1 1 9 -1 0.000215392520839
10 2 -1 -1 4 -1 0.000530246123608
0 1 -1 1 11 0 0.259710409411
6 0 -1 1 6 -1 0.0
10 6 1 -1 10 1 -712.013164636
5 1 -1 1 2 -1 0.0179334378606
2 1 -1 1 4 -1 0.0839059589687
5 10 1 1 1 -1 -22.7788431854
5 1 1 -1 10 0 -8.85250417603
0 8 -1 -1 2 0 0.0
11 1 1 1 5 -1 -944.073436993
4 9 -1 -1 10 0 0.0174781003832
6 10 1 -1 7 -1 21.2268583095
11 7 1 -1 8 -1 602.077513188
6 3 -1 1 3 1 0.00635076351504
4 0 -1 -1 5 1 0.0179715014107
10 7 1 -1 9 -1 75.2879838618
4 5 -1 1 2 -1 0.0159509802118
0 9 -1 -1 3 0 0.157646420283
9 0 1 1 9 -1 -120.420969995
2 7 1 -1 11 1 -0.0875918945939
1 0 -1 1 0 -1 0.0
4 4 -1 -1 6 -1 0.0193908314445
2 5 -1 1 2 -1 0.054700552754
0 5 1 1 3 1 0.756244494672
0 9 1 -1 2 1 0.461063327941
7 0 1 -1 10 1 -71.8371985959
10 4 1 1 8 0 302.800914102
4 6 1 1 9 0 7.06062897915
7 8 1 -1 3 1 -10.9627845903
7 11 -1 -1 9 -1 0.0017689878691
8 5 1 -1 11 -1 -122.552416703
10 10 -1 1 11 -1 0.000359940380398
1 9 -1 1 10 -1 0.100715006426
4 4 -1 -1 3 1 0.0213026975726
2 2 1 1 5 0 2.20656102898
11 3 1 -1 0 1 411.812635622
5 6 -1 -1 5 -1 0.00895336582146
6 1 -1 -1 6 0 0.00826318954983
1 0 -1 -1 10 -1 0.103092672222
6 7 1 -1 8 0 15.264798352
7 8 1 -1 4 -1 -31.7446960719
1 3 -1 -1 10 -1 0.118511972842
1 7 -1 1 8 -1 0.0
1 3 1 -1 5 -1 0.776422434067
6 1 -1 1 5 -1 0.00642384667691
2 6 1 1 3 0 0.0
6 6 -1 1 6 -1 0.00552584288633
5 4 -1 -1 0 1 0.0
2 8 -1 -1 4 0 0.0746570042809
2 7 1 1 3 1 1.77786608413
1 7 -1 -1 7 1 0.11156009741
8 1 -1 1 7 -1 0.000137062461509
5 10 1 1 11 1 15.7238756017
6 1 -1 -1 10 1 0.00495694890938
9 8 -1 1 4 1 0.000634767756375
7 6 -1 -1 4 1 0.0031133069055
7 11 1 -1 0 0 -93.6023143159
1 8 1 -1 0 -1 0.0
2 9 -1 1 11 0 0.0822429919822
1 11 -1 -1 10 0 0.129653383578
8 2 1 1 3 1 98.3378016953
3 9 -1 1 9 -1 0.0343802597054
6 6 1 -1 2 -1 0.0
5 2 -1 -1 0 1 0.0124571334794
3 0 1 1 6 0 3.05535707169
6 3 -1 -1 9 0 0.00400122390683
8 0 -1 -1 6 -1 0.0
3 8 -1 1 7 -1 0.0369630363767
8 0 -1 -1 1 0 0.00300030976094
0 3 1 -1 8 -1 0.467167364071
5 11 -1 1 9 1 0.00985102571048
8 8 1 -1 0 0 -173.905034518
6 11 -1 -1 3 1 0.00362196220056
6 8 -1 -1 6 -1 0.00489809040695
5 5 -1 -1 8 -1 0.010390482351
5 4 1 1 4 0 6.78929662319
11 2 1 -1 4 0 -811.881267929
5 9 -1 1 8 -1 0.0108438032187
1 11 -1 1 1 -1 0.0
5 7 1 1 7 -1 12.0834956129
3 5 -1 1 4 -1 0.0296232364176
2 3 1 -1 6 -1 1.66377927867
6 6 -1 -1 2 1 0.0
9 3 -1 -1 2 1 0.00116362317137
2 0 -1 -1 4 -1 0.103963513322
11 10 -1 1 10 -1 0.00023597738908
4 11 -1 1 2 1 0.0143353483212
2 1 -1 -1 11 -1 0.0509778783992
0 1 -1 -1 9 0 0.195407971062
10 6 -1 -1 6 0 0.000427047948596
6 3 1 1 7 0 25.1046580233
2 11 -1 -1 9 0 0.0662000368516
5 0 1 -1 7 -1 13.2558712013
2 5 -1 1 9 1 0.054344043208
6 10 1 -1 11 -1 25.6968027809
11 2 -1 -1 1 1 0.000324591361285
3 4 -1 1 8 0 0.0295841646739
4 10 -1 1 5 -1 0.0129147280854
1 2 1 -1 4 1 1.01580895134
0 5 -1 -1 9 -1 0.227716355319
3 10 -1 1 1 -1 0.0
5 6 -1 -1 0 0 0.0
9 6 -1 -1 5 1 0.000742320873683
1 3 1 1 4 -1 0.920999415037
1 5 1 -1 0 -1 0.983640914072
9 9 -1 1 7 1 0.000580800461209
0 3 -1 -1 2 -1 0.24718953745
3 5 -1 1 2 0 0.0522625172702
10 0 1 -1 11 0 -673.220984431
3 6 -1 -1 7 0 0.0297110430864
10 5 1 1 1 1 -595.882521196
10 9 1 1 7 -1 -462.420362951
0 3 1 1 11 1 0.464994225913
3 11 -1 1 1 -1 0.00224928585352
5 0 1 -1 3 -1 15.1851762617
5 6 -1 -1 1 0 0.0
7 8 -1 -1 6 1 0.00274607223833
3 8 -1 1 3 -1 0.0303358297769
3 9 -1 1 8 1 0.0260733986747
6 11 -1 -1 2 1 0.00117426863298
2 8 1 -1 9 1 1.25279052689
10 3 -1 -1 7 0 0.000666281847188
1 1 1 -1 10 -1 0.843560999228
2 5 -1 1 11 0 0.0466754749306
6 8 1 -1 4 0 15.0383771442
0 4 1 -1 11 0 0.153594744151
1 4 1 -1 0 0 0.703579889318
0 6 1 1 7 1 0.479655650668
2 4 -1 1 10 -1 0.0388943212665
5 4 1 1 2 -1 -17.3544747917
1 1 1 1 5 1 0.92399140605
1 7 -1 1 4 -1 0.133455665122
8 8 1 1 11 0 78.5245726228
1 0 1 1 9 0 0.580946220104
2 5 1 1 11 0 1.54969234169
0 5 1 -1 0 0 0.195775651244
4 5 1 -1 7 0 4.48986195412
2 11 1 1 1 0 0.0
2 4 1 -1 7 1 1.52543116738
10 7 -1 -1 9 0 0.000272655049822
11 1 1 -1 8 1 -994.422485417
9 9 1 1 7 0 -322.427723757
2 3 1 1 8 0 1.57850262921
4 11 -1 1 6 -1 0.0122227307171
7 0 1 -1 0 1 51.9924473228
0 0 1 -1 1 1 0.560794150451
6 6 1 1 3 -1 -28.6325378639
2 9 1 1 1 0 0.0219468963145
6 5 1 1 2 -1 -27.3530394135
5 9 1 1 5 1 -15.399389884
8 10 -1 1 10 -1 0.00114358039099
1 1 1 -1 5 0 0.946298201698
4 4 1 -1 2 -1 5.09282236158
1 9 -1 -1 1 1 0.0
7 5 -1 -1 5 -1 0.0033809980702
10 8 1 1 4 -1 -638.555426515
5 7 1 1 11 -1 11.3162982591
7 6 1 -1 2 -1 -14.0917988595
8 11 -1 -1 9 0 0.0010649194263
2 3 -1 1 10 1 0.117607479544
4 4 -1 1 10 0 0.014212769303
9 7 1 1 7 1 158.409762313
9 7 1 1 6 0 40.5451638807
4 1 -1 -1 8 0 0.0247347014178
6 7 -1 1 2 -1 0.00340645372644
9 1 -1 -1 3 0 0.00102610911833
4 2 -1 -1 6 1 0.0193117866104
11 11 1 -1 3 -1 -997.032782101
10 9 1 1 8 0 -559.176165917
1 5 1 -1 3 0 0.541313955287
6 8 1 1 7 1 27.4555942286
1 10 1 1 0 0 1.35130475823
10 3 1 1 4 -1 335.504166898
8 9 1 1 4 0 -178.1801515
2 4 -1 -1 11 0 0.0595524554145
2 4 -1 -1 10 1 0.0506237051709
1 6 -1 1 8 0 0.143095172426
5 9 -1 -1 3 0 0.00580959824259
3 6 1 1 1 1 4.53340448312e-05
4 3 1 1 3 1 5.5618804128
9 2 1 1 1 0 127.158974241
3 2 -1 1 4 0 0.0407639100429
9 10 1 -1 5 -1 -230.991924442
6 6 1 1 7 1 25.733877936
2 6 -1 1 11 1 0.0503451358835
10 5 1 1 1 0 -554.900468162
1 3 -1 1 9 1 0.225670721465
9 10 1 1 6 1 -545.779253178
7 7 1 1 1 0 -97.2655251592
4 9 -1 -1 3 0 0.0111439703324
7 7 1 1 0 1 -99.4152453445
6 10 1 1 10 0 23.4670946368
11 2 1 -1 7 -1 -999.956194041
8 10 -1 1 9 0 0.000982068760897
11 2 1 1 4 1 -991.440949702
3 8 1 -1 3 0 0.976011543827
5 4 1 1 11 -1 6.5906145629
2 2 1 -1 6 -1 1.66081388954
4 7 1 -1 5 0 3.74136687488
6 3 1 1 1 0 -4.71673508098
3 6 1 -1 0 1 0.923890592585
9 6 1 1 0 1 -450.811776601
9 6 1 -1 1 0 -386.687600595
9 6 1 -1 0 1 -372.794952973
10 8 -1 -1 10 0 0.000362109619559
11 7 -1 -1 8 0 0.000197214427563
7 5 -1 1 1 -1 0.00203975199178
5 6 -1 -1 10 0 0.00921610724779
6 11 1 -1 4 -1 -4.87501621255
2 8 -1 -1 7 -1 0.0529240322169
10 6 -1 1 2 1 0.000490462398202
0 5 1 -1 3 -1 0.435433157998
5 0 1 1 5 -1 12.4336516865
7 8 -1 -1 3 1 0.00237424865567
2 6 1 1 9 -1 1.539221261
1 7 -1 1 7 0 0.102064526999
7 8 1 1 9 0 43.6070642695
11 0 -1 -1 0 1 0.000343253509718
4 11 1 -1 4 0 6.95575684456
9 11 1 -1 7 1 -18.6737053781
1 8 -1 1 11 0 0.168031389471
3 3 -1 1 7 0 0.0423702863261
1 1 1 -1 9 0 0.440590276357
6 10 -1 -1 9 1 0.00395105951532
0 4 -1 -1 3 0 0.251854833601
1 7 1 -1 1 -1 0.25587960439
0 11 -1 -1 1 0 0.0
10 7 1 1 11 -1 404.70580289
7 2 -1 1 11 -1 0.00304319730414
10 6 1 1 10 -1 250.241111657
7 5 -1 -1 2 1 0.0026149339197
3 6 1 -1 1 1 0.0
0 11 1 -1 5 -1 0.412308708856
8 4 1 1 9 1 0.0
7 10 1 1 2 1 -78.072692254
7 2 -1 -1 0 1 0.0035334467022
2 9 1 -1 0 -1 0.0
2 6 1 1 4 1 2.78762742108
1 5 1 1 3 0 0.257880072426
11 11 1 -1 7 0 -742.384744843
1 7 -1 -1 0 0 0.0249492601943
6 5 -1 -1 7 -1 0.00514884740863
5 8 -1 -1 5 -1 0.00689514616461
5 7 -1 -1 5 -1 0.00787085726693
3 6 1 -1 8 -1 2.43438553052
4 4 1 -1 9 1 -3.48966889954
3 11 1 -1 3 0 2.1848519386
2 10 -1 1 10 -1 0.0584380493437
6 6 1 -1 4 -1 16.5214774437
9 6 -1 -1 3 1 0.00106997007634
6 2 -1 1 11 -1 0.00335081073848
2 11 1 1 4 1 1.67500768164
4 2 1 -1 8 -1 4.82378536325
1 3 -1 -1 7 1 0.137732557213
2 0 1 -1 11 1 0.257281034319
1 3 -1 -1 6 0 0.152428520317
4 11 1 1 8 0 5.84338919934
9 10 1 1 10 1 182.420821235
11 2 1 -1 2 0 607.814547817
3 1 -1 1 5 0 0.0431524060956
4 2 1 1 3 1 7.13806729058
4 2 1 1 2 0 0.466266909807
2 10 1 1 8 1 2.03514159858
3 11 -1 1 2 1 0.0
9 11 -1 -1 5 0 0.0
9 11 -1 -1 4 1 0.000667087897192
5 8 1 -1 1 -1 -10.3326167709
11 2 1 1 8 1 -845.635328569
9 4 -1 1 2 1 0.00100437330019
8 7 -1 1 0 1 0.0
8 11 -1 1 2 0 0.0
6 0 -1 1 10 0 0.00510733646603
10 5 1 -1 6 0 65.6863691553
