6 8 -1 -1 3 -1 2.19826928706
4 8 -1 1 10 1 21.2595176879
8 7 1 1 5 0 -101.856332104
8 8 -1 -1 10 1 0.777538779839
5 9 1 -1 1 -1 -6.97705364688
11 4 -1 -1 8 -1 0.305498314962
5 0 -1 1 9 0 9.36966552277
1 3 1 1 2 -1 -0.00304375081486
5 0 -1 1 8 1 9.42514339918
5 1 -1 1 5 1 9.59778799606
4 11 1 1 7 1 0.360466091862
2 6 -1 -1 11 0 85.3243776019
4 10 -1 -1 3 1 5.18730052711
4 4 -1 1 1 1 31.7083537211
1 10 -1 1 8 1 157.30051718
4 10 1 -1 3 -1 -0.598945806868
6 0 1 -1 1 1 0.304729150646
10 11 1 -1 2 -1 -568.489656947
7 6 1 1 7 0 3.52160906331
8 3 1 1 11 0 0.445768108429
2 3 1 1 9 1 0.128956969716
2 9 -1 -1 7 -1 13.1738802677
4 10 -1 -1 2 0 3.53505859643
7 4 1 1 8 0 2.53275760794
9 8 -1 1 1 1 0.145523766526
7 10 1 1 1 -1 -44.6352231345
1 7 1 1 4 -1 0.0328406539602
9 4 1 1 0 0 -167.148923028
7 10 1 -1 9 1 3.87475904885
8 4 -1 1 8 1 0.0
1 8 1 1 8 1 0.0576065967801
7 11 1 -1 5 0 -97.575848064
0 7 -1 1 5 -1 12.4188643311
6 5 1 1 7 0 2.60464640337
3 8 -1 1 8 1 47.5005144226
7 11 -1 -1 10 0 0.842942875239
4 1 1 -1 4 0 0.130571608684
10 9 1 -1 8 1 28.615881505
5 8 -1 -1 9 -1 3.90168756853
0 3 -1 1 1 0 -0.0329804070615
4 8 -1 1 2 1 0.0
10 5 1 1 8 0 20.8308423296
8 4 1 1 2 1 -29.6860174415
3 0 -1 1 3 0 32.3037911698
10 11 -1 -1 10 -1 0.164704376347
5 7 1 -1 6 0 0.522096692998
1 10 1 -1 7 -1 0.0197998655508
8 6 -1 -1 9 -1 1.42808173009
3 8 1 -1 0 1 0.0
7 1 1 1 8 0 -0.727255193306
6 7 -1 1 4 1 2.00727379775
10 11 -1 -1 11 0 0.171194428628
10 8 -1 1 3 -1 0.0
9 0 -1 -1 6 0 0.728783284138
2 5 1 -1 1 1 0.0
1 9 1 1 10 1 0.0516290997172
1 2 -1 1 10 -1 64.914618521
8 3 -1 -1 8 1 1.54738587436
7 8 -1 -1 9 -1 0.841516342776
4 7 1 -1 7 1 0.109150322243
0 4 1 1 8 1 0.034665279098
9 4 -1 -1 1 -1 0.195054340544
6 2 1 1 0 1 0.0
5 2 1 1 11 1 0.674330496722
8 6 -1 -1 3 0 1.419717079
8 7 -1 -1 2 -1 0.0
0 4 -1 1 1 -1 -0.0167649182407
0 7 -1 1 7 1 684.149505032
3 8 -1 -1 7 1 6.85974510741
3 9 1 1 7 -1 0.187748137082
9 1 1 -1 8 -1 -116.923930131
10 6 -1 1 5 -1 0.0615659330605
7 11 -1 -1 1 1 0.678621100452
5 0 -1 1 11 -1 10.1722444241
7 11 1 -1 1 -1 -75.8076405371
0 10 -1 -1 8 0 28.6188298968
1 9 -1 -1 6 0 9.49127413415
7 4 -1 1 2 1 2.07931652964
4 0 1 -1 10 1 0.0
1 1 -1 1 2 -1 31.067824344
0 2 -1 1 2 0 0.0
8 0 1 1 5 1 -0.0396710228026
2 8 1 1 9 0 0.0972887096355
3 4 -1 -1 1 1 21.3566746426
8 2 -1 -1 10 1 1.37225587441
5 1 -1 1 7 -1 9.90683050617
9 1 -1 -1 8 1 1.10336814769
0 9 -1 1 11 0 625.383876537
5 4 -1 1 1 -1 4.13413154368
11 3 1 -1 2 -1 60.306642291
1 10 1 1 7 1 0.0290740099597
6 3 -1 1 0 0 1.96269487932
6 0 1 -1 1 -1 0.10746506765
6 11 -1 -1 4 -1 1.46851728384
3 7 1 1 7 1 0.27922621579
5 6 -1 -1 6 -1 9.90222844866
4 4 1 -1 0 1 0.0
10 7 -1 1 3 0 0.0677227938725
4 3 1 -1 5 1 0.0449693944321
5 5 -1 1 1 -1 5.21196965337
6 11 -1 1 11 1 0.750010052082
7 9 -1 1 2 0 0.31401951373
5 6 -1 1 5 1 9.5460835221
10 6 -1 1 2 0 0.0613553867325
4 11 -1 -1 6 -1 4.20839468081
6 7 -1 1 6 0 2.71861612261
9 5 -1 -1 9 0 0.634422944674
7 7 -1 -1 7 1 2.09107084025
1 1 -1 1 11 1 112.57691688
6 1 -1 1 8 -1 6.02647984452
10 6 1 1 4 -1 -537.323604101
4 0 -1 -1 4 1 15.1089582791
9 2 -1 1 0 0 0.186725515326
5 10 1 -1 4 -1 -0.435514769611
8 1 -1 1 2 0 0.918570081476
0 10 1 -1 10 0 0.0200956087851
5 2 -1 1 3 1 11.5406823488
7 6 1 1 11 -1 5.06734671345
7 2 -1 -1 1 1 1.42996101761
2 0 -1 -1 1 0 42.718261216
5 3 -1 1 3 0 14.5557742224
2 0 -1 -1 0 1 52.2098747695
6 4 -1 1 6 0 4.87150061644
7 0 1 1 11 1 0.0
11 11 1 1 7 0 -941.389781015
8 1 1 1 10 1 -83.0412437818
5 11 -1 -1 11 -1 3.39837813833
4 8 -1 -1 9 -1 7.37618022201
9 4 1 1 10 -1 -26.7607776991
3 1 -1 -1 9 -1 58.4180537456
3 3 -1 1 1 0 38.1390679191
4 4 -1 -1 2 1 17.6167561967
9 6 -1 1 6 0 0.0
4 5 -1 -1 3 1 18.1474493968
2 9 -1 1 4 1 107.979417694
1 6 -1 -1 1 0 314.931967305
3 11 -1 -1 9 -1 12.3864051332
2 5 -1 -1 3 1 54.9614852494
6 4 1 1 8 -1 2.06762371491
5 10 1 -1 11 0 0.594760489771
4 3 1 1 6 1 0.666901992776
8 10 -1 -1 3 -1 0.576497863826
10 4 -1 -1 5 1 0.367933750433
4 6 1 -1 9 -1 -0.13782623781
8 11 1 1 2 -1 -163.271448531
3 7 -1 1 7 0 36.0107540506
2 5 -1 -1 11 -1 58.9738410638
5 9 1 1 9 1 1.21422547132
1 0 -1 -1 9 -1 225.66405754
3 2 -1 -1 6 0 47.4886988379
3 2 -1 -1 7 1 44.0789170827
10 4 -1 1 3 0 0.144233862652
8 4 -1 -1 6 -1 1.61669322056
7 10 1 -1 8 0 2.56385618789
6 5 -1 -1 9 0 5.0188844635
4 1 -1 -1 2 0 19.7082032245
10 7 1 1 4 0 -176.063394632
2 11 1 -1 7 1 0.0620910775686
2 11 1 -1 6 0 0.0674101082003
3 8 -1 -1 5 -1 15.6678895605
1 0 -1 1 8 0 67.6001965844
0 7 -1 -1 7 -1 52.9480424365
11 8 1 -1 5 -1 -947.76826583
9 7 1 -1 5 1 11.8165053909
8 8 -1 -1 8 -1 0.811223106364
6 5 1 1 0 0 -55.5676144572
6 9 -1 -1 1 0 1.17841520165
0 11 -1 1 2 -1 199.851106684
11 8 1 1 6 1 -406.395532928
2 8 -1 1 6 0 61.4474182781
7 1 1 -1 9 -1 -3.16014369667
5 1 1 -1 2 0 0.236996738834
0 2 1 1 4 1 0.0244562120702
11 10 -1 1 11 -1 0.0774089781263
4 7 -1 1 4 -1 22.4027131935
7 1 1 -1 0 0 0.568200648734
4 1 1 -1 5 1 0.0
7 4 -1 1 8 1 0.0
5 9 -1 -1 0 1 2.07659497798
8 0 -1 1 8 1 1.83489324009
1 11 1 -1 4 1 0.0246414211231
5 4 -1 1 6 -1 7.13812394583
7 6 -1 -1 10 0 2.77160820031
2 6 1 -1 7 -1 0.0
2 0 -1 1 9 -1 49.5917182647
1 0 -1 1 3 0 63.4366621655
5 11 -1 -1 2 -1 1.9699642208
2 4 1 1 4 0 0.118859494495
0 8 1 1 3 0 -0.00201909932618
2 6 1 1 10 -1 0.130813054952
0 6 -1 -1 7 -1 184.491862933
4 8 -1 1 7 0 12.0998745706
2 11 1 -1 3 -1 0.0249452040962
1 3 -1 1 7 -1 43.8798132743
6 5 -1 1 1 -1 3.12013836915
4 8 1 1 10 0 0.628650018726
3 11 -1 1 2 -1 7.32117719424
11 11 -1 -1 10 -1 0.0
1 4 1 1 10 0 0.0666284295381
1 4 1 1 11 1 0.0527380063246
7 10 1 1 5 0 -88.5195992456
5 4 -1 1 2 -1 11.6506447998
2 10 -1 -1 3 0 10.228486281
3 7 -1 1 2 -1 18.681844626
4 2 -1 1 0 -1 0.0
8 1 -1 1 7 -1 1.36504104405
5 5 1 1 7 0 1.04158249019
10 0 1 -1 5 -1 -535.362480483
0 11 -1 -1 0 -1 0.0856411169047
2 5 -1 -1 7 -1 65.8654437902
9 0 1 -1 1 -1 6.19722531081
4 2 -1 -1 11 1 30.9095980025
10 5 1 -1 3 -1 20.3966814563
8 10 -1 -1 6 0 0.0
5 10 1 1 11 1 1.3098619326
1 6 -1 1 6 -1 154.422162957
9 6 -1 1 3 -1 0.177749679912
11 1 1 1 0 1 54.0634864703
9 9 -1 -1 9 -1 0.250059897975
6 2 -1 -1 9 1 7.1421162131
9 8 -1 1 4 1 0.118350242249
4 5 1 1 7 0 0.787047586389
11 5 -1 -1 6 0 0.238754509398
11 4 1 -1 11 0 -994.335368201
6 8 1 1 9 1 2.65367141506
5 11 1 1 6 1 0.657716403553
11 3 -1 -1 2 1 0.129985612921
4 6 -1 -1 5 1 20.2382636644
6 10 -1 1 10 0 1.12889383786
2 5 1 1 7 0 0.140591035477
2 7 -1 -1 2 0 33.1721758531
10 2 -1 1 1 -1 0.0850879708283
11 11 -1 1 11 1 0.0905674567221
9 8 1 -1 5 0 -264.188136214
5 0 1 -1 0 1 0.347858562604
9 9 1 -1 9 1 11.5019257051
2 8 -1 -1 1 1 2.86498810153
1 8 -1 1 3 1 421.698302237
5 3 1 1 0 1 -11.2987152206
11 2 1 1 7 1 -916.925205954
11 6 -1 -1 11 1 0.0
6 7 -1 1 3 -1 1.70173333686
8 11 1 1 4 -1 -204.503484037
2 5 1 1 9 1 0.140549747048
4 8 1 -1 6 0 0.205832348383
6 0 -1 1 1 -1 5.1178166637
4 3 -1 1 3 -1 32.8268491945
8 11 1 -1 7 1 -62.3669233604
8 11 1 -1 6 0 -192.004405322
11 1 1 -1 10 0 -943.805197117
1 8 -1 -1 0 1 0.843924708222
2 8 1 -1 11 1 0.0
10 3 -1 -1 5 0 0.36003481673
9 8 -1 -1 6 1 0.381527975313
9 8 -1 -1 7 0 0.247441591409
6 6 1 -1 2 -1 0.0
5 4 1 -1 11 0 -2.46088088244
11 0 -1 1 2 -1 0.0
8 2 -1 -1 0 1 0.920397819792
4 8 1 -1 10 1 -0.764370957288
4 6 1 -1 6 0 0.0755898921246
4 6 1 -1 7 1 0.0745292404938
5 1 1 1 2 0 0.0
5 7 -1 -1 9 0 6.17844415996
5 5 1 -1 8 1 -0.549460060458
11 5 1 -1 4 0 61.4624035608
8 6 1 1 1 -1 -171.183347469
3 0 1 1 7 1 0.0
1 2 1 1 10 0 0.0609181655206
6 5 -1 1 4 -1 3.63313532944
4 1 -1 -1 9 0 22.5981594076
10 10 1 1 5 -1 -366.646758676
9 1 -1 -1 2 0 0.415769282095
6 7 1 -1 5 0 1.06138781877
8 8 1 1 8 0 6.99306426044
9 10 -1 -1 9 -1 0.0
9 11 1 1 10 0 10.1524939951
2 6 1 -1 2 -1 0.0
10 10 1 -1 6 1 -620.623850446
0 4 -1 -1 0 1 165.935202946
0 1 -1 1 7 -1 93.301449652
8 10 1 1 7 -1 -141.942803811
11 8 -1 -1 10 0 0.229773485953
2 6 1 1 9 1 0.134954219422
6 5 -1 -1 4 -1 4.42123888312
8 0 1 -1 5 -1 -1.27444147325
6 1 -1 1 2 -1 4.58121208984
3 6 1 -1 11 -1 0.0
0 1 -1 -1 8 1 131.229747487
8 10 1 -1 4 1 -121.708639926
2 11 1 1 5 1 0.0558851968066
3 7 1 -1 3 0 0.0
3 10 1 1 5 1 0.150848655821
5 10 -1 -1 4 -1 2.34523000336
0 0 -1 1 3 -1 0.0
0 4 -1 -1 3 1 254.461779758
0 0 -1 -1 6 1 5.52445475208
4 8 -1 1 7 1 16.4355390948
6 10 -1 1 6 0 0.862851490054
7 10 -1 -1 6 0 1.10291660422
2 10 1 1 7 1 0.0899145688546
3 7 -1 -1 3 0 28.0370514679
4 2 1 -1 5 -1 0.0
6 10 1 1 8 1 2.02383525892
10 9 -1 1 11 1 0.098491443498
4 5 -1 -1 8 -1 21.6151398189
10 9 -1 1 10 0 0.122524333084
2 4 -1 -1 8 1 66.2698651451
10 11 1 1 9 0 -7.77497968283
1 2 -1 -1 1 0 110.672144594
9 4 -1 -1 4 -1 0.887116278004
7 0 1 1 5 -1 0.687607984025
5 10 1 1 0 0 -22.6279707083
6 2 1 -1 7 -1 0.113873624909
11 10 1 -1 6 1 -993.40515442
8 5 1 -1 8 -1 -133.084636903
5 5 1 1 1 0 -21.5030813739
4 8 -1 -1 4 0 12.1430714128
10 3 1 1 8 -1 -326.499108028
11 10 1 1 3 1 -996.807533334
11 3 1 -1 4 -1 -107.085567662
7 10 1 -1 2 -1 -75.7503472063
10 5 -1 -1 3 0 0.0
3 2 -1 -1 1 1 24.2269511017
9 10 1 1 4 1 -335.198242584
10 7 1 -1 10 1 -538.374026454
9 10 1 1 5 0 -282.80616228
9 2 1 -1 4 1 -191.584159237
7 5 1 1 9 -1 5.07789447608
2 9 -1 1 7 1 44.1601311325
11 3 1 1 7 1 -952.326164969
3 2 1 1 10 -1 0.213213701051
6 4 -1 -1 2 0 6.731952545
1 6 -1 -1 5 1 113.504350244
9 4 1 1 1 1 -247.902684882
10 7 1 1 2 0 -545.97769247
3 10 -1 -1 10 0 7.71762210978
5 3 -1 1 10 1 14.4478130544
4 8 1 -1 9 1 -0.0825171496715
3 3 -1 -1 1 1 17.2029643107
0 9 -1 -1 8 -1 14.9955763432
2 1 -1 -1 5 1 99.3440282873
8 6 1 -1 0 -1 -38.1363065193
5 7 -1 1 1 -1 4.88485949543
9 6 1 -1 2 1 13.3763401967
0 10 -1 -1 1 -1 76.1909345281
6 7 1 -1 6 -1 1.20295918698
7 0 1 -1 4 -1 0.329042648574
6 2 1 -1 3 1 0.209562266484
0 11 -1 -1 8 0 182.075808417
8 6 1 1 11 1 -57.9708777773
10 1 1 -1 2 0 -250.615921696
3 6 -1 -1 0 0 22.9705784292
4 3 1 -1 6 -1 0.0280597148287
9 2 -1 -1 0 1 0.517117505407
2 3 1 1 5 0 0.105299977444
3 5 1 1 10 0 0.301261958318
7 1 1 -1 10 -1 -3.19668901988
3 2 1 -1 5 1 0.0
2 9 1 1 11 0 0.0966907437554
8 5 1 -1 0 0 8.58013909502
10 10 1 -1 10 1 19.6721235345
11 11 1 -1 5 1 -818.472844945
10 4 1 -1 7 1 -532.39413546
10 6 -1 -1 11 -1 0.577703727577
8 1 1 1 9 -1 -27.4117984875
5 7 1 1 1 -1 -21.5722370004
2 7 1 -1 0 0 0.0
8 3 -1 1 8 0 0.0
3 1 1 1 0 0 0.0
7 1 -1 -1 10 1 2.84378183012
9 3 1 -1 3 1 -16.0378996093
8 0 1 -1 1 1 1.8895937453
2 9 1 1 5 1 0.0733975662321
3 10 1 1 9 0 0.19141277849
8 6 -1 1 1 1 0.203632648285
1 3 -1 -1 5 0 132.154349925
8 3 -1 1 6 -1 0.795822548254
1 9 -1 1 10 0 205.904242492
0 0 -1 1 11 0 459.639094631
0 9 1 1 9 1 0.01444598412
8 5 1 1 7 -1 3.99070506787
0 5 1 1 2 -1 -0.00257451113607
2 8 1 1 2 0 -0.856227938155
0 8 -1 -1 7 -1 5.71682693285
4 0 1 1 9 -1 0.0
9 4 -1 -1 11 0 1.00341279927
5 9 -1 -1 9 0 1.93583450273
0 4 1 1 5 1 0.0397342278792
5 3 1 -1 4 1 0.00755804415344
5 0 -1 -1 0 0 7.49816933651
3 2 -1 1 7 -1 34.0713578337
10 0 1 -1 1 0 -68.6496359356
4 3 -1 -1 2 0 13.8885027422
9 5 1 -1 3 0 13.0171375845
5 4 -1 1 2 1 0.0
11 4 -1 -1 4 -1 0.147282963156
8 8 1 1 0 -1 -206.669289464
2 5 1 -1 4 1 0.0
1 0 1 1 3 1 0.0423251639214
1 11 1 1 4 -1 0.0206190194456
1 9 -1 1 0 0 73.6731621773
6 7 1 1 1 0 -63.2753445793
0 0 1 1 3 1 0.0230011306068
5 1 -1 -1 6 0 7.52175088074
7 1 -1 -1 8 -1 2.20948700339
2 3 -1 -1 6 0 59.1349369594
4 6 1 1 3 0 -8.81323855888
6 3 1 1 7 0 0.0
6 2 1 -1 4 1 0.158366525368
4 3 1 1 0 0 -4.45214705628
4 4 1 1 6 -1 0.460936676866
8 6 -1 -1 6 0 1.8025728974
5 11 1 -1 5 0 -0.426208981218
5 8 1 1 9 0 1.32443793054
9 0 -1 -1 11 1 0.0
1 1 1 1 2 -1 -0.000328460819752
9 2 -1 -1 2 -1 0.702244720235
5 11 -1 1 4 1 2.10471866848
3 10 1 1 3 0 -1.48934765346
3 2 1 1 4 1 0.462857944429
8 1 -1 1 8 1 2.25621795382
2 11 -1 1 11 -1 39.3125139476
8 10 -1 1 2 1 0.232225995625
3 2 -1 -1 4 1 39.3057734834
2 9 1 1 7 0 0.100286411673
8 3 -1 -1 11 -1 1.43626237114
7 11 1 -1 10 -1 4.07740143316
1 2 -1 1 9 1 64.5165229532
5 3 1 1 1 -1 -8.44578163502
6 0 -1 -1 11 0 5.53650866445
1 11 -1 1 4 -1 37.4909913846
11 0 1 -1 5 0 -664.185719636
3 5 -1 1 5 -1 30.040235908
0 10 1 1 9 -1 0.0155614776011
2 1 1 1 0 1 -0.0149211718228
4 3 1 -1 8 0 0.0194554871736
2 3 -1 1 0 1 0.0
11 7 -1 1 5 -1 0.0528646820941
9 2 1 -1 10 -1 -294.244346771
9 2 -1 -1 9 -1 0.748869808529
0 7 -1 -1 0 -1 16.5324897867
5 1 -1 1 11 -1 14.0624812528
6 7 1 1 8 -1 2.86968839696
4 8 -1 1 1 -1 11.1934034399
11 6 1 1 0 0 -335.836842058
0 6 1 1 10 1 0.0279367058645
11 5 1 -1 2 0 -990.708241287
0 7 -1 1 11 1 511.371855905
4 10 -1 -1 0 1 2.71456404264
6 7 1 1 5 1 -0.73795676538
1 0 1 1 4 0 0.0095123500798
5 10 1 1 10 -1 1.04396395068
9 4 -1 -1 7 0 0.812511997091
5 9 -1 -1 5 0 4.30652970808
11 6 1 -1 1 1 -994.398630662
7 4 1 -1 2 -1 1.28562600826
9 11 -1 1 1 0 0.0
10 11 1 1 10 -1 -265.994329293
8 0 -1 -1 3 -1 1.18829493555
0 1 1 1 2 0 0.029502560071
1 2 1 1 0 0 -0.191624896295
1 1 1 1 3 0 -0.0100983376293
6 10 1 -1 2 0 -32.8438595049
1 11 1 1 7 1 0.0287275582953
7 10 -1 1 0 1 0.481714039997
1 11 1 1 6 0 0.0252159130877
9 6 -1 -1 5 1 1.14608410599
1 9 -1 -1 8 1 12.9169505066
1 3 -1 1 3 1 86.4696298286
4 9 -1 -1 5 0 6.39271945412
2 10 1 -1 7 0 0.0583897616442
4 9 1 -1 3 -1 0.123347712374
4 7 1 -1 10 -1 -0.0716772646717
6 1 -1 1 4 -1 2.9228137716
9 3 1 1 5 0 4.10748881246
10 6 1 -1 3 -1 -625.040238558
9 3 1 1 4 1 5.95868664766
0 5 -1 -1 7 -1 150.510092554
7 10 -1 -1 2 0 0.893712802867
7 11 -1 1 4 -1 0.583597702191
5 4 1 -1 0 1 0.0
8 7 1 1 2 0 -200.21895201
6 9 1 -1 7 -1 1.30906436908
5 5 1 -1 1 1 0.47612222311
5 11 -1 -1 7 -1 2.25214138301
2 6 1 -1 1 0 0.0
3 4 1 1 11 1 0.20028059291
6 0 -1 -1 9 1 5.31771925351
8 0 -1 1 9 0 2.11446222988
7 2 1 -1 5 0 -21.6398868025
8 9 -1 1 4 0 0.301450907497
7 2 1 -1 4 1 -5.37259031712
6 6 -1 1 10 1 9.351522714
2 11 1 1 4 1 0.0577601580351
6 8 -1 1 7 1 2.33700947782
9 11 1 -1 2 1 -186.736876204
3 6 -1 1 6 1 29.7606409227
5 2 1 1 7 1 0.0
4 7 1 -1 2 0 0.0
1 9 -1 1 0 1 74.6270719558
4 10 1 -1 9 -1 0.29631953137
10 5 -1 -1 11 -1 0.510250312458
9 1 1 1 0 -1 4.86517372721
5 10 1 -1 6 1 0.558586194768
8 9 1 1 11 -1 9.53684151733
10 3 1 1 6 0 7.36310895035
6 3 1 1 8 -1 0.0
2 1 -1 1 3 0 11.86422411
2 1 -1 1 2 1 0.0
3 7 -1 -1 5 1 26.4454225895
0 4 -1 -1 9 0 41.6456178556
2 11 -1 -1 6 0 23.2326770203
0 10 1 1 5 -1 0.0114952660896
9 11 -1 1 9 -1 0.278746911033
2 0 -1 1 6 -1 28.2501370533
4 3 1 -1 4 0 0.0919983454007
8 0 1 -1 4 0 -3.54464960559
5 3 1 1 10 0 0.90527224202
10 6 1 1 1 -1 -492.622939205
7 2 -1 -1 6 1 2.71300006267
7 7 1 -1 0 0 -51.0690544094
10 7 1 1 8 0 20.7312871109
3 1 -1 1 3 0 16.416575356
8 5 -1 -1 6 1 1.86253092677
7 9 -1 1 4 0 0.593830505226
9 6 -1 -1 4 1 0.0
0 6 1 1 6 1 0.0277640668947
8 11 1 1 6 1 -35.4593098888
5 1 -1 1 3 0 10.1187710528
4 7 -1 -1 9 0 12.2850442424
7 0 1 1 6 0 0.286743646162
9 2 1 -1 2 0 -3.01030946372
10 1 -1 -1 4 1 0.361839686852
5 0 1 -1 3 -1 0.0
4 3 1 -1 0 -1 0.0674370106912
2 10 -1 1 0 -1 39.6817089963
7 3 1 -1 6 0 -34.3857581058
11 9 1 1 11 1 67.0671370497
6 4 1 -1 8 0 -5.57750159643
11 8 1 1 10 1 52.8723222932
11 8 1 1 11 0 -863.661562023
5 7 -1 -1 8 -1 8.44873972258
1 10 1 -1 0 1 0.00980660472291
1 10 -1 -1 6 0 24.3964783239
4 6 1 -1 1 0 0.0861436542501
0 3 -1 -1 8 -1 127.358161513
3 4 1 1 9 0 0.260809534141
8 2 1 1 2 0 -1.29004948042
3 10 1 -1 11 0 -0.0239635459621
7 9 1 -1 10 -1 2.52478043924
3 9 -1 1 8 1 20.6564463828
1 5 -1 1 2 0 112.215132357
10 1 1 1 3 -1 19.8307624925
5 2 -1 1 7 -1 12.2990084042
4 3 -1 -1 8 1 20.6790430471
6 2 -1 1 0 1 6.65353392219
5 10 1 1 7 0 0.691671555811
1 1 1 1 10 0 0.0687403719495
8 0 1 1 0 1 2.53880931039
8 5 1 1 1 -1 -150.909539374
3 4 1 1 7 1 0.320757428728
6 9 1 1 10 1 2.4872232767
0 6 -1 1 0 1 545.178261245
0 6 -1 1 1 0 0.0
1 4 1 1 7 1 0.0681253902912
5 3 1 -1 2 1 0.089971981752
7 8 -1 -1 3 1 1.21798351844
9 9 -1 -1 3 1 0.0
8 4 1 -1 7 -1 -38.0769147308
1 3 -1 1 6 -1 18.6954453458
8 0 1 -1 11 0 -30.8126500835
9 4 1 -1 8 0 -295.55203219
10 10 -1 1 10 -1 0.126773800577
3 5 1 1 3 1 0.150337785237
8 9 1 1 7 -1 -131.877991404
4 8 1 1 9 -1 0.499090272315
6 7 -1 -1 11 1 3.93073177834
5 5 1 -1 7 -1 -0.242759833744
1 8 1 -1 6 -1 0.0149366769019
5 4 -1 1 5 1 7.76287810064
4 3 -1 1 6 0 22.5515395743
8 10 -1 -1 10 0 0.438868056554
7 1 -1 1 2 0 4.09469920536
6 6 -1 1 0 0 2.40838841191
10 3 -1 1 0 0 0.0745757303756
10 2 -1 1 3 1 0.278202261963
9 0 1 1 2 1 3.08082679018
2 9 1 -1 5 -1 0.0295536854307
11 7 -1 1 5 1 0.0457782614845
7 2 -1 1 1 1 4.0539088099
10 8 1 1 11 0 -60.8472032544
6 3 -1 1 8 -1 4.63620842957
4 5 1 1 11 0 0.495733444593
3 6 1 1 0 1 -5.41769715687
5 10 -1 1 7 -1 2.17684618442
6 9 -1 -1 4 0 2.37181965039
5 0 1 1 10 1 0.0
8 9 1 -1 6 -1 -47.2035557812
10 6 -1 1 1 1 0.0798197764403
6 9 -1 -1 3 1 2.19716651005
5 10 -1 1 3 1 2.28750425619
2 0 -1 -1 5 1 74.1674346328
1 10 1 -1 1 1 0.0139229397763
8 4 1 1 6 -1 -11.7492573473
3 1 1 1 6 0 0.321464817398
0 2 1 1 3 0 0.0269068508172
0 11 -1 1 0 1 95.9921429621
6 1 1 -1 3 1 0.216057045623
11 7 1 1 5 1 -998.338232322
11 7 1 1 4 0 -983.777545836
9 1 1 1 0 1 4.58582368308
7 4 -1 -1 7 0 3.00814341808
10 11 1 -1 4 0 -329.570130963
1 1 -1 -1 5 1 118.555667211
9 3 -1 1 3 0 0.237866837701
9 4 -1 1 5 -1 0.0
2 11 1 -1 5 -1 0.0517325193499
7 8 1 -1 11 0 -38.212963696
8 11 1 -1 10 0 6.97227140796
11 1 1 -1 6 0 -961.397274259
7 9 1 -1 11 1 -4.23092397231
7 5 -1 -1 8 1 2.15240632328
6 11 1 1 5 1 -21.8817644463
8 6 -1 -1 11 0 1.48775306131
5 2 1 1 3 0 -3.67151318074
1 0 -1 -1 11 1 214.843640122
6 9 1 -1 11 -1 -0.838629662269
8 3 1 -1 1 1 3.00225341475
5 5 1 -1 9 1 -2.55682061646
4 6 1 -1 11 1 -1.34311990064
8 9 -1 1 1 1 0.285687049031
9 8 1 -1 0 0 -194.863150672
5 2 1 -1 11 1 -0.61612574612
2 10 -1 1 1 1 15.4517461901
0 9 -1 1 6 0 313.645010628
4 8 -1 1 0 0 12.2352859826
4 5 -1 -1 5 0 21.4608140246
3 1 -1 -1 11 0 59.4395801189
8 7 1 -1 11 1 -135.158873631
7 10 -1 1 6 1 0.560027681327
6 10 1 -1 8 0 1.5483734011
11 6 1 1 6 1 53.3065674711
6 2 1 -1 1 0 0.298781615834
11 10 -1 1 9 0 0.00598573032987
7 2 -1 -1 10 -1 3.10491417862
2 6 1 1 5 1 0.146714124034
1 5 -1 1 9 1 208.417030298
0 5 -1 1 5 0 959.473267532
1 6 -1 -1 8 1 88.2427620789
7 11 -1 1 2 -1 0.598902208597
7 10 1 -1 5 1 -3.67843126808
5 7 1 -1 10 1 -5.69178630966
5 10 -1 -1 8 -1 2.55241027932
11 10 1 -1 1 1 -838.812165205
3 3 1 1 6 -1 0.278902341567
10 10 1 1 9 -1 -576.085198718
3 7 1 -1 11 -1 -0.779776573359
9 5 1 -1 0 1 -93.2529598176
8 1 -1 1 5 0 1.13060804549
6 2 -1 -1 3 0 4.57595208953
10 9 -1 1 6 0 0.117093528734
2 10 -1 1 11 -1 63.5301264631
0 8 -1 1 0 1 206.538419148
11 6 -1 -1 8 0 0.28045557531
9 6 1 -1 7 -1 2.00142763524
0 10 1 -1 11 1 0.00916672076234
8 1 1 1 2 -1 -0.235190006748
3 1 -1 -1 11 1 56.9050313505
3 9 1 1 5 0 0.134040147726
3 8 1 -1 9 -1 0.0884679473575
8 2 1 1 9 -1 3.71998771719
7 7 -1 1 8 1 0.0
10 0 -1 1 0 -1 0.11602913844
4 1 -1 -1 1 -1 15.9090400362
0 1 -1 -1 10 0 430.908119573
3 4 -1 -1 3 -1 36.0783426022
1 2 -1 -1 8 0 183.271758852
11 4 -1 1 3 1 0.0409554860679
11 2 -1 -1 6 0 0.333398870306
5 6 1 -1 0 0 0.0
7 6 1 -1 11 0 -33.4258939236
6 1 -1 -1 5 -1 5.66237043068
7 3 -1 1 4 0 1.86754992455
2 3 1 1 9 0 0.138007292256
2 5 -1 -1 8 0 76.5467977511
2 10 1 -1 9 -1 0.0468107878479
5 0 -1 1 8 0 8.67703064259
5 1 -1 1 5 0 6.77830545885
2 11 1 1 7 -1 0.0599377277601
4 11 1 1 7 0 0.260238057773
3 8 -1 -1 9 -1 9.45319943309
9 1 -1 -1 5 -1 0.421197135822
1 10 -1 1 9 1 182.343158882
10 11 1 1 11 1 35.6226672246
1 10 -1 1 8 0 222.39483023
3 6 1 1 6 -1 0.308024768428
7 4 -1 1 0 1 1.23039379744
5 10 1 1 6 -1 -0.750857369475
2 1 1 1 11 1 0.109832167617
2 9 1 1 1 0 -1.12672450483
3 1 -1 -1 2 -1 25.5515059971
3 3 -1 1 2 -1 40.7999843466
11 1 -1 1 2 1 0.0
9 5 -1 -1 11 -1 0.952219664163
3 8 -1 1 8 0 30.2375064072
1 4 -1 -1 3 1 170.096100053
5 1 -1 -1 2 -1 11.510656127
11 11 1 -1 9 1 -640.075094205
7 0 -1 1 6 1 2.85319409323
10 9 1 -1 8 0 29.1405697499
8 1 1 1 5 -1 1.52678562156
10 5 1 1 8 1 11.0039044829
7 8 1 -1 1 -1 -83.6593819581
3 0 -1 1 3 1 0.0
3 5 -1 -1 4 -1 36.5893911052
7 11 1 -1 2 1 -40.7487760712
5 7 1 -1 6 1 0.507602777267
4 8 -1 1 11 0 28.1503377738
9 0 -1 1 9 -1 0.0
9 11 -1 1 6 -1 0.306094935024
6 3 1 1 0 1 -27.0789375661
1 4 -1 1 5 1 106.83175765
9 0 -1 -1 6 1 0.901456134261
8 7 1 1 8 -1 3.74568377917
1 9 1 1 10 0 0.0481477311176
8 6 1 1 4 0 -107.450002319
0 4 1 1 8 0 0.0288926300208
0 10 -1 -1 3 1 218.136814677
6 4 1 1 5 1 -3.86070542341
8 4 -1 -1 1 0 0.455291371275
9 7 -1 -1 8 -1 0.576556909474
10 4 1 1 10 1 -494.931631953
3 8 -1 -1 7 0 6.97864006953
4 2 -1 1 5 -1 39.4275418746
4 11 1 -1 1 0 -2.35076931471
5 4 -1 1 2 0 5.17803729371
7 4 -1 1 2 0 0.921945375862
0 2 -1 -1 0 1 178.516979595
1 11 -1 1 8 0 175.251608869
0 2 -1 1 2 1 15.7780854006
0 3 1 1 0 -1 -0.0760937411791
2 8 1 1 9 1 0.130333641935
2 6 -1 1 0 -1 24.8224068226
3 4 -1 -1 1 0 17.8640703027
3 9 -1 -1 8 1 6.29387276917
8 8 1 -1 9 -1 7.40402580795
10 10 1 1 3 -1 -350.957511258
9 11 1 -1 11 -1 16.8405924123
1 11 1 1 3 0 0.0224861313814
3 3 1 1 8 1 0.336698281526
1 10 1 1 7 0 0.034058152801
5 7 1 -1 8 -1 0.111573280381
10 3 -1 -1 1 -1 0.563647794825
0 8 -1 -1 6 1 10.7566087403
1 11 -1 -1 8 1 72.8890341659
4 4 1 1 5 0 0.453504810941
1 6 1 1 1 1 -0.173804164732
10 7 -1 1 2 0 0.0904351178421
7 9 -1 1 2 1 0.396641752821
10 0 1 1 11 -1 -431.788275333
8 3 -1 -1 7 -1 1.79439188989
9 10 -1 -1 9 0 0.202580089942
1 3 -1 -1 3 0 111.240689364
3 1 -1 1 9 -1 25.5196171941
4 4 -1 1 11 -1 30.5871468204
6 6 -1 -1 9 -1 4.49880258074
9 5 -1 -1 9 1 0.773943011125
3 9 -1 -1 0 0 1.01087034463
4 10 1 1 6 -1 0.177359076112
5 7 1 1 0 1 -18.4467831621
10 9 -1 -1 11 -1 0.238484982629
6 10 1 1 2 1 -48.8131100799
4 0 -1 -1 4 0 21.3410417951
3 0 -1 -1 1 1 22.6780502306
11 11 1 -1 4 -1 -999.998429244
0 10 1 -1 10 1 0.0
0 10 1 -1 11 0 0.0156448948078
7 5 1 1 10 1 -2.50767644489
2 0 -1 -1 1 1 45.0613514034
9 0 -1 1 5 -1 0.535615131535
7 3 -1 1 4 1 2.30021141725
4 1 -1 -1 8 0 25.4993304158
6 4 -1 1 6 1 4.59532793204
11 11 1 1 7 1 -1000.0
6 6 1 -1 8 0 -16.3093283953
6 6 1 -1 9 1 -17.5963864652
9 11 1 1 4 -1 -215.158143201
11 6 1 -1 0 1 -998.324716064
4 7 1 1 4 0 -2.16813108758
4 4 -1 -1 2 0 12.1625836852
4 7 1 1 5 1 0.570917772673
4 5 -1 -1 3 0 19.49066399
5 4 1 1 7 1 1.45114610851
2 9 -1 1 4 0 64.9593251349
10 3 1 -1 1 -1 26.0018970814
4 1 -1 1 10 -1 19.5248428923
2 5 -1 -1 3 0 51.49265531
2 1 -1 -1 4 -1 81.4686781594
7 5 1 1 11 1 -4.68914490635
7 7 -1 1 6 -1 1.51809652385
3 2 -1 1 9 -1 28.5594084376
8 6 1 -1 6 -1 5.4368338812
0 5 -1 -1 6 -1 284.150032628
3 2 -1 -1 6 1 41.1776618702
4 5 1 1 8 -1 0.664619248715
3 2 -1 -1 7 0 51.1072481724
1 6 -1 -1 9 -1 87.8258293967
10 7 1 -1 11 -1 -151.309977368
11 8 1 -1 9 -1 74.535345004
8 3 1 1 9 -1 0.0
7 11 -1 1 8 -1 0.712771911742
4 1 -1 -1 2 1 22.912959114
4 6 1 1 3 -1 -11.9564867804
10 7 1 1 4 1 -283.98834274
8 9 1 -1 5 0 -29.9406443888
5 8 -1 -1 8 -1 3.60934208908
7 11 -1 -1 3 1 0.816638245156
8 2 1 -1 0 -1 1.32893853673
10 1 -1 -1 7 1 0.566062225341
10 6 -1 -1 11 0 0.595135333219
6 10 -1 -1 2 0 1.82556954692
8 3 -1 1 10 1 0.0
1 1 -1 -1 11 -1 211.751728077
7 5 1 -1 0 1 0.0
9 7 1 -1 5 0 8.59915490394
0 8 -1 1 7 0 270.297652541
4 0 1 1 4 -1 0.0
2 4 -1 1 9 0 104.003425714
3 11 1 -1 10 0 0.121923200863
10 4 -1 1 0 -1 0.0674274178396
2 8 -1 1 6 1 59.7917657192
3 9 1 -1 6 -1 0.112461517412
0 2 1 1 4 0 0.0290626878546
0 0 -1 -1 10 -1 550.855358427
7 6 -1 1 5 -1 0.880621920258
7 4 -1 1 8 0 1.54099216975
1 9 1 1 3 0 -0.0140829851695
4 2 1 1 11 0 0.389389780133
7 6 -1 -1 10 1 2.2199682014
9 9 1 1 4 1 -244.544434576
2 9 -1 1 5 0 116.730258652
0 1 1 1 4 0 0.0216239698685
7 8 -1 1 2 1 0.413156329403
0 8 1 1 3 1 0.0136530001262
7 2 1 1 2 -1 -25.6912967522
4 3 1 -1 9 -1 0.0238368798134
10 10 1 1 4 1 -589.640200195
9 7 1 -1 1 0 -352.861363441
2 7 1 1 5 -1 0.0802525222669
0 10 -1 -1 1 1 0.0125832214276
11 7 -1 1 9 -1 0.0415716154474
4 9 1 -1 5 -1 0.214383285156
1 4 1 1 10 1 0.0690653549732
8 0 1 1 1 0 1.6830702003
1 4 1 1 11 0 0.0564065589512
0 8 -1 1 6 -1 764.854333778
4 4 -1 -1 7 -1 24.3633741589
9 11 -1 1 5 -1 0.265243552748
5 5 1 -1 4 -1 0.132656508562
2 10 -1 -1 3 1 11.2636037312
6 9 1 -1 4 1 -0.94167778479
5 0 1 -1 1 0 0.0
10 11 -1 1 9 0 0.110072784838
2 10 -1 -1 4 1 13.929741175
6 6 -1 -1 3 -1 5.03943192451
5 5 1 1 7 1 1.53841483298
9 0 1 -1 0 -1 8.50847401833
10 1 1 1 2 -1 10.2106930362
10 0 1 1 0 0 14.1094973551
9 4 1 1 0 -1 -195.296825661
1 0 -1 1 9 1 155.396178309
10 2 -1 -1 1 0 0.358810769389
4 10 -1 1 7 -1 7.20851612928
8 11 -1 1 7 0 0.438122138528
5 9 -1 1 5 -1 3.14771628196
8 11 -1 1 6 1 0.366640462255
11 3 1 -1 8 0 -524.347814
5 1 -1 -1 0 -1 6.30630104398
11 3 1 -1 9 1 -1000.0
11 1 1 1 0 0 49.3186536387
8 0 -1 1 4 1 1.11505485989
9 8 1 1 6 0 -104.179892221
4 11 -1 -1 3 1 4.94061979479
1 5 1 1 5 1 0.072230014466
11 4 1 -1 11 1 -537.215966971
5 11 1 1 6 0 -0.0534553853417
11 3 -1 -1 2 0 0.102628789195
9 8 1 1 10 -1 18.0429102349
6 10 -1 1 10 1 1.62596194796
10 6 -1 -1 7 0 0.504184992455
7 7 1 -1 3 -1 1.04703233905
7 3 1 1 1 -1 -13.6925350904
2 7 -1 -1 2 1 40.8664106975
6 7 -1 1 4 0 2.62399806248
1 9 -1 1 7 0 310.718051296
11 11 -1 1 11 0 0.0869769656687
3 5 -1 -1 3 0 31.4637838626
9 8 1 -1 5 1 10.2809189682
9 11 -1 1 10 0 0.263630337062
5 0 1 -1 0 0 0.0
9 9 1 -1 9 0 14.4726802444
7 11 -1 -1 3 0 0.911237389406
3 8 1 1 1 -1 -5.08443426105
11 2 1 1 7 0 -1000.0
4 8 1 1 5 -1 -0.889235328132
11 0 -1 -1 2 0 0.171232109911
9 1 1 1 2 1 2.68404888078
6 6 1 1 7 1 2.77453533762
11 1 1 1 1 -1 36.4952400629
2 5 1 1 9 0 0.140696101808
4 8 1 -1 6 1 0.187076403108
9 0 -1 -1 2 0 0.539531298081
3 1 -1 -1 9 0 64.872646207
4 4 -1 -1 11 0 19.8513234382
11 1 -1 -1 2 1 0.191029956539
6 6 1 1 6 0 -0.363081257226
11 1 1 -1 10 1 -909.651126444
4 5 -1 -1 11 1 21.0224941549
8 3 1 1 3 -1 -8.13591103587
2 8 1 -1 11 0 0.000317510659454
9 5 1 1 3 -1 -207.740343412
10 3 -1 -1 6 0 0.410972999932
2 5 -1 1 6 -1 74.9098871304
0 1 1 1 8 0 0.0271980939205
8 8 -1 -1 5 -1 0.743270745853
11 11 1 1 2 0 -1000.0
2 5 1 1 0 1 -1.81864980018
9 5 1 -1 8 1 -325.76751026
6 9 -1 -1 9 1 1.30421263414
4 6 1 -1 6 1 0.0654507390468
11 3 1 -1 6 -1 -831.400445151
4 6 1 -1 7 0 0.090748175387
11 10 1 1 3 0 -995.597731169
5 7 -1 -1 9 1 6.55254293385
7 5 1 -1 1 0 1.01293560473
11 5 1 -1 4 1 -47.5642542867
8 3 1 -1 4 -1 0.0129098368863
11 0 1 1 0 1 54.5130945085
0 7 1 1 8 -1 0.021170159141
8 7 1 -1 8 1 -36.7008795386
6 1 -1 -1 2 0 2.7570563659
7 6 1 -1 0 -1 3.34498541156
10 2 1 1 6 -1 -392.249411157
1 2 1 1 10 1 0.0718615339125
2 3 -1 1 8 1 77.4578716895
8 3 -1 1 10 -1 0.0
6 4 1 1 1 -1 -39.6766262597
6 9 1 -1 8 1 1.05199533335
5 2 -1 -1 8 0 11.3831335319
2 6 1 -1 3 -1 0.0329136454751
5 3 1 1 8 -1 0.0
0 8 -1 -1 3 0 3.61622263965
0 5 -1 1 0 1 323.988536824
0 4 -1 -1 0 0 66.6720174257
2 3 1 1 11 -1 0.146922719596
11 5 -1 1 1 1 0.0
7 2 -1 -1 7 -1 2.62418851976
2 2 1 1 7 -1 0.135256101534
10 10 1 -1 0 1 -469.910819228
0 7 1 1 2 0 -0.0185292375982
4 10 -1 1 11 -1 17.4897102171
0 7 1 1 3 1 0.0145838067601
5 4 1 -1 10 0 -1.22770889568
3 10 1 1 5 0 0.117122759266
0 2 1 1 5 -1 0.021510562869
3 7 -1 1 8 -1 38.9683252263
0 6 1 1 8 -1 0.024006181986
0 0 -1 -1 6 0 7.5851425257
4 8 -1 1 3 1 7.28272216448
8 5 -1 -1 8 -1 1.41538006039
6 10 -1 1 6 1 1.34511186882
1 3 -1 1 11 1 89.9567466454
7 10 -1 -1 6 1 1.20093093948
6 11 1 1 0 -1 -40.8424165064
3 7 -1 -1 3 1 27.3169283936
6 10 1 1 8 0 2.44049828718
8 1 -1 1 10 1 2.83890951109
8 8 -1 1 1 -1 0.235862672927
10 7 1 -1 6 1 33.0537432296
2 4 -1 -1 8 0 71.8697688193
5 11 1 -1 7 -1 0.597774169462
9 4 -1 -1 5 -1 0.697773252119
10 1 -1 1 2 1 0.226532040944
8 4 1 1 8 0 0.0
7 1 1 1 5 0 0.889440186807
9 2 1 1 0 0 -4.72494308212
11 10 1 -1 6 0 -999.996204085
3 10 1 -1 10 -1 0.120194435438
10 3 1 1 9 -1 -552.081287929
1 2 -1 1 11 -1 73.1849255598
5 11 1 -1 1 0 -18.8944433878
1 10 -1 -1 10 -1 68.0963102069
3 4 1 1 2 0 -2.99288850891
8 5 -1 1 0 1 0.300539247678
3 2 -1 -1 1 0 26.3510732817
3 4 -1 1 0 -1 27.3471000784
10 7 1 -1 10 0 -455.490481422
4 8 -1 1 8 0 13.2157092941
9 2 1 -1 4 0 -117.0080557
3 10 -1 1 5 -1 12.3498299337
3 9 -1 1 0 0 27.7167881821
5 6 -1 1 9 1 19.3050833498
1 6 -1 -1 5 0 112.739062579
0 11 1 -1 8 -1 0.0156915317991
7 3 1 -1 0 0 0.841356759038
6 4 -1 -1 6 -1 6.30574427294
3 10 -1 -1 10 1 9.45784905433
2 0 -1 -1 11 0 122.869323617
7 8 1 1 11 0 5.66979994565
1 10 1 -1 10 1 0.0152032251291
2 1 -1 -1 5 0 95.7431009589
9 1 1 -1 2 -1 -1.09630044074
9 6 1 -1 2 0 0.0
9 1 -1 1 5 1 0.733995891611
0 4 -1 -1 1 0 47.5826792085
7 3 1 1 6 0 2.39194812664
6 7 1 1 3 0 -49.4223198899
0 11 -1 -1 8 1 129.296861634
11 7 -1 -1 9 0 0.204750927812
9 3 1 1 10 -1 -78.2368689186
6 0 -1 1 8 1 5.78192351007
3 6 -1 -1 0 1 26.9626412502
11 6 -1 -1 5 1 0.186227188262
5 11 -1 -1 10 1 3.48070561392
0 2 1 1 2 0 0.0168910689577
6 6 1 -1 1 0 0.0
9 10 -1 1 4 -1 0.191928474454
1 0 1 1 11 1 0.0
6 0 -1 1 11 1 5.20553883587
9 5 -1 -1 6 -1 1.22315684414
0 5 1 1 0 0 -0.119329865021
9 5 -1 1 3 1 0.250963666291
1 9 1 -1 8 -1 0.0212043442324
11 11 1 -1 5 0 -993.758678653
10 4 1 -1 7 0 -464.275524144
5 11 1 -1 4 0 -7.8509255841
5 4 1 1 2 1 -7.87162439603
3 5 -1 -1 11 -1 45.1151222413
0 11 -1 1 5 0 374.563312292
9 3 1 -1 2 1 1.82605195178
3 5 -1 1 4 1 33.6221855413
8 0 1 -1 1 0 2.13863381944
9 6 1 -1 0 1 -343.829829875
2 9 1 1 5 0 0.0632926571181
6 9 -1 -1 2 -1 1.42608067877
8 6 -1 1 1 0 0.185634295244
10 5 -1 1 6 1 0.0
1 3 -1 -1 5 1 130.324710405
1 9 -1 1 10 1 235.108855119
2 1 1 1 8 1 0.124797772858
0 9 1 1 9 0 0.0164434666154
10 11 1 1 7 1 -655.721070815
1 5 1 1 1 1 -0.0480824833933
7 8 -1 1 1 -1 0.36499835815
10 8 1 -1 4 0 -596.046861774
10 7 -1 1 5 -1 0.0562171725127
3 6 -1 1 11 -1 78.8852490555
5 9 -1 -1 9 1 2.17488381902
10 10 -1 1 3 0 0.171130214265
2 8 1 1 6 -1 0.0768260505338
8 0 1 1 11 0 -28.1528152939
6 4 -1 -1 2 1 3.64428519686
2 8 1 -1 3 1 0.011087195326
8 1 1 1 11 1 -10.2831613223
6 2 -1 1 8 1 4.54455815988
0 7 -1 -1 2 -1 53.8767490311
9 4 1 -1 3 0 9.57847917793
5 0 -1 1 2 1 6.25360871078
4 4 -1 -1 9 0 20.596891003
5 5 -1 1 0 -1 7.20644258784
4 8 1 1 2 1 -5.59976493284
10 5 1 1 9 1 -642.947344742
7 4 1 1 11 1 -1.17201336799
11 10 1 1 11 1 77.329627046
5 9 -1 -1 7 0 2.83493313346
10 2 -1 -1 7 -1 0.485119549635
7 11 1 -1 3 0 -88.4907013172
2 3 -1 -1 6 1 64.227885442
4 10 1 -1 4 -1 0.236623662523
0 0 1 1 2 -1 0.00615587356379
4 3 -1 1 8 1 33.0170594687
8 10 -1 1 1 1 0.346433400896
11 7 -1 1 3 0 0.0712132154651
5 9 1 1 6 0 -1.62691794999
6 4 1 -1 5 0 0.200543778268
9 0 -1 -1 11 0 0.0
10 1 1 1 4 0 -179.273199022
9 10 -1 1 5 0 0.14426860849
6 3 1 -1 5 -1 -0.022564606634
0 4 1 1 4 -1 0.0253396338451
1 9 1 1 11 -1 0.0418593806124
7 9 1 -1 1 1 -94.2235822395
1 5 -1 1 4 -1 228.862162113
0 10 1 -1 6 -1 0.0122434125257
7 3 1 -1 5 -1 -2.82486145845
8 11 -1 -1 3 0 0.610202794349
3 5 -1 1 1 1 0.0
3 10 1 -1 0 -1 -1.02424428032
7 0 -1 -1 0 -1 0.0
8 1 1 -1 8 -1 -56.4409165232
11 0 1 1 6 -1 -602.699920233
1 10 -1 -1 0 -1 0.924482762212
2 5 -1 1 4 -1 78.2034758037
6 0 -1 -1 11 1 4.82062035195
10 9 1 1 2 0 -346.966258581
11 0 1 -1 5 1 -948.319096139
7 9 -1 -1 1 -1 1.04973445115
2 10 -1 1 7 1 32.4903354414
2 4 1 -1 5 1 0.0
0 11 -1 -1 1 -1 179.951943582
7 3 1 -1 1 -1 1.16071809117
0 2 -1 1 9 1 19.9010729955
11 6 1 -1 11 -1 -1000.0
5 8 -1 1 0 -1 4.43443358175
6 11 -1 1 6 1 1.04869649449
6 5 -1 -1 6 0 5.62772832829
3 9 -1 -1 6 0 9.46321000821
11 6 1 1 0 1 -1000.0
3 7 1 -1 0 0 0.0
0 6 1 1 10 0 0.0284179361937
10 10 -1 1 4 -1 0.171070462712
11 5 1 -1 2 1 -81.9243868986
8 1 1 1 8 0 -9.02484761898
10 0 1 1 7 0 -479.192862621
6 7 1 1 5 0 -8.07245449381
10 7 1 -1 3 0 -600.137174211
7 7 1 -1 11 -1 -50.402752084
6 2 -1 -1 3 -1 6.10370440567
5 9 -1 -1 5 1 4.13989574084
3 11 1 1 3 0 -1.41474884747
7 0 -1 -1 9 0 2.59947779836
0 2 -1 -1 1 0 19.8164789519
0 1 1 1 2 1 0.0217638752257
1 2 1 1 0 1 -0.307804627559
6 10 1 -1 2 1 -15.61356321
4 7 -1 1 2 1 13.707655622
7 10 -1 1 0 0 0.523426200296
8 4 -1 1 9 0 0.0
7 4 1 -1 1 0 0.972450205808
1 9 -1 -1 8 0 22.6400054738
8 0 -1 1 0 -1 0.826501247064
1 3 -1 1 3 0 0.0
10 3 1 -1 9 0 -403.279756984
1 6 1 1 10 -1 0.0574361904563
9 10 1 1 2 0 -247.264374305
6 5 -1 1 6 1 3.1347839123
6 6 1 1 2 -1 -52.8054679309
9 3 1 1 5 1 5.91378333524
9 2 -1 -1 4 0 0.533666812423
9 3 1 1 4 0 1.98938604507
11 3 1 1 6 -1 -1000.0
9 1 -1 -1 10 1 1.13623123306
10 4 -1 -1 8 1 0.440089275639
4 6 -1 1 1 1 9.86588882016
5 7 -1 -1 10 -1 7.47816582287
4 9 -1 1 5 0 6.70667806558
5 4 1 -1 0 0 0.0702653902161
4 9 -1 1 4 1 7.36131636905
8 7 1 1 2 1 -212.59074185
2 5 -1 -1 6 -1 73.9591394705
9 11 1 1 8 -1 -294.735032615
9 6 1 1 4 0 -219.503926911
3 4 1 1 11 0 0.224022416721
0 10 -1 -1 1 0 0.012840438497
7 2 1 -1 5 1 -21.6976410351
7 2 1 -1 4 0 -4.93003886629
4 7 1 1 9 1 0.589493206685
8 2 -1 -1 0 0 0.159852404178
11 2 -1 1 0 -1 0.0558616815069
6 8 -1 1 7 0 2.55647539464
3 6 -1 1 6 0 29.4681488925
5 1 1 1 10 -1 0.0
8 7 1 -1 9 -1 -14.3456078835
6 1 -1 -1 3 -1 3.90255901272
9 3 1 -1 10 0 -223.071592786
6 7 1 -1 5 1 1.17038517022
2 1 -1 -1 8 -1 81.7342468375
1 3 -1 1 4 -1 54.8293810937
5 10 1 -1 6 0 0.511118459681
5 10 1 1 6 0 -1.55636621817
6 2 1 -1 0 1 0.0
4 4 -1 1 1 0 9.57148250455
9 4 1 -1 11 -1 -208.764210511
11 8 1 -1 2 0 -995.945689624
2 1 -1 1 3 1 45.3960916333
2 1 -1 1 2 0 39.7360006072
0 4 -1 -1 9 1 115.685644445
5 3 -1 -1 4 1 13.2862496753
3 9 -1 1 6 0 54.5561555915
6 7 1 1 4 0 -46.1669690609
0 1 1 1 9 -1 0.0297197021144
10 7 1 -1 7 0 35.1949474525
8 0 1 -1 4 1 1.9179514094
7 9 -1 -1 11 -1 1.07688448585
5 8 1 1 4 1 -20.0095668513
5 9 -1 1 6 0 2.14543585495
5 9 -1 1 7 1 4.75261931531
7 7 1 -1 0 1 -0.767653188762
10 7 1 1 8 1 35.2202866921
7 9 -1 1 4 1 0.507194204242
10 8 -1 1 8 -1 0.0600454159533
0 6 1 1 6 0 0.0207698465999
0 7 -1 -1 11 1 39.4250982261
10 9 1 1 9 -1 -122.8889967
5 5 -1 -1 4 0 12.5933066455
2 4 -1 -1 5 -1 74.9704743716
7 0 1 1 6 1 0.559800217836
1 1 -1 -1 7 -1 184.041410052
2 3 -1 1 7 -1 72.1934151837
1 10 -1 1 5 -1 167.410036145
7 3 1 -1 6 1 -27.8574426313
1 1 -1 1 4 1 58.5117703073
0 11 1 -1 5 -1 0.0113186496839
0 0 -1 -1 11 -1 436.746903937
6 3 -1 -1 7 1 5.58623986507
1 10 1 -1 0 0 -0.0444918221391
5 5 -1 -1 4 1 11.9388334493
1 10 -1 -1 6 1 25.3498835343
5 6 1 1 7 -1 1.52961741727
4 3 1 1 8 0 0.508116549078
3 10 1 -1 11 1 -0.00954426804314
8 1 1 -1 1 -1 2.73444568322
8 10 1 -1 7 -1 -0.892893851767
7 3 1 1 11 -1 4.16962296108
0 4 -1 1 10 0 197.346382884
1 5 -1 1 2 1 162.827465888
4 11 -1 1 5 0 4.27886483877
9 10 1 -1 2 0 -309.318100815
5 11 -1 1 2 0 2.0727794709
11 8 -1 1 4 0 0.0
10 2 -1 -1 0 -1 0.201732920494
10 4 1 1 11 -1 -472.982357151
7 3 1 1 2 1 -1.57289455648
5 11 1 -1 5 -1 0.0900417937573
2 8 1 -1 2 -1 0.010095716717
3 9 1 -1 8 0 0.100181053817
3 4 1 1 7 0 0.363288147266
6 3 -1 -1 8 -1 5.1264108416
10 8 1 1 7 -1 -357.446569493
1 8 -1 1 2 -1 0.0
11 6 -1 1 5 -1 0.0459111206199
1 4 1 1 7 0 0.0737887050875
7 8 -1 -1 3 0 1.1873967392
3 0 -1 -1 4 0 37.8751986598
1 8 -1 -1 0 0 0.762549672146
10 4 1 -1 2 -1 8.95533824433
8 1 1 -1 1 0 2.75603743572
4 8 1 1 8 -1 0.454731698275
5 1 1 1 8 0 0.55539901393
6 7 -1 -1 11 0 4.39600324814
4 7 -1 -1 4 0 16.1695707866
5 4 -1 -1 6 0 11.3684249256
5 0 1 -1 10 -1 0.0
11 8 1 1 4 -1 -1000.0
7 1 -1 1 2 1 2.32469735892
0 1 1 1 5 -1 0.0281219930932
8 11 -1 1 9 -1 0.373296636559
8 11 -1 1 10 1 0.368098655395
11 7 -1 1 5 0 0.0452482980626
9 5 1 -1 11 1 -160.03241848
10 8 1 1 11 1 -10.8663330199
11 5 1 -1 5 -1 67.6627639455
1 7 -1 -1 1 1 37.8528015376
7 4 1 -1 10 0 -25.6333939363
8 3 -1 1 1 0 0.471572453154
10 6 -1 1 1 0 0.0
10 1 1 -1 11 -1 -480.625808868
8 7 -1 1 7 -1 0.000214993523588
6 7 1 1 6 1 2.20426102132
1 0 -1 1 9 0 92.0187168497
4 11 -1 1 5 1 4.19214191069
11 10 1 1 8 1 -834.017733299
0 11 -1 1 0 0 490.518670305
5 3 -1 1 11 1 16.5098614557
4 7 -1 1 11 1 27.1037505792
1 11 1 -1 8 -1 0.0275041528113
1 9 1 -1 2 1 0.0223939382013
5 4 1 1 5 -1 -1.42248284719
6 3 -1 -1 11 1 7.5132887112
8 10 1 1 4 1 -180.602337149
6 8 -1 -1 7 0 3.08902153171
9 8 -1 1 2 1 0.116026976772
10 5 1 -1 1 -1 -631.297269973
11 10 1 -1 3 -1 -900.623293956
9 7 1 1 2 -1 -333.426331967
6 2 -1 1 2 -1 5.41861238433
9 10 -1 1 3 1 0.217250449204
9 0 -1 1 8 0 1.45772848223
6 5 -1 1 3 0 3.20895602952
7 8 1 -1 11 1 -31.8536617021
11 1 1 -1 6 1 -967.041956583
7 9 1 -1 11 0 -46.3668146292
3 8 1 1 5 0 0.113097871755
7 5 -1 -1 8 0 3.15350910764
6 11 1 1 5 0 -2.05612287164
11 7 1 -1 0 -1 -895.959700605
1 2 -1 1 1 0 6.67890780274
1 0 -1 -1 11 0 256.751099187
6 6 1 1 1 -1 -56.1540833947
5 0 1 1 6 -1 0.0937590248065
3 11 1 -1 2 1 0.0509176042133
4 4 -1 1 8 0 27.263273915
5 5 1 -1 9 0 -1.06533201349
8 1 -1 -1 5 0 1.10604658234
4 6 1 -1 11 0 -5.42005075707e-06
4 4 1 -1 9 1 0.00476871928647
9 9 -1 -1 5 0 0.502693577171
8 11 1 -1 4 1 -172.648248512
2 10 -1 1 1 0 26.5871686632
8 10 1 -1 9 1 7.07672995688
0 11 1 -1 3 1 0.00872815030472
2 0 -1 1 10 0 79.1473404184
6 3 -1 -1 2 0 7.47465341861
1 6 -1 1 7 0 234.233495036
8 5 -1 1 6 -1 0.62791060298
7 0 -1 1 3 -1 3.35134292741
0 11 1 1 5 1 0.0111523231764
7 10 -1 1 6 0 0.518855531988
4 9 1 1 0 -1 -8.49900583412
6 10 1 -1 8 1 1.66544943046
2 10 1 1 10 1 0.100239091417
8 9 1 -1 11 -1 4.15326988343
5 4 -1 -1 1 0 5.15041517693
3 7 -1 -1 5 0 28.0445068911
11 10 -1 1 9 1 0.100760339406
1 5 -1 1 8 1 184.117036705
1 5 -1 1 9 0 179.612847607
8 1 -1 1 0 -1 0.597861549659
9 4 -1 1 3 0 0.275129347681
5 6 -1 1 0 1 5.47204747885
8 6 1 -1 8 0 -87.5930074293
10 9 -1 -1 10 0 0.182793103656
4 10 1 1 7 0 0.497405457273
7 10 -1 -1 1 -1 0.872064781672
3 7 -1 1 5 0 39.7281908419
9 1 1 1 5 0 -68.580856795
9 1 1 1 4 1 -10.399004386
7 3 -1 1 9 -1 1.38052621915
0 0 -1 1 4 0 365.028966469
2 6 1 1 11 0 0.109616704108
6 8 -1 1 1 0 1.05776003026
2 7 1 1 10 0 0.0981824977245
5 2 -1 -1 3 -1 8.39192962183
8 4 -1 -1 8 1 1.62905249544
2 7 1 1 2 -1 -1.41886711452
6 2 -1 1 7 -1 5.97834680831
4 7 1 1 10 -1 0.529521942075
11 6 -1 -1 8 1 0.281618361406
7 4 1 -1 6 1 -14.7588625992
4 2 1 -1 8 -1 0.0592483418291
9 2 -1 1 5 1 0.834627637144
10 0 1 1 10 -1 -529.297394914
7 7 -1 1 3 -1 0.409989981561
1 2 -1 1 7 -1 28.3081005809
3 9 1 1 5 1 0.168291786652
7 1 1 1 1 -1 -1.62450462006
7 11 -1 1 5 0 0.921603053728
11 9 -1 1 9 1 0.0688639579188
1 0 1 1 0 0 -0.00472170639811
9 3 -1 1 5 -1 0.510787530748
0 1 -1 -1 10 1 223.589719545
8 8 1 -1 8 0 3.82852623966
1 2 -1 -1 8 1 139.943047814
6 4 -1 -1 7 -1 6.00082631673
7 6 1 -1 11 1 -42.2671462734
4 9 -1 -1 4 -1 6.60050085029
2 5 -1 -1 8 1 66.681540965
9 10 -1 -1 10 0 0.279127477946
11 9 -1 1 5 0 0.0601488416298
5 9 -1 1 8 -1 3.18638508074
4 2 -1 -1 3 0 15.1446844566
4 2 -1 -1 2 1 26.2592733134
7 7 1 -1 2 -1 0.0
10 11 1 1 11 0 38.7984830851
11 4 1 1 9 0 -172.947247851
9 0 1 1 6 0 -66.4986713746
7 4 -1 1 0 0 1.06152074622
8 7 -1 -1 4 -1 1.59869243124
1 7 1 -1 5 0 0.0131379629576
6 2 -1 -1 0 1 3.1173762446
6 8 1 1 0 1 -49.9412529388
8 0 -1 -1 11 1 2.00833459019
4 7 -1 -1 1 1 13.0190781361
1 4 -1 -1 3 0 138.834944268
8 1 1 -1 4 1 -12.6069412491
11 11 1 -1 9 0 -1000.0
3 9 -1 -1 7 -1 8.59296939522
7 0 -1 1 6 0 2.42208227985
4 2 1 1 7 0 0.665978687329
7 7 1 1 5 0 -94.9441389621
0 11 -1 -1 5 -1 43.9225561946
1 9 1 1 6 0 0.0426032803624
7 3 1 1 0 1 0.0
2 7 -1 -1 9 -1 46.8985767064
1 2 -1 -1 11 -1 170.945200583
3 8 1 -1 7 0 0.0628741889112
6 10 -1 1 1 -1 0.799712591445
6 0 -1 1 8 -1 5.5106867873
7 0 1 -1 6 -1 0.722040326924
0 11 -1 -1 9 0 178.016671561
6 5 1 1 5 -1 -9.60062506451
0 11 -1 -1 2 0 1.6078288629
2 7 1 1 11 -1 0.138967081179
3 6 -1 1 10 -1 60.8356849678
4 3 -1 -1 0 0 15.1515839429
5 0 -1 -1 2 0 11.6707923969
6 0 1 1 1 1 0.173806114606
7 0 1 -1 8 1 -8.37801452226
10 4 1 1 10 0 -514.047179067
11 6 -1 1 3 1 0.0
5 8 1 -1 1 -1 -10.791499747
4 11 1 -1 1 1 -6.65065019203
3 3 1 -1 9 -1 0.0
2 10 1 -1 2 -1 0.0235384830757
3 3 1 1 4 1 0.141309120623
1 9 1 -1 2 0 0.0
3 8 1 1 0 -1 -7.38843178061
0 4 -1 -1 7 0 237.377814713
7 8 -1 1 2 -1 0.692791692173
9 7 1 -1 0 -1 -299.770409494
0 2 -1 -1 0 0 173.86424019
7 5 1 1 7 -1 2.0752744614
7 5 1 1 8 0 4.84595912371
7 6 1 -1 10 -1 -67.6123152546
7 4 -1 -1 0 1 2.18797940524
9 11 1 1 2 1 -169.70771762
0 10 -1 1 10 0 602.266831554
3 9 -1 -1 8 0 9.11409177287
1 11 1 1 11 -1 0.0341765852068
10 0 1 -1 0 -1 23.118443341
5 10 1 1 3 -1 -19.5103388715
3 3 1 1 8 0 0.232601099402
8 10 -1 -1 2 1 0.0
2 6 1 1 1 0 -2.07209665515
5 7 1 -1 9 -1 -0.454937882126
10 0 1 1 11 1 -520.168118086
0 1 -1 -1 0 0 68.5032837416
7 3 1 1 4 1 -4.90718824897
0 1 -1 -1 1 1 97.203997224
4 3 -1 1 9 0 23.476015063
8 7 -1 -1 8 -1 1.13951613056
2 4 -1 -1 3 0 66.8947744389
0 8 -1 -1 6 0 0.712994782554
4 5 1 1 3 1 0.111587891209
1 11 -1 -1 8 0 94.9704427855
5 6 1 1 0 1 -23.8217728264
1 6 1 1 1 0 -0.808142026277
6 2 -1 1 9 -1 7.57480989101
6 6 1 -1 0 -1 0.814527387616
0 9 -1 -1 1 -1 0.00561889042466
11 0 -1 1 1 1 0.132882132928
6 6 -1 -1 1 -1 5.57291919681
2 11 1 1 7 1 0.0691184322375
1 3 -1 -1 3 1 126.833127627
7 1 1 -1 6 0 -7.8174525299
6 6 -1 -1 8 -1 4.41104159379
10 9 -1 1 2 1 0.168151545494
10 11 1 1 1 1 -484.960725436
1 10 -1 1 2 0 0.0
2 8 -1 -1 5 0 18.3780591572
5 7 1 1 0 0 -25.4610734152
6 10 1 1 2 0 -35.0802935324
3 2 1 1 6 0 0.374155057463
3 2 1 1 7 1 0.327363290315
3 0 -1 -1 1 0 27.8318483418
5 9 1 1 1 -1 -14.6001659985
5 1 -1 -1 10 -1 12.5882946952
3 8 -1 1 5 -1 19.9187468269
2 7 -1 -1 5 -1 47.3185068306
8 9 -1 1 2 -1 0.245245207513
2 9 1 1 10 -1 0.108309360398
6 0 -1 1 4 -1 6.44835897795
6 6 1 -1 8 1 -6.63468795531
6 6 1 -1 9 0 -20.5620255791
5 3 1 1 7 -1 0.804747606454
4 7 1 -1 10 1 -0.329440367889
11 6 1 -1 0 0 -951.182769911
6 4 -1 -1 10 1 6.69705780707
4 10 1 1 8 -1 0.395764081783
4 7 1 1 4 1 0.184613564378
4 7 1 1 5 0 -0.902650747616
5 0 1 -1 9 -1 0.0
5 4 1 1 7 0 1.23230637348
1 4 1 1 2 -1 -0.0592819109076
11 0 1 -1 0 -1 59.9235642778
8 3 1 -1 9 0 -93.0058652007
4 11 1 1 10 -1 0.421248784807
9 9 -1 1 5 1 0.215278953494
2 5 -1 -1 0 0 35.0364350979
1 6 -1 -1 0 -1 54.3046271088
9 10 1 -1 7 0 14.377114969
5 2 1 -1 2 1 0.0773115158417
2 8 -1 -1 0 1 2.39199231519
7 5 1 1 6 0 3.30270903992
10 1 1 -1 6 -1 -453.833287987
11 7 1 1 10 -1 87.4641941387
9 2 -1 -1 8 0 0.791215642674
9 2 -1 -1 9 1 0.89235570159
3 10 -1 1 2 -1 7.70960090128
8 9 1 1 6 -1 -144.323762519
1 11 -1 1 4 1 42.5201841332
10 5 -1 1 2 0 0.0762852591508
1 10 1 1 2 -1 -0.00380356398833
8 9 1 -1 5 1 -92.2469305016
10 10 1 -1 3 1 -653.63908735
8 9 1 -1 4 0 -32.6853153506
2 10 1 -1 5 1 0.0554067052752
10 1 -1 -1 7 0 0.624985036441
8 3 1 1 1 1 -52.9209456755
0 11 1 1 11 -1 0.0193452204144
3 11 1 1 5 -1 0.068307186974
6 2 -1 -1 5 0 5.05152222505
0 10 1 1 1 0 0.00541922350192
9 7 1 -1 6 0 14.679703261
7 2 -1 -1 10 0 3.37420315412
3 11 1 -1 10 1 0.114076808226
4 4 1 -1 1 1 0.0
10 4 -1 1 3 1 0.139101200955
1 3 -1 1 8 -1 62.850661241
3 11 1 1 11 1 0.19408008974
6 4 -1 -1 4 -1 8.19988745291
4 2 1 -1 0 -1 0.0
7 6 -1 1 4 -1 0.709357185837
1 9 1 1 3 1 0.0188542287058
7 5 -1 -1 7 -1 3.23143350903
11 1 1 1 4 0 -990.895018292
6 11 -1 1 1 0 1.02695868928
8 7 1 -1 4 -1 2.86235229682
9 9 1 1 4 0 -395.928546753
2 9 -1 1 5 1 76.9977690316
0 1 1 1 4 1 0.0338716118073
0 3 -1 1 5 -1 1.88377379141
8 8 1 1 9 -1 9.68843288417
4 7 -1 1 4 1 15.2872469409
10 10 1 1 4 0 -402.777534936
0 7 -1 -1 7 1 125.470396637
11 5 1 1 6 0 49.2355361545
3 4 -1 -1 10 -1 36.363172996
3 0 -1 1 8 1 19.4537814123
0 4 -1 1 9 0 84.1200921642
8 8 1 -1 2 1 -131.349512517
7 1 -1 -1 1 -1 2.00485208325
8 9 1 -1 11 1 -15.9147400648
2 11 -1 1 5 -1 26.1225728501
5 9 1 -1 9 -1 0.657087740253
6 4 1 -1 7 -1 -5.24205398967
4 9 1 -1 6 1 0.204305900643
0 6 -1 -1 11 -1 183.189718503
5 0 -1 1 0 1 5.97092435309
9 9 -1 1 9 1 0.153057203816
3 9 -1 -1 1 0 2.17748303918
1 5 -1 -1 8 0 121.685936399
7 11 1 -1 1 1 -73.6369839134
11 2 -1 -1 2 0 0.144656345077
3 8 -1 -1 0 -1 3.00304627613
2 2 -1 1 7 -1 33.9223988572
4 1 1 1 5 -1 0.0
2 2 -1 -1 10 1 106.704384255
3 8 1 -1 0 -1 0.0
8 5 1 1 8 0 9.72766485773
0 2 -1 1 6 0 17.1492102339
11 9 1 1 5 0 -998.577963357
6 7 1 1 2 0 -59.3202492431
9 6 -1 -1 6 -1 0.664215742594
7 6 1 1 3 -1 -71.6064655372
5 9 -1 -1 1 -1 2.24293397912
10 2 -1 -1 1 1 0.224782647459
8 11 -1 1 7 1 0.423571379301
5 3 1 1 3 0 -4.23974661934
8 11 -1 1 6 0 0.489349898262
11 3 1 -1 8 1 -980.521248657
11 3 1 -1 9 0 -977.058380034
11 9 1 -1 1 1 -826.824963727
3 4 -1 -1 7 1 38.0277881226
9 8 1 1 6 1 -328.937322478
4 11 -1 -1 3 0 4.34344447308
2 7 1 -1 6 -1 0.0189802951127
1 4 -1 1 2 -1 0.0
7 11 1 1 5 0 -11.7168597061
11 0 1 -1 2 -1 -699.511577385
3 9 1 -1 5 1 0.0790178293982
4 6 -1 1 6 0 16.6291479605
10 6 -1 -1 7 1 0.45345377671
4 6 -1 1 7 1 21.1253941833
7 9 1 1 9 -1 4.88735357793
5 7 1 1 9 0 1.34232137955
7 4 -1 1 9 1 0.0
0 10 -1 1 4 1 133.690499613
3 5 -1 -1 3 1 38.4499091284
6 10 -1 -1 5 1 1.84990248887
9 11 -1 1 10 1 0.308080533019
3 7 1 1 0 1 -3.1870482429
3 0 -1 -1 9 1 64.7073262058
9 0 1 1 1 -1 5.17539981843
2 9 1 -1 2 1 0.0291340776952
5 5 -1 1 7 -1 11.2382189529
5 5 1 1 11 -1 1.00007514461
6 5 1 -1 4 -1 0.589541570101
0 7 -1 1 3 0 317.840764201
11 0 -1 -1 2 1 0.202181189718
4 5 1 1 6 -1 0.63660617104
5 1 -1 -1 5 1 9.49216350524
10 4 1 1 0 0 -258.884553842
6 8 1 -1 6 1 1.37232010967
9 3 1 1 0 0 -85.7159131297
9 0 -1 -1 2 1 0.43699720272
4 5 1 -1 5 1 0.0522136722831
8 10 -1 -1 7 0 0.377751889912
4 4 -1 -1 11 1 24.6889360266
6 3 1 1 4 1 -2.36383191156
4 5 -1 -1 11 0 19.2146890597
7 6 1 1 0 0 -64.460786019
6 9 -1 -1 0 -1 2.15132302687
3 11 -1 -1 0 -1 3.06415207605
10 3 -1 -1 6 1 0.432635556331
0 1 1 1 8 1 0.025683846246
9 2 1 1 2 0 2.99118921711
3 1 -1 -1 3 -1 44.8206370119
9 5 1 1 9 1 -42.2530770434
1 7 -1 1 6 0 171.225746085
3 7 -1 1 3 0 20.9630610135
11 2 1 -1 9 0 -999.278499278
6 9 -1 -1 9 0 1.33464438384
0 11 1 -1 0 1 0.00679502967826
8 0 -1 -1 6 0 1.15298055322
8 9 1 1 10 0 8.55066892198
3 5 1 -1 1 0 0.0
5 9 1 -1 6 0 0.439565133767
8 4 -1 -1 2 -1 0.866206129433
4 10 1 -1 8 0 0.306447748374
8 7 1 -1 8 0 -12.0982338073
6 1 -1 -1 2 1 3.0884699433
2 3 -1 1 8 0 69.1811809322
1 5 -1 -1 4 0 160.790198636
11 10 -1 -1 11 -1 0.126532020242
4 2 1 -1 10 -1 0.0
10 5 -1 -1 9 -1 0.459822342659
1 1 1 1 7 -1 0.0688510976386
10 11 -1 1 11 -1 0.129718395153
5 11 -1 1 1 1 1.92562667164
3 2 1 1 1 1 -0.159984799047
0 7 1 1 2 1 0.00994294430311
0 7 1 1 3 0 0.00883549016122
11 7 1 -1 10 0 -895.495466322
2 5 -1 1 11 0 194.81694546
7 2 1 1 3 1 0.934092734357
3 11 -1 1 3 1 9.7165212946
0 3 1 1 9 -1 0.0355430321964
6 8 1 -1 1 1 -25.6447547181
8 2 1 -1 5 -1 -24.1527562373
3 10 1 1 10 0 0.224898115628
4 9 -1 1 3 1 7.86486712602
11 4 -1 1 1 0 0.0688100277698
7 7 -1 -1 10 -1 2.09757267331
4 7 -1 -1 8 -1 12.3077720173
3 3 1 1 1 1 -2.29542964946
3 2 -1 1 3 1 51.6451173269
0 1 -1 1 9 -1 62.6538351028
1 3 -1 1 11 0 89.2105078695
3 4 1 1 5 -1 0.202451862323
5 7 1 -1 1 -1 0.225171603256
6 3 1 1 11 1 0.0
10 2 1 -1 7 -1 -638.245782632
9 9 -1 1 6 -1 0.170648670803
10 7 1 -1 6 0 24.5434452319
1 8 1 1 10 0 0.0581361963806
10 1 -1 1 2 0 0.218601644
8 5 1 1 3 1 -125.48720816
9 2 1 1 0 1 5.07716977888
5 2 1 -1 4 1 0.12694326881
3 1 1 1 10 0 0.182808253429
9 7 -1 1 2 -1 0.100905283062
11 6 1 1 1 -1 -941.999609453
8 5 -1 1 0 0 0.295982031554
3 11 -1 1 9 -1 12.0346571523
3 10 -1 1 4 -1 11.6246385303
2 2 1 1 1 0 -0.205809962592
3 9 -1 1 0 1 18.518739878
11 9 1 1 10 -1 55.9420174356
6 3 1 -1 1 1 0.0
10 6 1 1 8 -1 16.5903495068
7 1 1 1 10 1 -9.56871992231
11 0 1 -1 4 -1 -1000.0
1 0 -1 -1 1 -1 178.451280332
1 0 1 1 1 0 0.0242336800964
6 2 1 -1 9 1 -2.13263560227
9 0 1 -1 8 -1 -137.934860304
7 0 -1 1 8 0 2.63953800431
0 4 -1 -1 1 1 68.7377592248
9 3 -1 -1 11 0 0.694608277756
2 8 1 1 8 1 0.126210083274
11 7 -1 -1 9 1 0.26482296529
0 10 1 1 3 1 0.0142611990244
11 6 -1 -1 5 0 0.141237457651
11 3 1 -1 0 0 -216.677571655
5 11 -1 -1 10 0 3.0624280733
7 11 -1 -1 11 0 0.991448626479
6 0 -1 1 11 0 4.95146428581
6 2 1 1 4 -1 -6.75083496613
0 5 1 1 0 1 -0.0318948257509
1 9 1 -1 7 -1 0.017794719146
9 5 -1 1 3 0 0.182994411273
0 6 -1 1 9 1 445.756434982
9 11 1 -1 6 0 -285.732100135
9 2 -1 1 1 -1 0.172487148838
4 0 1 -1 9 1 0.0
9 4 1 1 5 1 1.67452786554
5 0 1 -1 9 1 0.0
6 8 -1 1 0 -1 0.757324743263
9 1 1 -1 10 -1 -149.851135361
7 0 -1 1 5 -1 2.27033487273
3 8 1 1 9 -1 0.304274729854
6 7 -1 1 10 -1 0.0
7 3 1 1 11 0 0.0
10 11 1 1 7 0 -651.82696975
11 3 1 1 5 1 -781.355101121
9 0 1 1 11 1 -271.089578886
6 11 -1 -1 5 0 1.37870527329
4 10 -1 -1 5 0 4.45113347671
8 0 1 1 11 1 -48.1950679359
6 11 -1 1 5 0 0.970960009685
4 4 1 -1 8 0 0.0308735761032
8 1 1 1 11 0 -40.2175466366
1 3 1 1 0 -1 -0.823972806797
4 8 1 1 2 0 -6.10451938118
1 1 1 1 2 0 0.0526108106818
3 6 -1 -1 11 0 40.8123692264
3 9 -1 -1 11 -1 7.5464935461
6 0 1 -1 5 -1 0.0
2 6 -1 1 3 1 104.454862696
10 5 1 1 9 0 -413.163484126
6 1 1 -1 11 0 -2.32410692348
11 10 1 1 11 0 74.1214665335
7 7 1 1 9 0 5.13491403568
5 9 -1 -1 7 1 2.49848158461
8 8 -1 -1 7 0 0.51786309775
3 5 1 -1 5 -1 0.0228262108822
2 10 -1 -1 11 0 19.1966916293
4 3 -1 1 8 0 25.9274245835
8 0 -1 1 7 1 1.92068943495
8 10 -1 1 1 0 0.309118558
8 2 -1 -1 5 -1 1.89415736035
10 3 1 -1 7 0 -586.399910876
9 6 1 1 8 1 16.5046274605
3 3 -1 1 9 -1 57.7893988383
9 10 -1 1 5 1 0.196454432618
9 8 1 1 1 1 -375.075819621
9 9 1 1 3 0 -227.220998407
7 9 1 -1 1 0 -79.9758690706
6 3 1 -1 5 0 -2.79175767314
5 1 1 -1 4 0 0.116332342335
11 0 1 1 7 -1 -999.838735688
7 1 1 1 9 -1 2.18359910035
5 7 -1 1 0 0 5.53026912491
6 4 1 1 11 0 0.913322665188
2 7 -1 -1 10 0 34.0440531691
0 6 -1 1 5 1 0.42707868097
10 9 1 1 2 1 -622.928133975
3 5 1 -1 10 0 0.000320099418781
7 8 -1 -1 11 -1 1.53164096194
3 10 -1 -1 11 -1 9.63635956632
1 9 1 1 5 -1 0.0274372311785
6 1 1 -1 4 -1 0.191835576385
7 6 -1 1 3 0 0.63177911195
6 8 1 -1 11 1 -6.38004256048
9 0 -1 -1 10 1 0.131025627028
6 11 -1 1 6 0 0.948873717928
11 10 1 1 1 1 -998.961903911
6 5 -1 -1 6 1 5.55471855599
6 5 1 -1 8 0 -12.8064962903
10 7 1 1 6 0 -365.673439897
7 4 1 1 1 -1 -66.8321605079
3 7 1 -1 7 -1 0.0507831009054
5 0 -1 1 5 -1 8.56981736961
11 7 1 -1 2 -1 -996.417848156
10 0 1 1 7 1 -414.708642997
10 7 1 -1 3 1 -92.5077801713
10 2 1 1 4 -1 14.1989964525
7 2 -1 1 5 0 1.85620344888
7 2 -1 1 4 1 2.81068726476
3 11 1 1 3 1 0.0586580064412
8 3 1 1 7 -1 2.65886391812
9 8 1 1 9 1 18.3832111482
11 11 1 1 10 1 -422.269732763
1 1 -1 1 8 -1 43.8061698063
4 7 -1 1 2 0 0.0
10 5 -1 1 3 0 0.0672445464265
6 10 -1 -1 8 -1 1.61081480145
5 10 -1 1 7 0 2.60516397302
5 10 -1 1 6 1 2.79695860021
8 9 -1 -1 11 -1 0.559648203676
6 2 -1 -1 1 -1 2.91876344463
10 3 1 -1 9 1 -636.026710747
6 5 1 1 8 0 2.65111853529
6 2 1 1 3 -1 -6.52894376155
9 10 1 1 2 1 -393.791428375
3 7 1 1 5 1 0.295299718082
9 2 -1 -1 4 1 0.499070989454
5 6 -1 1 10 -1 9.43328801797
9 11 1 -1 9 -1 5.43725930611
4 0 -1 1 2 0 13.006753984
10 4 -1 -1 8 0 0.360333559461
6 0 -1 -1 0 -1 0.0
4 9 -1 1 5 1 6.14457612191
4 9 -1 1 4 0 7.54638410849
2 10 -1 1 2 1 12.9870511767
0 0 -1 1 6 -1 58.3688531215
1 8 1 -1 5 1 0.00863792946481
9 3 -1 -1 9 -1 0.623977338467
9 6 1 1 4 1 -187.13402603
4 3 -1 -1 2 -1 12.4588065778
8 6 1 1 3 1 -93.1250073921
6 1 -1 1 10 -1 6.47104842836
7 9 1 1 4 1 -61.3626640704
4 7 1 1 9 0 0.600038806765
3 4 -1 1 1 1 49.4742754984
5 9 -1 1 3 1 4.72129603452
1 2 1 1 11 -1 0.0787129065896
2 8 -1 -1 3 -1 20.8463085121
1 3 1 1 10 -1 0.0644775425738
9 3 1 -1 10 1 -167.083070619
1 3 -1 1 5 -1 58.8372494614
6 4 -1 1 8 0 4.1871225971
5 1 -1 -1 8 -1 10.9369944067
2 6 -1 -1 3 0 61.5411262337
1 7 -1 1 3 0 173.040151449
1 10 -1 1 0 1 289.211605605
3 7 -1 -1 11 0 22.3500381861
5 10 -1 -1 11 1 3.26343917006
10 11 1 -1 10 -1 -64.3095544179
7 1 -1 1 7 -1 2.39708916831
11 4 1 -1 8 -1 -1000.0
9 1 -1 1 2 0 0.23742086938
5 3 -1 -1 4 0 14.4680660231
3 9 -1 1 6 1 35.1113317848
6 7 1 1 4 1 -20.3351873715
6 7 1 1 7 -1 1.82685820666
4 3 1 -1 7 1 0.0157577637684
6 2 1 1 3 0 -0.106571697872
5 9 -1 1 6 1 3.23997545849
5 9 -1 1 7 0 3.45548297237
5 11 1 -1 9 1 0.679836272198
0 0 -1 -1 0 -1 68.807660731
3 3 -1 -1 5 0 35.2129631809
0 3 -1 1 9 0 11.2891197644
0 3 -1 1 8 1 12.4966775601
0 7 -1 -1 11 0 53.778721332
11 11 1 1 0 0 -1000.0
4 3 -1 1 10 0 34.8555256481
2 3 -1 1 6 -1 57.2071825224
3 11 1 -1 11 1 0.149481387595
6 3 1 1 3 1 -13.0508037131
9 7 1 -1 10 0 -191.424249277
11 3 1 1 11 -1 -994.559251028
9 6 1 -1 6 -1 11.4914457984
7 8 1 1 3 1 -121.606114465
2 1 1 1 11 -1 0.141514418709
5 11 1 -1 1 1 -17.5374619082
6 3 -1 -1 7 0 7.02026030621
2 7 -1 -1 3 -1 44.0783292275
5 7 -1 1 9 -1 7.21064139514
9 5 1 -1 6 -1 6.54381128318
6 10 -1 1 11 -1 1.44210414912
0 9 -1 1 1 0 11.5872520259
1 2 -1 1 2 -1 9.3315805207
9 2 -1 1 7 -1 1.10527384488
2 7 -1 1 0 -1 30.9912521514
0 5 1 1 9 -1 0.0356548774567
7 8 -1 1 4 1 0.703771560718
7 5 -1 -1 11 -1 3.25474395377
8 10 1 1 10 0 9.81553742602
9 9 1 -1 7 1 15.6094650314
3 2 -1 -1 0 0 17.9310844747
10 10 -1 -1 8 -1 0.0
1 11 -1 1 11 0 71.2385167206
11 7 1 1 9 -1 62.500139708
0 3 -1 -1 11 1 265.945478978
5 0 -1 1 3 -1 5.99275896553
11 4 -1 -1 3 -1 0.0986508937678
3 9 1 -1 8 1 0.0925202088836
6 9 1 1 4 0 -28.5695800436
9 8 1 -1 6 1 14.5713635972
4 4 1 1 7 -1 0.729449093579
9 10 1 1 0 0 -345.850886235
5 6 -1 -1 4 1 10.6655666154
3 0 -1 -1 4 1 37.6098593314
9 1 -1 -1 0 1 0.845968916923
10 7 -1 1 9 1 0.0465489161507
5 4 -1 1 9 -1 18.3897310518
6 10 -1 1 7 1 1.11402307502
9 0 -1 1 0 -1 0.27884135549
10 10 1 -1 4 0 -687.461178729
4 7 -1 -1 4 1 15.9218444945
5 4 -1 -1 6 1 11.0572205211
9 9 -1 -1 7 0 0.278774137102
10 11 1 1 0 -1 -569.041493147
1 6 -1 1 0 -1 191.780215006
10 1 1 -1 7 -1 -601.549595408
6 4 1 -1 3 -1 0.701757818887
1 2 1 1 4 0 0.0391940418224
8 11 -1 1 10 0 0.430022975472
11 1 -1 -1 2 0 0.180883620008
9 5 1 -1 11 0 -268.969730378
4 7 -1 -1 7 -1 14.1166722205
3 2 -1 -1 5 -1 38.3711528518
0 0 1 1 4 1 0.0298539774999
4 4 -1 1 2 -1 16.348614195
8 3 -1 1 1 1 0.444830783267
7 4 1 -1 9 0 -10.9855478641
0 1 1 1 5 1 0.0369843908073
4 6 -1 1 11 1 25.886558749
11 8 -1 1 8 -1 0.0538502743793
9 11 -1 1 11 1 0.36382529545
10 6 1 1 2 1 -487.433790763
5 2 -1 1 11 1 13.238550765
5 2 -1 1 10 0 14.5182223548
6 8 -1 1 4 -1 0.770680825965
5 3 -1 1 11 0 15.6759966857
2 0 -1 -1 8 1 112.789278565
6 11 -1 1 7 0 1.23489465345
6 3 -1 -1 11 0 6.54065534877
3 4 1 1 4 -1 0.262451344552
6 8 -1 -1 7 1 2.54001053838
2 7 -1 1 3 0 166.478787958
9 0 -1 -1 3 1 0.481119756362
8 9 -1 -1 4 0 0.375331448345
3 3 -1 1 9 0 59.092995216
4 4 -1 -1 10 1 20.8047233126
3 6 -1 1 8 1 59.6460590217
7 5 1 1 0 0 -104.300206347
9 9 1 -1 11 1 -12.7561699605
7 7 1 1 10 -1 5.62099698188
6 11 1 1 6 0 -3.69264388308
1 2 -1 1 1 1 0.462246018149
0 4 -1 1 7 1 99.765306728
0 1 -1 1 3 1 324.357046673
9 9 -1 1 10 -1 0.138484590511
5 7 -1 1 10 1 8.36932617321
4 4 -1 1 8 1 29.8795263689
7 7 -1 -1 0 1 5.32907682383
4 8 1 -1 8 0 0.198649628133
3 3 -1 -1 6 -1 37.7312134859
9 9 -1 -1 5 1 0.326176274158
8 11 1 -1 4 0 -154.18578753
8 6 1 1 9 0 8.02497628008
8 10 1 -1 9 0 8.41851422383
8 6 1 1 8 1 10.5859104784
2 0 -1 1 10 1 91.6524924151
1 6 -1 1 7 1 260.7699099
2 2 1 1 8 0 0.125792801964
0 11 1 1 5 0 0.0100879532638
1 0 1 1 5 1 0.0473147936334
1 5 1 1 0 1 -0.133733471482
2 10 1 1 10 0 0.100305304496
1 0 1 1 1 1 -0.0029514046863
3 2 -1 1 10 1 48.6475501552
4 9 -1 -1 1 1 5.31618515362
9 3 1 1 3 0 -5.44133162029
6 4 -1 1 7 -1 3.55692949024
1 0 -1 1 6 -1 51.4411891602
7 3 -1 1 5 -1 1.86056815505
8 6 1 1 3 -1 -168.796324975
3 1 1 1 2 1 0.133441969943
1 2 1 1 8 0 0.0481340397638
4 8 1 1 8 1 0.556577082627
5 6 -1 1 0 0 6.70920647481
7 6 -1 1 11 0 0.0
8 6 1 -1 8 1 -142.352854359
7 7 -1 -1 11 -1 2.12385667057
10 9 -1 -1 10 1 0.243513484484
9 10 -1 1 3 0 0.237222158713
4 10 1 1 7 1 0.41103714088
7 5 1 1 4 0 -26.7749217852
5 10 -1 -1 3 0 2.17862359925
9 1 1 1 4 0 3.85336700766
9 7 1 -1 3 1 -2.76619223881
0 0 -1 1 4 1 278.41045233
10 6 1 -1 11 -1 -582.517506424
4 0 -1 -1 0 1 11.3693558901
11 9 1 -1 5 -1 -987.859388867
3 11 -1 -1 7 0 12.3773537276
2 7 1 1 10 1 0.127907920669
8 4 -1 -1 8 0 1.69922295056
0 1 -1 -1 6 1 24.166352156
6 2 1 -1 2 0 0.340539134595
8 9 -1 -1 5 0 0.621263206847
1 1 -1 -1 4 -1 174.97049378
7 4 1 1 6 -1 2.17534682651
10 0 1 -1 3 1 -214.462119116
6 5 -1 -1 5 1 5.99670270568
2 6 -1 -1 4 1 67.1158482144
2 6 1 -1 9 0 0.0
3 4 1 1 3 1 0.201444537701
4 1 1 1 1 1 0.0
8 9 -1 -1 8 0 0.366055191156
11 9 -1 1 9 0 0.0453610371121
6 5 1 -1 2 1 0.469569686432
1 4 1 1 3 1 0.0645242517534
8 8 1 -1 8 1 1.56820856588
11 1 1 -1 0 -1 54.0789260345
4 4 1 -1 7 -1 0.00270516559326
2 0 -1 1 1 1 33.418875822
8 1 -1 -1 5 -1 0.926071176294
4 3 1 1 9 -1 0.734817569305
8 1 1 -1 9 -1 -146.099081137
0 2 -1 1 3 -1 1.69953883381
8 9 1 1 3 -1 -189.95832981
4 9 1 -1 0 1 -2.5654383447
4 11 -1 -1 8 0 7.58065650052
9 10 -1 -1 10 1 0.343301031194
2 1 -1 1 10 1 41.9640393806
5 7 -1 -1 4 0 11.8488079054
9 0 1 -1 9 -1 -212.556239118
4 2 -1 -1 3 1 22.9758510746
10 5 1 -1 11 -1 -542.501738849
4 2 -1 -1 2 0 11.4952544061
3 2 -1 -1 3 1 31.6792997936
8 1 -1 -1 2 1 1.4758786413
3 9 -1 1 4 -1 17.2799861801
9 0 1 1 6 1 -83.7107996114
3 1 1 1 11 1 0.0
9 4 1 -1 2 1 6.91423561125
6 0 1 -1 10 0 -0.174587626899
6 2 -1 -1 0 0 3.78611048193
6 0 1 -1 11 1 0.00110705423678
7 11 -1 1 3 -1 0.581939340141
2 7 -1 1 9 0 104.995184928
6 8 1 1 0 0 -44.3505872344
4 3 1 1 5 0 0.263455126706
0 7 -1 1 10 0 578.965734782
4 7 -1 -1 1 0 14.470551564
7 7 1 -1 10 -1 -12.5143670797
8 1 1 -1 4 0 -27.0299328849
0 2 1 1 2 1 0.0233623942906
9 9 1 -1 1 1 -192.563379696
7 7 1 1 5 1 -1.61834773824
6 4 1 -1 0 0 0.276116406283
5 9 1 1 6 -1 -4.3466577609
6 4 1 -1 1 1 0.865722048216
3 8 1 1 8 -1 0.242367342609
3 3 -1 -1 10 0 42.5042517871
3 10 1 1 2 0 -4.27520878682
4 10 -1 -1 1 0 3.17842382772
8 8 1 -1 4 -1 -17.283348498
0 3 -1 -1 0 -1 159.327156626
3 8 1 -1 7 1 0.0598945861668
3 9 1 1 9 0 0.250768240567
11 5 -1 1 1 -1 0.0579799093791
3 9 1 1 8 1 0.254521780588
8 2 1 1 10 0 -12.8638464378
7 4 -1 -1 6 1 3.3988767887
9 1 1 1 8 0 -162.851641276
0 9 -1 -1 5 0 2.51807180437
4 3 -1 -1 0 1 10.2325764777
5 0 -1 -1 2 1 10.6642924949
1 7 1 1 5 0 0.0366757220759
0 5 -1 1 11 0 455.635302575
0 8 1 1 6 1 0.0209163419512
1 11 1 1 8 1 0.0320585402686
8 5 1 1 9 -1 7.46218546735
9 3 -1 1 6 -1 0.738429626796
7 0 1 -1 8 0 -0.0305676437799
1 9 -1 1 7 -1 273.82374373
7 8 1 1 4 -1 -106.117192679
3 3 1 1 4 0 0.28127486122
1 3 1 1 3 0 0.0597973043488
1 2 1 1 2 0 0.0141161298826
4 4 1 -1 11 -1 -0.00114032601147
1 2 1 1 3 1 0.0248580144865
0 4 -1 -1 7 1 202.539613651
4 9 1 1 10 0 0.577087556651
7 5 -1 1 8 0 0.0
7 0 -1 1 11 0 3.57080366087
0 2 -1 -1 3 0 135.859480155
6 5 -1 1 5 1 3.39436278652
2 3 1 1 8 -1 0.102750922366
9 11 1 1 2 0 -289.952757144
2 6 1 -1 10 -1 0.0
0 10 -1 1 10 1 765.242635883
9 9 1 -1 0 0 -387.182841953
8 11 -1 -1 2 0 0.540820927757
5 11 1 -1 2 -1 -10.9690022147
5 10 1 -1 3 -1 -0.8864078333
11 8 1 -1 0 1 -755.266546844
2 6 1 1 1 1 -2.35435426372
4 10 -1 1 2 -1 3.63582513553
0 3 1 1 6 0 0.0231997975495
0 1 -1 -1 0 1 96.4796939236
0 1 -1 -1 1 0 29.958575961
8 1 -1 -1 2 -1 1.25348366763
8 2 1 1 5 1 2.1367255334
11 7 1 -1 5 -1 -758.907358465
4 5 1 1 3 0 -6.92124482304
11 7 1 1 0 1 -462.189371211
5 2 -1 -1 10 -1 15.5052842929
7 1 1 1 5 -1 0.669239887956
4 1 1 -1 10 -1 0.0
7 7 1 -1 6 -1 2.46189348733
2 11 1 1 7 0 0.0646272838889
7 1 1 -1 6 1 0.396297395315
10 9 -1 1 2 0 0.0
10 11 1 1 1 0 -627.052597327
6 11 1 -1 7 0 0.729853073181
2 8 -1 -1 5 1 18.4936603987
6 11 1 -1 6 1 -3.74953106829
3 2 1 1 6 1 0.237290126092
3 8 1 1 4 -1 -1.43958384593
3 2 1 1 7 0 0.219025925861
6 0 -1 -1 1 -1 4.58309681108
8 5 -1 -1 4 0 2.05781785736
10 3 1 1 0 -1 -287.853252907
8 10 1 -1 0 -1 -178.328093934
10 0 -1 -1 7 0 0.711013587045
3 2 -1 -1 9 1 53.2142282479
8 9 -1 1 5 0 0.341436049498
8 11 -1 -1 5 1 0.65632365949
8 11 1 -1 2 0 -165.765263056
3 4 -1 1 2 1 73.925616864
9 3 1 -1 2 0 6.92904417858
6 4 -1 -1 10 0 7.27563904587
8 3 1 1 6 -1 2.33534633299
4 3 1 -1 5 0 0.042080779822
10 8 -1 -1 8 -1 0.163776288681
1 9 1 -1 6 -1 0.0169255506135
9 8 -1 -1 3 0 0.0
3 10 -1 -1 2 0 4.66041989074
11 8 1 1 9 1 65.285349925
7 7 1 1 2 -1 -120.768646816
3 10 1 1 3 -1 -1.10530831261
8 3 1 -1 9 1 -65.5606976166
9 10 1 1 8 -1 -316.002011511
3 11 -1 1 10 0 12.5067389743
9 9 -1 1 5 0 0.124114085387
2 5 -1 -1 0 1 33.5061614975
9 6 1 -1 10 1 -281.443784776
9 10 1 -1 7 1 -17.2072309766
7 8 -1 -1 0 1 0.0
5 2 1 -1 2 0 0.189808543312
4 3 1 1 10 0 0.486865965318
7 3 -1 -1 7 0 3.17394817613
4 3 1 1 1 -1 -8.82693500413
3 6 -1 -1 8 0 34.2251793427
9 5 1 1 0 0 -269.931472129
4 3 -1 -1 10 0 24.4318116229
9 2 -1 -1 8 1 0.892762529109
9 2 -1 -1 9 0 0.84229593662
11 5 -1 -1 4 1 0.174186626611
1 8 1 1 2 0 -0.059030992829
11 10 1 -1 1 0 -957.677171602
10 10 1 -1 3 0 -566.685414408
7 7 -1 -1 9 0 1.88305472308
8 1 1 1 1 -1 0.693078557717
7 2 -1 -1 2 -1 1.75485891397
3 10 1 1 9 -1 0.205345092838
9 7 1 1 5 -1 -237.579553575
8 3 1 1 1 0 -62.885568934
0 6 -1 1 3 1 0.00802116060852
7 10 1 1 11 1 4.82729598388
6 2 -1 -1 5 1 5.23464400455
9 3 1 -1 11 1 -114.792581759
0 10 1 1 1 1 0.0084696832044
8 0 1 -1 9 1 -32.1115488568
9 7 1 -1 6 1 13.9899978783
6 3 1 -1 11 -1 -9.16490035326
2 5 1 -1 8 -1 0.00679972354966
4 4 1 -1 1 0 0.0
7 1 1 1 2 1 0.414375903019
0 5 1 1 10 -1 0.0294676506619
1 5 1 1 8 1 0.0635227642217
3 7 -1 -1 6 1 24.769888238
9 6 1 1 5 -1 -142.554799311
11 6 1 1 9 -1 -108.3313081
7 5 -1 -1 6 -1 2.98468046252
6 11 1 -1 10 1 1.76062975949
9 4 -1 -1 0 -1 0.0
10 2 1 1 1 0 10.9250780382
5 0 -1 -1 9 -1 8.34408766459
4 10 1 -1 7 -1 0.300389762491
6 9 -1 1 6 0 1.8418153831
0 2 -1 1 9 -1 56.0202183489
1 5 1 1 1 0 -1.00167377597
5 8 1 -1 11 1 -5.29111447788
5 4 -1 1 6 0 9.9516350316
3 2 -1 -1 2 1 41.8261405222
4 7 -1 1 4 0 10.9804172248
6 3 -1 1 11 0 9.44641492657
0 7 -1 -1 7 0 18.2152850711
5 3 1 1 11 -1 1.02760982445
7 11 1 1 10 0 4.3345747298
7 1 -1 -1 0 -1 0.0
5 1 -1 1 2 0 5.93438206572
5 6 1 -1 8 0 -3.55779967151
7 6 1 -1 3 0 0.0
0 11 1 -1 0 -1 0.000261738417182
6 1 1 -1 1 0 0.293309535662
0 0 1 1 11 -1 0.017811392197
3 9 -1 1 10 -1 18.6045133075
2 6 -1 1 4 -1 138.166177916
4 9 1 -1 6 0 0.259021491509
11 4 1 -1 4 1 -27.3209546154
5 3 1 1 6 1 1.09615837018
5 0 -1 1 0 0 4.43665579958
10 6 -1 1 3 1 0.0823525478126
9 9 -1 1 9 0 0.15340547369
8 11 -1 1 4 0 0.37448371891
3 9 -1 -1 1 1 1.99922773647
8 10 -1 -1 0 1 0.0
5 8 1 1 1 0 -23.2359991337
4 9 1 -1 10 -1 0.145720406041
2 9 1 1 0 -1 -2.35040177737
8 10 -1 1 7 -1 0.31231667011
11 0 1 1 2 0 -983.789235834
2 2 -1 -1 10 0 90.3536870678
2 4 -1 1 10 -1 136.223859616
8 5 1 1 0 1 -128.555323661
1 3 1 1 6 1 0.067132799718
9 6 -1 -1 7 -1 0.775612574797
11 1 -1 -1 1 -1 0.108720437932
11 11 -1 -1 10 1 0.10188161984
4 5 1 -1 6 -1 0.0656468981201
5 6 1 -1 4 -1 0.288276917693
2 4 1 1 10 1 0.130771477919
8 3 -1 -1 3 -1 1.72215452703
0 3 -1 -1 6 -1 380.541850778
11 9 1 -1 1 0 -998.708493464
7 0 1 1 11 0 -5.07949227218
3 4 -1 -1 7 0 32.8453883664
2 5 1 1 10 -1 0.145819725363
3 1 1 1 4 -1 0.0432396623957
4 2 -1 -1 4 -1 23.3540433323
11 9 1 1 2 -1 -997.939589675
11 5 -1 1 3 -1 0.0552727675591
6 11 -1 -1 8 0 1.24848837215
5 8 1 -1 5 1 0.441467957894
1 10 -1 1 6 1 186.491879132
3 9 1 -1 5 0 0.108954578728
6 9 1 1 9 1 2.47225507499
4 6 -1 1 6 1 15.9878936813
2 6 -1 1 10 0 157.359795017
4 6 -1 1 7 0 16.5758556524
2 4 -1 1 4 1 86.5179137878
5 7 1 1 9 1 1.33803034677
8 1 1 -1 2 0 1.39516097696
5 8 -1 1 9 -1 0.0
0 7 -1 -1 8 -1 113.125886809
6 8 -1 -1 4 1 3.34070444026
3 0 -1 -1 9 0 54.5283722049
1 6 1 1 7 1 0.0502674875029
9 3 -1 -1 6 -1 0.812762242666
1 1 -1 1 6 1 44.1520537616
6 2 -1 1 8 0 4.89701267544
2 3 -1 1 6 0 48.0088571897
0 7 -1 1 3 1 447.870424625
7 9 -1 -1 4 1 1.30257544096
8 11 1 1 7 -1 -174.897661288
9 11 1 1 10 1 17.7128216051
11 10 1 -1 11 0 62.7841370971
1 8 1 1 3 -1 -0.0473047143929
3 11 1 -1 6 -1 0.130403893848
0 11 1 1 1 -1 -0.009104484564
11 8 -1 -1 7 1 0.102793385257
9 8 -1 1 6 -1 0.126030813836
7 5 1 1 7 1 4.85833706631
7 6 1 1 0 1 -103.735839823
1 7 -1 -1 5 -1 68.1987624329
9 2 1 1 2 1 4.4299755689
5 4 -1 1 10 0 11.546813249
1 7 -1 1 6 1 213.854178812
0 2 -1 -1 5 -1 118.837156611
2 6 1 -1 8 1 0.0
3 7 1 -1 8 -1 0.0465243066362
0 10 -1 1 8 1 447.070800531
4 9 -1 1 11 0 8.36562013156
8 8 -1 1 4 0 0.190900886083
8 9 1 1 10 1 10.1777530487
5 9 1 -1 6 1 0.523795716493
6 11 -1 -1 0 -1 0.960772370983
4 10 1 -1 8 1 0.236928661508
0 7 -1 -1 2 1 76.9817394548
8 8 1 -1 1 -1 -183.060034556
9 11 1 -1 3 -1 -295.837619858
6 9 -1 -1 7 1 1.70071634409
1 1 1 1 6 -1 0.0624264854373
2 5 -1 1 0 1 23.5982948057
2 10 1 1 0 -1 -2.69537843378
1 0 1 1 2 0 0.0332294234429
10 3 -1 -1 9 -1 0.612721889207
5 11 -1 1 1 0 1.7596960279
6 11 1 -1 0 1 -44.4330741578
1 11 -1 -1 0 1 0.991363459065
3 2 1 1 1 0 -0.488029003975
4 0 -1 -1 11 -1 19.51817531
3 7 1 1 10 -1 0.234959733721
11 7 1 -1 10 1 -815.153898484
3 10 1 -1 5 -1 0.0714657733849
0 10 1 1 2 -1 -0.0264837483098
3 11 -1 1 3 0 7.82631963275
10 7 1 1 8 -1 26.68621847
4 0 -1 1 4 1 16.6329499816
7 3 -1 1 0 0 0.942470014498
1 3 -1 -1 11 0 141.423577954
3 10 1 1 10 1 0.250981103236
11 4 -1 1 1 1 0.0758505408264
6 1 1 1 11 0 0.0
9 5 -1 1 1 0 0.128703602507
1 10 -1 1 10 1 143.760437047
0 1 -1 1 8 -1 139.722857884
7 7 1 -1 0 -1 -58.7564233728
10 11 1 -1 0 -1 -612.44795185
7 6 1 1 9 -1 5.04532009395
8 5 1 -1 11 0 -62.6247067215
11 7 1 -1 4 0 -991.291666796
10 0 -1 -1 6 -1 0.550320119177
11 1 -1 1 0 0 0.0451999624093
1 8 1 1 10 1 0.0571764438148
8 9 -1 1 11 -1 0.241058593744
9 10 -1 1 9 -1 0.20206569088
2 11 -1 -1 3 1 17.9250700895
5 2 1 -1 4 0 0.100002082064
9 10 1 -1 4 -1 -263.99551853
9 2 1 1 4 -1 1.44601792074
4 2 1 1 5 0 0.217682698099
4 9 1 1 6 -1 0.276324693798
8 3 1 -1 10 -1 -36.4375364463
2 3 -1 -1 8 0 86.8234941057
10 2 1 -1 2 0 6.85935267195
8 5 -1 1 5 -1 0.485672011628
5 7 1 -1 5 1 0.477558382499
7 4 1 1 1 1 -22.8356813152
9 7 1 1 8 1 19.2783094035
2 0 -1 1 3 0 31.4249424137
7 1 1 1 10 0 -0.00280432167794
7 0 -1 1 4 1 2.16476278678
4 6 -1 1 9 -1 25.7624539679
9 11 1 1 4 0 -356.568378297
6 0 1 1 7 1 0.0
3 4 -1 1 11 0 71.3735391819
8 3 -1 -1 10 1 1.42850367523
3 9 -1 1 7 -1 26.9691997014
11 8 1 -1 1 -1 -989.058711174
8 0 1 1 6 -1 -3.32263887667
2 8 1 1 8 0 0.123005077788
7 11 -1 1 0 -1 0.584191918416
3 2 1 1 5 -1 0.0387200009812
10 5 -1 -1 6 -1 0.328581650209
2 8 -1 -1 6 -1 23.6897432205
11 9 1 -1 9 1 37.5995309308
7 11 -1 -1 11 1 0.995856731644
8 2 1 -1 8 -1 -15.6835735822
0 6 -1 1 10 0 668.054153617
7 11 1 1 3 -1 -93.6004232304
4 10 1 -1 2 -1 -4.73462759691
1 8 -1 1 11 -1 303.578204404
0 6 -1 1 9 0 252.710991461
6 8 -1 1 3 1 0.907318027033
9 11 1 -1 6 1 -357.323899245
11 8 -1 1 6 0 0.0456258292654
4 0 1 -1 9 0 0.0
4 6 1 -1 2 1 0.0562757960596
11 6 -1 -1 10 0 0.370017187019
9 4 1 1 5 0 9.03393221458
7 10 1 -1 7 0 2.96333244548
7 7 -1 1 2 -1 0.364838713428
4 8 1 1 1 -1 -12.2517944053
5 0 -1 1 9 -1 9.16220883461
10 9 1 -1 11 -1 27.5746794897
0 0 -1 -1 2 -1 5.95365966104
10 4 1 1 4 1 18.4818806896
11 0 1 -1 8 1 -1000.0
0 9 1 1 7 1 0.0207573636825
5 2 1 -1 5 0 0.0719760785268
10 7 1 1 1 1 -611.153584824
10 10 1 -1 11 0 33.9296086078
6 11 -1 -1 6 -1 1.23156431746
9 0 1 1 11 0 -242.266004755
11 8 1 -1 3 0 -897.707141043
10 0 1 1 8 -1 -496.369987175
9 5 1 1 10 -1 -85.6794251433
3 6 1 1 9 0 0.30779498127
2 5 1 1 1 0 -2.33058521142
10 3 1 1 6 -1 12.6186262713
8 8 1 -1 10 0 -130.65667587
3 1 -1 1 10 -1 23.6992668067
5 8 1 1 8 1 1.23600018767
2 6 -1 1 3 0 95.0829378322
6 1 1 -1 11 1 -3.5837412178
8 3 -1 -1 9 1 1.67395482393
7 7 1 1 9 1 5.39038881582
2 6 -1 1 6 1 94.401819346
9 8 -1 -1 3 1 0.0
1 1 -1 1 1 1 0.0
7 11 1 -1 9 0 4.52684927042
7 10 1 -1 3 -1 -94.8811814235
2 10 -1 -1 11 1 18.2435522404
4 4 1 -1 6 0 0.0334826532323
3 1 -1 -1 0 -1 0.0
7 11 1 1 0 -1 -80.2410373997
3 7 -1 1 4 0 47.752807286
5 11 -1 -1 9 -1 2.63818202578
9 4 1 1 8 -1 9.10916245024
10 3 1 -1 7 1 -558.618016876
2 1 -1 -1 8 1 98.7447615982
4 5 -1 -1 4 -1 23.9729101672
1 11 -1 1 5 1 105.789036919
6 2 1 1 5 -1 0.0
1 7 1 1 9 0 0.0608662649535
10 11 -1 1 5 0 0.269634041343
9 2 -1 -1 1 -1 0.739502773802
9 9 1 1 3 1 -310.738088198
11 9 1 1 0 -1 -995.807127883
10 6 1 -1 10 0 -428.731668164
5 1 1 -1 4 1 0.139097789737
4 2 1 -1 6 1 0.0688186387868
9 8 1 1 2 -1 -340.652082448
5 7 -1 1 0 1 6.69127191118
2 11 1 1 8 1 0.0565139487319
2 7 -1 -1 10 1 47.5287969329
1 8 -1 1 7 -1 184.39783285
0 6 -1 1 5 0 57.2298670403
6 3 -1 1 3 0 3.84624109679
4 0 -1 -1 5 0 13.6662380417
3 5 1 -1 10 1 0.00038779033369
9 7 -1 -1 6 -1 0.69186900001
5 11 -1 1 5 0 2.31175804945
1 8 -1 -1 4 1 18.5942230384
2 7 1 -1 11 0 0.0
7 6 -1 1 3 1 0.773119443144
7 6 -1 1 2 0 0.501506817686
0 4 -1 1 8 0 169.529213294
11 3 -1 -1 6 -1 0.282282990119
10 4 1 1 8 1 -12.4414886188
8 1 -1 -1 0 0 0.531114760149
7 8 -1 -1 1 0 0.0
8 3 -1 -1 2 0 1.88553277907
4 4 -1 -1 3 0 21.2173253597
9 11 -1 -1 8 -1 0.0
2 4 -1 -1 2 1 76.3698103478
8 8 -1 1 9 -1 0.0
5 3 -1 -1 1 -1 6.64702155453
7 2 -1 1 5 1 1.81744888791
8 6 1 1 5 -1 -160.88203883
7 2 -1 1 4 0 2.51593704518
5 1 1 1 7 0 0.758457234082
6 7 1 -1 8 1 -2.68479009456
11 11 1 1 10 0 -830.575952283
3 0 -1 1 5 1 19.1442867661
10 10 1 1 1 -1 -510.635330172
9 1 -1 -1 6 0 0.635473920388
10 5 -1 1 3 1 0.115231004779
2 10 1 1 6 -1 0.0551958449911
9 9 -1 1 2 -1 0.205153015925
5 10 -1 1 6 0 2.79580474252
10 0 -1 1 5 1 0.567926681272
2 8 -1 -1 4 1 18.7311782296
1 7 -1 -1 7 0 60.5820071187
2 1 -1 -1 10 -1 108.493139081
7 6 -1 -1 4 0 2.35838121975
1 8 -1 -1 1 1 9.12566730205
1 11 -1 -1 10 1 66.415192997
4 0 -1 1 2 1 8.67412334746
5 2 -1 -1 0 0 5.1296455504
10 1 -1 1 5 1 0.0
2 6 1 1 8 -1 0.118027126552
5 8 -1 1 11 -1 0.0
0 0 -1 1 7 -1 538.406274674
11 5 -1 -1 3 0 0.224545291706
6 0 -1 1 2 1 5.38390514338
1 2 -1 -1 1 1 145.750478278
9 11 1 1 8 1 -6.4061275338
11 2 1 -1 4 1 -925.805184338
10 9 -1 -1 9 -1 0.127984446431
5 8 1 1 10 -1 1.09531400197
7 9 1 1 4 0 -85.9213352311
10 9 -1 1 5 -1 0.0807189445779
6 3 -1 -1 10 0 6.52393139649
3 7 -1 1 0 -1 17.3327283649
6 4 -1 1 8 1 7.88584673791
10 11 -1 1 6 1 0.150984287801
2 6 -1 -1 3 1 69.5354291232
10 6 -1 -1 6 1 0.409419679729
6 6 1 -1 7 1 -2.79853895788
1 10 -1 1 0 0 81.3206958378
2 11 -1 -1 9 1 25.8927454886
3 7 -1 -1 11 1 36.5382282735
2 5 -1 1 9 0 162.398615855
5 10 -1 -1 11 0 3.05914598493
0 8 -1 -1 1 -1 0.0577929065264
9 1 -1 1 2 1 0.307910744919
0 5 -1 1 6 -1 166.643502165
8 5 -1 1 3 -1 0.381970789721
1 6 -1 1 4 -1 304.82444443
3 3 -1 -1 3 -1 39.642303337
1 11 1 1 1 1 0.0141456425689
10 0 1 -1 11 1 -568.97528649
2 11 -1 -1 5 0 19.9229153116
4 8 1 -1 7 0 0.145338481397
0 3 -1 1 9 1 18.0698806196
0 3 -1 1 8 0 83.0203376519
8 6 1 -1 4 -1 2.93531700176
9 7 -1 1 1 -1 0.126273675191
3 9 -1 1 8 0 24.4515655565
6 11 -1 -1 2 0 1.12247333069
3 11 1 -1 11 0 0.157348228087
10 3 -1 -1 7 1 0.472430138841
9 7 1 -1 10 1 -247.599458934
8 3 1 1 2 -1 -27.2359359184
7 8 1 1 3 0 -106.246887137
1 1 1 1 5 0 0.0590468932018
1 0 1 1 9 1 0.0572888221561
5 0 1 1 3 1 0.0
2 5 1 1 11 1 0.103913550636
0 5 -1 -1 10 0 347.295874075
3 6 -1 1 3 -1 54.8604623644
1 6 1 1 0 1 -0.578486618243
9 1 -1 -1 10 -1 1.11547568514
2 1 1 1 4 0 0.0
8 7 -1 1 4 -1 0.220949124369
10 7 -1 -1 9 1 0.283047038289
11 1 1 -1 8 0 -922.498400802
7 8 -1 1 4 0 0.572193359312
5 7 1 1 5 -1 -20.8263266254
9 9 1 -1 7 0 11.6704105839
8 11 1 -1 9 -1 5.33745060457
6 7 -1 -1 6 -1 3.89044343767
4 2 -1 1 6 -1 14.0965179173
0 5 1 1 8 0 0.0355539221023
0 3 -1 -1 11 0 391.884477825
8 3 -1 1 2 -1 0.535959227147
6 9 1 1 4 1 -11.0815858097
1 9 -1 -1 1 0 0.039683802785
8 10 -1 -1 5 0 0.972849204857
8 11 -1 -1 9 1 0.480080596929
5 8 -1 1 4 -1 7.06451484154
2 6 -1 1 8 -1 101.677255413
3 9 -1 -1 0 1 1.07041423867
9 7 1 1 6 1 -5.80471236619
9 1 -1 -1 0 0 0.0
3 8 -1 -1 1 0 4.82867597845
7 9 -1 -1 10 -1 0.849377595498
0 10 1 -1 6 1 0.0125942008126
3 8 -1 1 0 -1 19.648056261
9 9 -1 1 4 -1 0.136198980654
6 10 -1 1 7 0 1.34107511592
5 4 -1 -1 5 -1 11.2179832445
10 10 1 -1 4 1 -671.258942314
6 8 1 1 7 0 1.75067303446
6 2 -1 -1 7 -1 5.36636651476
9 9 -1 -1 7 1 0.310763876982
1 6 -1 1 8 1 297.219999487
1 2 1 1 4 1 0.059862179704
9 2 1 1 1 1 5.04943380502
7 9 -1 1 11 0 0.0
4 2 -1 -1 5 -1 23.8226115039
9 1 -1 1 3 -1 0.357865548415
5 9 1 -1 4 0 0.448289137671
6 6 1 1 7 0 2.49118025768
0 0 -1 1 0 -1 462.820364173
9 10 1 1 6 0 -280.060466717
5 11 1 1 9 1 0.966274790539
4 9 -1 -1 3 1 9.94415466937
6 10 1 1 10 1 2.32335917888
4 6 -1 1 11 0 22.4110319453
1 11 -1 1 6 -1 69.8110581153
9 11 -1 1 11 0 0.381765608989
8 5 -1 -1 11 0 1.84447268148
10 6 1 1 2 0 -288.806813168
8 10 -1 1 9 1 0.368827525629
11 2 1 1 4 0 -999.860336868
5 4 1 -1 4 0 0.167920972925
8 5 1 -1 6 -1 4.01148396964
6 6 1 -1 1 1 0.0
8 5 1 1 10 -1 -22.385075965
10 3 1 1 10 -1 -468.942793595
11 11 1 -1 6 1 -1000.0
3 4 -1 -1 10 0 37.9156854432
9 0 -1 -1 3 0 0.38084445859
1 10 1 -1 2 1 0.0198587417778
8 9 -1 -1 4 1 0.487030242798
4 10 1 1 1 -1 -6.63839130189
4 4 -1 -1 10 0 23.3284324643
10 8 -1 -1 10 1 0.294486817628
11 7 -1 -1 8 1 0.20733233632
6 11 1 -1 5 -1 -4.3836343072
4 1 -1 1 2 -1 0.0
9 9 1 -1 11 0 -7.40863485634
0 4 -1 -1 2 1 455.880372451
9 6 -1 1 7 -1 0.191710296343
6 9 -1 1 10 0 0.0
1 7 -1 1 7 1 281.99781963
7 8 1 1 9 1 5.39954136197
6 11 1 1 6 1 -3.323490683
11 0 -1 -1 0 0 0.065779179783
4 11 1 -1 4 1 0.118833897386
3 11 -1 1 1 1 6.86206488793
7 7 -1 -1 1 1 0.0
3 3 -1 1 7 1 44.0242919371
0 9 -1 -1 7 -1 5.23875932857
6 2 1 -1 5 1 -1.35970915794
6 10 -1 -1 9 0 1.26498074326
4 5 -1 1 4 -1 31.3714759082
8 6 1 1 9 1 1.09701329824
8 6 1 1 8 0 9.39334574544
0 3 1 1 4 -1 0.0286935987443
8 4 1 1 9 0 0.0
7 2 -1 -1 0 0 0.0
5 2 -1 -1 9 0 13.4161937505
1 5 1 1 0 0 -0.8278021771
11 11 1 -1 7 1 -1000.0
1 7 -1 -1 0 1 27.382687822
9 2 1 1 9 -1 -72.110762722
4 9 -1 -1 1 0 3.26364625038
3 8 1 1 5 1 0.211333403286
3 11 1 -1 2 0 -0.141953104656
9 3 1 -1 5 -1 -148.560509169
3 11 1 -1 3 1 0.0032109500723
3 1 1 1 2 0 0.0
8 0 1 -1 3 1 -1.22927499461
1 2 1 1 8 1 0.0476645353208
9 5 1 1 9 -1 20.319390136
3 5 1 -1 11 -1 0.0
1 3 -1 -1 7 0 99.5422277875
1 3 -1 -1 6 1 147.567880485
9 6 1 1 7 -1 -0.419689750871
7 3 1 -1 10 0 -5.09170539887
9 10 1 1 10 0 16.4887866746
11 2 1 -1 2 1 -904.058005392
4 2 1 1 3 0 -0.990867482533
7 1 -1 1 4 0 1.46883972571
4 2 1 1 2 1 0.101527165024
4 0 -1 -1 0 0 9.25416187698
5 0 1 1 4 1 0.613944655001
3 11 -1 -1 7 1 8.93870140409
2 4 -1 1 7 1 96.1646267252
10 2 1 1 4 0 -349.915367633
1 1 -1 -1 5 0 196.797564598
11 2 1 1 8 0 -988.011509545
5 2 -1 -1 10 0 17.6986097623
8 9 -1 1 7 -1 0.239635146184
10 0 1 -1 3 0 -285.094510003
10 5 1 -1 6 1 -95.7707791757
2 6 -1 -1 4 0 67.3602626869
10 0 -1 -1 5 -1 0.475584305325
0 3 -1 -1 2 0 37.1349437583
3 4 1 1 3 0 -0.53228763944
11 6 1 -1 4 1 60.2359530051
8 9 -1 -1 8 1 0.430778889645
10 8 -1 -1 6 1 0.183385920761
3 7 -1 -1 1 1 16.7056026422
3 10 1 1 7 -1 0.14899150747
1 6 -1 -1 6 0 99.5879582998
2 3 -1 -1 4 0 71.7762923782
8 0 1 1 4 -1 2.05559492534
4 11 -1 1 3 -1 3.63324367489
10 1 1 -1 0 1 19.849164447
5 9 1 -1 0 0 -4.21227176967
5 8 1 -1 9 -1 0.301077591852
4 9 1 -1 0 0 -2.34726874587
7 7 1 -1 4 0 1.32007358581
10 10 1 1 1 0 -404.739913314
10 9 1 1 3 1 -611.611054118
4 11 -1 -1 8 1 5.82754299083
2 1 -1 1 10 0 42.5949865174
1 4 -1 1 8 0 143.305707282
11 4 1 -1 1 -1 -915.176484049
6 10 -1 -1 5 0 1.88272437954
3 2 -1 -1 3 0 36.8615196987
6 0 1 -1 8 -1 -0.528394150034
6 1 1 -1 5 -1 0.187695961946
3 10 -1 1 7 -1 26.9598399109
11 5 1 1 11 -1 -1000.0
4 10 -1 -1 4 -1 4.69723012891
2 9 -1 -1 5 1 8.70896604634
4 10 -1 1 1 1 5.33710776781
6 0 1 -1 10 1 -4.3541535749
3 10 -1 -1 4 1 6.98209206429
8 9 1 -1 0 1 -59.9246776763
11 4 1 -1 2 0 39.2062615772
1 10 1 -1 4 1 0.0273093435749
10 9 1 1 1 -1 -372.399702675
4 8 1 -1 9 -1 0.252056010636
7 0 -1 1 8 1 2.92190774019
8 1 1 -1 11 0 -104.358041752
4 11 -1 1 1 1 4.84933548178
9 11 -1 1 3 1 0.345571492691
9 9 1 -1 1 0 -116.574067116
2 11 -1 -1 7 -1 24.3316629461
6 4 1 -1 0 1 0.484861832236
0 0 -1 1 1 1 729.188180765
6 4 1 -1 1 0 0.0
0 4 1 1 7 0 0.0318423998609
7 8 1 -1 2 -1 -99.4950536209
6 7 -1 1 8 -1 3.61672220852
8 9 -1 -1 10 -1 0.529491362475
3 9 1 1 9 1 0.238227582137
4 10 -1 1 6 -1 6.60342879548
3 9 1 1 8 0 0.261920952189
3 10 1 1 11 -1 0.207952515163
0 7 -1 -1 1 1 42.5692388269
8 2 -1 1 3 0 0.770755798425
3 1 1 -1 7 1 0.0
6 2 1 1 11 -1 1.19777911365
7 9 -1 1 1 -1 0.3212146181
1 7 1 1 5 1 0.0462262535932
0 1 1 1 0 0 -0.0238757883856
0 4 -1 1 6 1 183.804455789
0 1 1 1 1 1 0.0186018911165
7 4 1 1 8 -1 3.00632292095
2 4 1 1 3 0 0.00529243887224
0 8 1 1 6 0 0.0204801580315
1 11 1 1 8 0 0.0312499912094
7 3 -1 -1 5 1 2.72191882674
6 3 -1 -1 0 -1 0.0
5 2 -1 1 2 1 13.1223683825
3 5 1 -1 9 1 0.0
4 9 1 -1 1 -1 -1.15847065951
7 6 -1 1 6 -1 1.55342616776
10 1 1 1 5 1 -133.474439981
1 3 1 1 3 1 0.063564774042
6 4 1 -1 2 -1 0.491144139882
3 11 1 -1 1 -1 -0.57868275652
1 2 1 1 3 0 0.0481651336847
2 11 1 -1 2 -1 0.022618965245
4 9 1 1 10 1 0.539991706873
3 2 1 1 2 0 -0.127134108929
6 9 1 -1 0 1 -11.5121387283
0 2 -1 -1 3 1 380.620723665
7 3 1 -1 1 1 1.4289424182
1 1 -1 -1 1 1 72.0598025669
3 11 -1 1 8 0 10.840571291
9 11 1 1 1 0 -348.446207567
2 1 1 1 4 -1 0.0139509426235
1 10 1 -1 6 -1 0.0206559105763
7 11 -1 -1 5 -1 0.93352063851
8 9 1 -1 2 -1 -68.6519161225
6 2 -1 -1 8 0 6.63637827206
4 10 -1 1 3 -1 6.54844586973
11 8 1 1 1 0 -998.749681571
6 6 -1 1 9 0 0.0
5 2 -1 -1 4 0 10.8394438993
0 3 1 1 6 1 0.0352222584561
4 10 -1 -1 8 -1 5.33924170908
5 3 -1 -1 3 -1 8.91965419898
10 8 1 1 3 1 -480.674902031
11 7 1 1 0 0 -980.050728981
10 0 -1 -1 3 -1 0.326067870172
0 6 1 1 0 -1 -0.0232708969736
9 6 1 1 6 0 -151.058649134
7 7 -1 -1 3 -1 0.27433508912
2 3 1 1 0 1 -2.06845123409
7 4 -1 -1 11 0 3.81134038851
4 11 1 -1 6 -1 0.26379994569
2 1 -1 1 0 1 15.6642612617
2 2 1 1 2 -1 -0.023767880028
11 0 1 -1 5 -1 -940.711319258
4 0 -1 1 5 -1 11.0017792217
5 3 -1 1 7 -1 15.1099845851
8 0 -1 1 7 -1 1.38329612056
6 11 1 -1 7 1 1.68804719394
10 11 1 1 2 0 -507.144312505
6 11 1 -1 6 0 1.32184608006
11 7 -1 -1 10 -1 0.254855773934
9 2 1 1 8 0 -18.117613284
4 7 1 1 3 -1 -10.5242341866
3 10 1 -1 2 -1 0.0
8 9 -1 -1 6 -1 0.700773178771
8 5 -1 -1 4 1 2.27067024406
4 8 -1 -1 3 0 12.0908856962
3 4 1 1 10 0 0.325467234775
10 0 -1 -1 7 1 0.196185186914
4 6 -1 -1 1 0 12.8978909399
3 2 -1 -1 9 0 49.5178172767
0 9 1 1 5 1 0.0155849475135
2 7 1 -1 9 1 0.00139543844856
2 7 1 -1 4 0 0.0
6 1 1 1 9 0 0.0
0 6 -1 -1 1 1 117.742269169
3 4 -1 1 2 0 44.7942668122
5 7 -1 1 8 0 11.0284290289
3 6 1 -1 7 0 0.0210759504725
1 8 1 -1 9 0 0.0
10 6 1 1 11 1 -162.890552136
3 11 -1 -1 5 -1 9.35297101055
7 3 1 -1 9 1 -19.8247710648
3 10 -1 -1 2 1 6.63151047193
11 8 1 1 9 0 73.6925682636
5 10 1 -1 7 0 0.603599660426
5 11 -1 -1 1 1 2.09481478158
5 8 1 1 10 0 1.19115451089
3 11 -1 1 10 1 17.428726647
4 6 1 -1 3 0 0.0
1 0 -1 -1 8 -1 195.863044823
8 4 -1 1 2 -1 0.326971803313
9 6 1 -1 10 0 -300.110817081
3 2 -1 1 6 -1 22.3993684832
3 10 1 -1 9 0 0.106878304269
8 4 -1 -1 7 -1 1.73945382613
7 3 -1 -1 7 1 2.86971564892
9 11 1 1 9 -1 -415.449027632
9 3 1 1 2 -1 -30.5767796946
10 6 1 1 5 0 -261.290779004
3 6 -1 -1 8 1 32.5654733603
10 1 1 -1 5 0 -518.540734128
4 3 -1 -1 10 1 26.7400723317
0 5 -1 1 1 0 69.8755593033
6 6 -1 1 6 -1 2.73702641143
6 10 1 -1 0 1 -55.1093216538
2 2 -1 1 1 -1 24.7297953656
7 6 -1 1 7 -1 0.873744640681
2 1 -1 -1 10 0 119.876309342
1 8 1 1 2 1 -0.00619576971754
8 5 1 -1 7 0 -83.6575461845
4 6 1 1 0 -1 -11.6110519707
3 8 -1 1 2 1 33.6985048716
5 1 1 1 5 0 0.578436832588
7 7 -1 -1 9 1 1.83466907176
9 7 1 1 4 -1 -179.874214338
9 3 1 -1 4 -1 -2.42887656033
0 7 1 1 7 1 0.0236595656237
0 6 -1 1 3 0 135.155196114
2 11 -1 1 11 0 24.5153450257
9 0 1 1 0 0 6.7478369035
5 1 1 1 4 1 0.0
9 3 1 -1 11 0 -252.717575301
4 4 1 1 9 0 0.626507944949
8 0 1 -1 9 0 -2.13348964715
3 7 1 -1 4 0 0.0258163711563
7 10 -1 -1 9 -1 0.967352377158
0 2 -1 -1 9 0 15.1174354234
8 3 -1 1 0 1 0.534207843798
10 3 -1 -1 6 -1 0.423212663429
7 1 1 1 2 0 -0.262429067674
1 11 1 -1 5 1 0.0244577272327
1 5 1 1 8 0 0.0679106185042
6 7 -1 -1 4 1 2.94863753922
8 1 -1 -1 0 -1 0.0
4 1 -1 -1 5 -1 22.2665761584
7 9 1 -1 1 -1 -77.3869789832
3 4 -1 1 3 0 57.6299007919
7 6 -1 -1 2 1 2.37669493064
6 11 1 -1 10 0 2.0621675652
3 5 -1 1 3 1 56.2853931143
11 8 -1 -1 9 -1 0.107978538435
10 7 -1 -1 11 -1 0.477312145868
1 3 1 1 9 -1 0.0658940988968
10 8 1 1 8 1 15.3805533435
1 5 1 1 6 1 0.0649123473613
4 3 -1 1 2 1 25.8316352636
8 0 -1 -1 8 1 1.71563809709
0 7 -1 -1 4 0 29.9239916546
4 6 -1 -1 8 1 18.1069932737
5 8 -1 1 5 0 4.96284694263
8 10 -1 1 11 -1 0.353141095796
3 9 -1 1 5 1 34.8117192335
0 1 1 1 11 -1 0.0228981727656
6 1 1 -1 1 1 0.442501292082
5 7 -1 -1 4 -1 10.1755625783
7 9 -1 -1 9 -1 0.878208364449
7 4 -1 -1 0 -1 0.0
11 4 1 -1 4 0 47.8974205908
4 4 1 1 5 1 0.700606395751
4 4 -1 -1 8 -1 16.7112271104
6 2 1 1 5 0 0.767144494301
10 6 -1 1 3 0 0.0689594514933
4 2 -1 -1 10 1 27.9010595284
3 7 1 1 2 -1 -6.31462033612
10 0 1 -1 9 -1 -511.381283004
3 2 1 -1 7 0 0.0
11 0 1 1 2 1 -999.987897649
6 7 1 -1 4 1 1.23425969895
0 0 1 1 4 0 0.0236374818074
1 3 1 1 6 0 0.0594494100913
2 3 -1 1 5 -1 58.4476130951
7 9 1 -1 9 1 2.80410398953
6 2 -1 -1 8 1 6.46631394157
11 1 1 -1 9 -1 -992.000588575
7 5 -1 -1 10 1 2.7224801606
5 9 1 1 3 0 -22.0082959331
7 2 1 -1 9 -1 -16.9639798132
2 4 1 1 10 0 0.144033759254
11 4 1 1 3 -1 -207.52092725
7 0 1 1 2 0 0.401968186218
2 6 -1 -1 1 -1 68.4737978215
5 0 1 1 7 -1 0.406388968957
10 2 -1 1 0 -1 0.0887490413843
8 9 -1 -1 5 -1 0.561987963498
6 7 -1 1 0 0 1.39079997463
10 3 1 -1 2 -1 24.3947352361
1 10 -1 1 6 0 158.694977049
6 9 1 1 9 0 2.60900685335
2 6 -1 1 10 1 139.62391404
11 3 1 1 10 1 -961.538461538
5 8 -1 1 8 -1 9.72071474367
3 0 -1 1 9 0 25.5276969151
11 2 1 -1 6 -1 -582.29648497
9 7 -1 1 0 0 0.146766355783
5 5 -1 -1 6 0 10.7554573388
3 3 -1 -1 4 -1 42.0458892453
3 11 -1 1 0 1 7.06591600483
1 6 1 1 7 0 0.0515410087777
0 11 1 1 10 0 0.0154354326812
7 0 -1 -1 10 0 2.67860349405
7 0 -1 -1 11 1 2.58616962227
7 9 -1 -1 4 0 1.10370147162
2 11 -1 1 7 1 23.9560155862
9 9 -1 -1 10 0 0.303777642255
2 8 1 1 2 -1 -0.781560910873
0 5 -1 1 7 0 357.893537393
11 8 -1 -1 7 0 0.0991769499289
7 0 -1 -1 11 0 3.00701052516
8 4 -1 -1 11 0 1.68213296639
11 7 1 1 11 0 -622.085296212
9 5 1 -1 4 0 11.7363989582
4 6 1 1 6 -1 0.516511667557
6 6 1 1 10 1 2.17535049858
9 3 1 -1 3 0 8.7694897261
5 8 1 -1 3 0 0.540922177277
8 8 -1 1 4 1 0.341391723926
9 7 1 -1 8 -1 7.7917523111
9 5 -1 -1 3 0 0.0
8 3 1 -1 8 -1 -94.0075139161
5 2 -1 -1 5 -1 12.4261432486
2 1 1 1 2 0 0.0450111511549
0 7 1 1 11 -1 0.0265594585998
0 8 -1 -1 2 1 5.94893429352
5 2 1 -1 1 0 0.0
7 7 -1 -1 5 -1 1.57562654231
4 11 1 1 4 0 -0.344699587175
1 7 -1 1 0 1 51.757367568
2 1 -1 -1 0 -1 48.884852932
6 9 -1 -1 7 0 2.20468061388
7 7 -1 1 10 1 0.0
11 3 -1 -1 4 1 0.208371045479
2 5 -1 1 0 0 0.0
9 3 1 -1 6 -1 -169.003963173
0 1 -1 -1 9 1 264.998530103
1 2 -1 -1 7 1 151.033194864
6 11 1 -1 0 0 -26.7968955363
2 1 1 1 9 1 0.126260352435
3 1 1 1 1 -1 -0.166170591475
1 11 -1 -1 0 0 26.6944934337
4 11 -1 1 6 1 5.38714195363
3 10 1 -1 4 -1 0.0929061518244
0 1 -1 1 2 0 6.5736524097
7 1 -1 1 4 -1 1.77749740146
7 10 1 1 1 0 -101.331184176
0 5 -1 1 7 1 480.634512327
7 3 -1 1 0 1 1.02221238435
1 3 -1 -1 11 1 135.957647543
6 4 -1 1 10 -1 7.00054396153
1 11 -1 -1 5 1 42.2652242001
1 10 -1 1 10 0 178.410224807
5 6 -1 1 3 0 4.60634270322
6 2 1 -1 6 -1 0.0841266518119
9 11 -1 -1 9 0 0.0
11 7 1 -1 4 1 -977.303523213
3 3 -1 -1 3 1 48.0476803705
11 10 1 1 7 -1 -427.77841279
10 3 1 -1 5 -1 -254.444790963
8 9 -1 1 10 -1 0.213106373335
10 2 1 1 3 1 4.81127031048
7 5 1 1 1 1 -88.620159174
2 11 -1 -1 3 0 14.9858883074
9 6 1 -1 9 -1 -189.352342407
9 2 1 1 5 -1 2.8968450254
5 9 1 -1 5 -1 0.282668207342
9 7 -1 -1 7 0 0.587577346381
0 11 1 -1 1 1 0.00576666758357
6 1 1 1 7 0 1.10675886442
7 7 1 1 11 -1 0.0
2 3 -1 -1 8 1 63.8923152534
10 2 1 -1 2 1 -50.6599023195
7 8 -1 1 3 0 0.514763650139
0 4 -1 -1 6 -1 210.436989177
11 7 1 1 11 1 -999.854586061
5 7 1 -1 5 0 0.402563463946
0 10 -1 -1 11 -1 42.3766818751
8 2 -1 -1 9 0 1.45533887773
6 10 -1 1 2 -1 0.978257431801
7 0 -1 1 4 0 1.97318680038
3 3 1 -1 8 0 0.0050951508193
7 0 1 -1 5 -1 0.731914349045
6 7 1 -1 10 -1 -5.27289214558
9 5 1 1 8 1 9.67372553384
4 10 -1 -1 7 -1 4.91302416772
3 4 -1 1 11 1 69.1345653905
1 5 -1 1 11 0 309.251954171
10 11 -1 -1 7 1 0.136064003505
10 10 -1 1 5 1 0.144074478544
6 11 1 -1 1 0 -41.4712012595
4 7 -1 1 9 0 25.5088400022
11 3 -1 1 0 1 0.0693581196654
0 8 -1 1 3 0 982.404956192
7 5 -1 1 5 1 1.55816181178
10 2 -1 -1 8 -1 0.488029461696
5 0 -1 1 7 0 8.69385227772
4 6 1 -1 10 1 -0.581177737297
11 9 1 -1 9 0 71.8825100749
3 8 -1 1 3 0 36.6796974325
11 11 1 1 4 -1 -729.979771735
10 4 1 1 6 -1 11.9155918448
0 4 -1 1 0 -1 -0.00773207299303
7 3 -1 1 7 -1 2.07857774408
2 7 -1 -1 0 0 28.8641984735
5 0 -1 -1 1 1 9.30858639985
3 8 1 -1 6 -1 0.0756351732713
6 6 1 1 10 0 2.53716480968
6 8 -1 1 3 0 1.81497131502
11 6 1 1 10 -1 -1000.0
1 9 1 -1 11 -1 0.0
1 8 -1 -1 6 -1 28.1075040111
10 7 -1 1 1 0 0.115549842803
11 6 -1 -1 10 1 0.368142540433
0 11 -1 -1 4 0 42.0697449495
7 10 1 -1 7 1 3.38414849576
8 6 -1 -1 8 -1 1.39185918212
10 4 1 1 4 0 14.5716016749
4 7 -1 -1 2 0 12.3760282749
11 0 1 -1 8 0 -920.332178196
0 9 1 1 7 0 0.018892758241
1 8 -1 1 5 -1 130.719803003
5 2 1 -1 5 1 0.067001110207
4 6 -1 1 0 0 11.2384968805
6 2 -1 1 8 -1 7.45665231347
7 0 1 1 7 1 0.0
11 8 1 -1 3 1 -754.327940112
8 2 -1 1 8 1 2.77267119395
6 11 -1 1 5 -1 1.25313409293
9 4 -1 -1 9 1 0.828618773037
5 1 -1 1 4 0 8.88100151731
8 8 1 -1 10 1 -106.098738172
4 2 -1 1 6 0 20.9311381078
2 3 -1 1 3 -1 66.7648731128
6 8 1 -1 0 1 -33.1915122672
3 10 -1 1 2 1 9.70448654323
10 1 1 1 6 -1 -405.406673644
8 4 -1 -1 10 1 1.87247426619
1 1 -1 1 3 -1 38.2093519818
1 1 -1 1 1 0 4.09263856955
4 6 -1 -1 2 1 16.411616992
3 9 -1 -1 9 0 5.86288273814
1 5 -1 -1 0 0 62.9760533986
5 2 -1 1 8 1 12.6849467748
7 3 1 1 2 -1 -45.4395290184
8 7 1 -1 3 0 -0.884199004849
10 10 1 1 2 1 -681.418515784
2 11 1 -1 9 0 0.0473729013988
3 7 -1 1 4 1 33.9320577121
2 4 -1 1 10 0 143.36159873
6 5 1 1 6 1 2.8482584899
10 2 -1 -1 9 1 0.618507992753
8 7 1 -1 2 1 -4.16357208528
4 7 1 1 7 1 0.599547599716
1 11 -1 1 5 0 81.0533727443
7 3 1 -1 7 1 -14.5346848326
1 1 -1 -1 2 0 64.7589807661
1 7 1 1 9 1 0.0670175315177
3 5 -1 -1 7 0 35.1346498393
3 4 -1 1 10 -1 71.9997548263
10 2 -1 -1 4 -1 0.247437685389
0 1 -1 1 11 0 392.673227772
7 1 1 1 5 1 0.702527803806
5 4 1 -1 8 1 -0.639350955539
10 6 1 -1 10 1 -541.583513544
5 1 -1 1 2 -1 6.50616592936
2 1 -1 1 4 -1 43.341379921
5 10 1 1 1 -1 -23.7190858313
1 4 -1 1 8 1 140.593596204
0 8 -1 -1 2 0 6.45487591248
11 1 1 1 5 -1 -872.160389604
4 9 -1 -1 10 0 4.00664283373
6 10 1 -1 7 -1 1.51861337407
11 7 1 -1 8 -1 72.3907628005
6 3 -1 1 3 1 5.19252463822
4 0 -1 -1 5 1 14.5130648244
10 7 1 -1 9 -1 -23.4846942305
4 5 -1 1 2 -1 15.5746263887
0 9 -1 -1 3 0 0.233096806731
9 0 1 1 9 -1 -73.0268039776
2 7 1 -1 11 1 0.0
1 0 -1 1 0 -1 204.750532102
6 5 -1 -1 8 0 5.4283872413
2 5 -1 1 2 -1 18.9416212037
0 5 1 1 3 1 0.0211999406772
7 0 1 -1 10 1 -9.6302769185
10 4 1 1 8 0 18.1499790149
4 6 1 1 9 0 0.627548934449
7 11 -1 -1 9 -1 0.727964179994
3 1 -1 -1 4 -1 44.418976831
8 8 -1 -1 3 1 0.570344845753
0 11 1 1 8 -1 0.0117071399391
4 4 -1 -1 3 1 23.2392829809
2 2 1 1 5 0 0.0947511997005
2 4 -1 -1 2 0 75.7021609765
6 1 -1 -1 6 0 5.58934852591
10 10 -1 1 5 0 0.13465697163
10 4 1 -1 0 0 25.7412390435
6 7 1 -1 8 0 -2.47003607174
7 8 1 -1 4 -1 0.0
1 2 -1 1 5 -1 15.2202856752
1 3 -1 -1 10 -1 181.17344514
1 7 -1 1 8 -1 223.932235998
6 1 -1 1 5 -1 4.79612345784
2 6 1 1 3 0 -0.445618958098
10 0 -1 1 5 0 0.520704844559
9 4 -1 -1 8 0 0.944786894815
2 8 -1 -1 4 0 18.0191539936
2 7 1 1 3 1 -0.0345168474462
1 7 -1 -1 7 1 55.6587336412
3 7 1 1 11 0 0.266700483085
7 5 1 -1 11 1 -40.8465176364
6 1 -1 -1 10 1 3.92265701093
2 2 1 1 3 -1 0.0319094895995
5 9 -1 1 9 -1 0.0
7 11 1 -1 0 0 -88.403728415
2 9 -1 1 11 0 40.0879438976
1 11 -1 -1 10 0 69.7415128421
8 2 1 1 3 1 1.4631700528
10 0 -1 -1 6 1 0.454219736899
5 2 -1 -1 0 1 5.65454653095
10 4 -1 -1 11 1 0.712911417666
8 0 -1 -1 6 -1 1.19338631721
0 2 1 1 1 -1 -0.0130366586038
2 11 1 1 2 0 -0.034212117597
5 11 -1 1 9 1 3.03790486851
9 3 -1 -1 8 1 0.849607615624
6 8 -1 -1 6 -1 4.12810702692
10 6 -1 1 6 0 0.109511059974
5 5 -1 -1 8 -1 10.5642999492
5 4 1 1 4 0 -1.36194713564
11 2 1 -1 4 0 -889.653393675
8 0 -1 -1 0 1 0.0
1 11 -1 1 1 -1 50.4721370951
5 7 1 1 7 -1 1.28579295407
7 9 1 1 11 0 5.96845682846
8 8 -1 1 5 -1 0.3050407578
7 6 -1 -1 5 0 3.80213382673
2 5 -1 1 3 0 105.693352545
1 0 -1 1 5 1 125.326635855
11 10 -1 1 10 -1 0.0942911997847
6 1 -1 1 7 -1 5.6386941571
2 1 -1 -1 11 -1 96.2383929209
4 1 -1 1 6 0 13.4404550073
10 6 -1 -1 6 0 0.257872347889
6 6 1 -1 7 0 -0.493128752736
2 11 -1 -1 9 0 27.6958428274
5 0 1 -1 7 -1 0.257064267801
2 5 -1 1 9 1 103.90680367
6 10 1 -1 11 -1 1.56621762104
11 2 -1 -1 1 1 0.119315894614
3 4 -1 1 8 0 48.1962039631
4 10 -1 1 5 -1 6.67584283369
0 5 -1 -1 9 -1 62.0312427852
3 10 -1 1 1 -1 7.71237317856
0 1 -1 1 10 -1 340.480661385
1 1 -1 1 9 0 69.8723031341
1 3 1 1 4 -1 0.0543027179977
1 8 1 1 1 -1 -0.490939475747
9 9 -1 1 7 1 0.143162726333
3 5 -1 1 2 0 0.0
10 0 1 -1 11 0 -284.945282793
7 9 1 -1 7 -1 3.28702044897
8 0 1 -1 2 0 1.20355328578
10 9 1 1 7 -1 -625.846737149
0 3 1 1 11 1 0.0306053397308
3 11 -1 1 1 -1 7.19142491927
7 3 1 1 3 -1 -14.5053358366
5 6 -1 -1 1 0 6.87810515335
9 9 1 1 2 -1 -282.122487918
6 5 -1 1 10 0 9.03050482132
6 11 -1 -1 2 1 1.65684539108
2 8 1 -1 9 1 0.00184583080394
10 3 -1 -1 7 0 0.423491131815
6 5 1 -1 9 -1 -3.73367614705
11 7 -1 -1 5 -1 0.0
1 1 1 1 5 1 0.07806040139
1 7 -1 1 4 -1 158.553341567
9 10 -1 1 0 -1 0.0
8 8 1 1 11 0 0.0
1 0 1 1 9 0 0.0383336938248
2 5 1 1 11 0 0.0986714380777
9 7 1 1 7 -1 -230.817325603
4 5 1 -1 7 0 -0.112138201041
5 0 -1 -1 11 1 8.44313409286
10 7 -1 -1 9 0 0.261730069127
11 1 1 -1 8 1 -873.537289753
9 9 1 1 7 0 -324.107688057
8 8 -1 -1 11 0 0.768276479608
0 2 -1 1 9 0 1.22466061938
4 11 -1 1 6 -1 4.97528045302
7 0 1 -1 0 1 1.0455700076
7 1 1 1 6 1 0.468731285887
0 5 1 1 8 1 0.0294637426698
6 5 1 1 2 -1 -49.8268068611
7 1 1 1 0 -1 -0.530879730706
8 10 -1 1 10 -1 0.364583941437
4 4 1 -1 2 -1 0.0
1 9 -1 -1 1 1 4.05221002753
7 5 -1 -1 5 -1 3.4508644763
8 10 -1 -1 5 1 0.606256600041
5 7 1 1 11 -1 1.08280901453
7 6 1 -1 2 -1 0.0
5 6 -1 -1 5 -1 11.3291914171
8 11 -1 -1 9 0 0.487336565466
2 3 -1 1 10 1 76.3525313314
4 4 -1 1 10 0 45.8403535448
9 7 1 1 7 1 0.874632767053
9 7 1 1 6 0 -277.358592389
6 8 1 -1 4 -1 -0.0617889563511
6 7 -1 1 2 -1 3.2982227642
9 1 -1 -1 3 0 0.591491002953
4 2 -1 -1 6 1 26.9889123415
11 11 1 -1 3 -1 -1000.0
10 9 1 1 8 0 -383.614621056
4 7 1 1 0 1 -8.17837915362
6 8 1 1 7 1 2.79743849009
1 10 1 1 0 0 -0.0752369435672
10 3 1 1 4 -1 8.35157924196
8 9 1 1 4 0 -133.317622961
2 4 -1 -1 11 0 63.8592346812
5 0 1 1 5 1 0.243411885454
2 4 -1 -1 10 1 69.7072216645
1 6 -1 1 8 0 194.935030862
5 9 -1 -1 3 0 3.60254591963
3 6 1 1 1 1 -4.90935963478
4 3 1 1 3 1 0.0499727920193
9 2 1 1 1 0 -0.734222642803
3 2 -1 1 4 0 27.5804126416
9 10 1 -1 5 -1 -226.238505107
6 3 1 -1 7 1 -6.62621726958
2 2 -1 1 0 0 99.2568085299
10 5 1 1 1 0 -560.678889418
1 3 -1 1 9 1 67.8482934562
9 10 1 1 6 1 -338.088641553
7 7 1 1 1 0 -124.002103536
4 9 -1 -1 3 0 5.63533409931
7 7 1 1 0 1 -131.117257293
6 10 1 1 10 0 2.11050993229
11 2 1 -1 7 -1 -849.101776449
8 10 -1 1 9 0 0.328015798306
11 2 1 1 4 1 -997.822931785
3 8 1 -1 3 0 0.0232107703535
5 4 1 1 11 -1 1.22671686999
3 8 1 -1 2 1 0.0534053287668
7 5 1 1 6 -1 -6.71886317813
11 6 -1 -1 5 -1 0.144170384454
6 3 1 1 1 0 -21.9397307154
7 0 -1 -1 7 1 3.02331074652
9 6 1 1 0 1 -265.77928312
9 6 1 -1 1 0 -218.655670494
3 6 -1 -1 0 -1 22.8875946407
10 8 -1 -1 10 0 0.260579146032
11 7 -1 -1 8 0 0.220605500815
7 5 -1 1 1 -1 0.817850650688
5 6 -1 -1 10 0 9.99500969025
6 11 1 -1 4 -1 -26.616657106
2 8 -1 -1 7 -1 23.7486499018
8 6 -1 1 7 0 0.0
2 4 -1 1 9 -1 118.567945081
5 7 -1 1 7 -1 3.93503090267
7 3 1 1 10 0 3.10315854458
1 7 -1 1 7 0 199.459056351
7 8 1 1 9 0 5.93763388885
11 1 -1 -1 4 1 0.263804751314
11 0 -1 -1 0 1 0.0762271768314
4 11 1 -1 4 0 -1.53834482072
9 11 1 -1 7 1 -18.0681116732
10 3 1 1 6 1 -47.391940313
3 3 -1 1 7 0 37.0092917003
6 10 -1 -1 9 1 1.18923547796
0 4 -1 -1 3 0 162.634924989
6 5 -1 1 9 -1 3.67561403586
10 7 1 1 11 -1 -130.969152349
7 2 -1 1 11 -1 5.88139993195
10 6 1 1 10 -1 -326.634724241
7 5 -1 -1 2 1 4.97689297876
3 6 1 -1 1 1 0.00783317875183
3 11 1 1 7 0 0.134683883363
8 4 1 1 9 1 0.0
6 7 1 1 2 -1 -58.1408613821
7 2 -1 -1 0 1 1.41196648393
8 2 -1 1 7 -1 1.04836313648
2 6 1 1 4 1 0.126490617364
1 5 1 1 3 0 -0.0205448633855
11 11 1 -1 7 0 -999.90457358
1 7 -1 -1 0 0 34.2147014237
9 1 -1 1 5 -1 0.702221782971
6 5 -1 -1 7 -1 5.60730218143
5 8 -1 -1 5 -1 6.92655134743
6 5 -1 1 2 1 2.44470187552
3 6 1 -1 8 -1 -0.0215717292806
8 4 -1 1 2 1 0.606422743312
3 11 1 -1 3 0 0.0657781971763
2 10 -1 1 10 -1 73.6560083394
6 6 1 -1 4 -1 1.28803587322
9 6 -1 -1 3 1 1.07495529523
9 0 -1 1 8 1 1.29102458211
4 9 -1 1 0 1 8.75214830148
1 3 -1 -1 7 1 146.044244195
1 0 1 1 1 -1 -0.00270155236315
1 3 -1 -1 6 0 124.934279876
8 1 -1 1 9 0 2.31709883324
4 11 1 1 8 0 0.391332813139
9 10 1 1 10 1 17.8344021869
11 2 1 -1 2 0 -129.658202228
3 1 -1 1 5 0 14.6531861744
4 2 1 1 3 1 -0.454326720389
4 2 1 1 2 0 -0.587746451013
5 0 -1 -1 0 -1 7.10696199209
3 11 -1 1 2 1 7.13488388541
9 11 -1 -1 5 0 0.0
7 5 -1 1 8 1 2.46058535497
7 11 1 1 1 -1 -92.8375004954
11 2 1 1 8 1 -798.846452651
9 4 -1 1 2 1 0.260166201668
8 7 -1 1 0 1 0.192342782699
8 11 -1 1 2 0 0.454559622422
6 0 -1 1 10 0 6.45993108457
10 5 1 -1 6 0 -71.6586062865
3 4 -1 -1 2 -1 27.6235139576
9 6 1 1 9 -1 16.3877809878
11 4 -1 1 2 1 0.0509093622974
11 6 1 -1 4 0 -28.1052625386
4 8 1 -1 8 -1 0.220003776183
0 8 -1 -1 11 -1 27.9084092891
4 7 1 1 1 0 -12.38157494
1 8 -1 -1 11 -1 23.2707653269
1 6 -1 -1 6 1 105.822089537
7 7 1 1 7 -1 -8.37563852454
2 3 -1 -1 4 1 84.0003150275
9 9 -1 1 1 1 0.0
5 9 -1 -1 6 -1 4.3660294693
3 8 -1 -1 8 -1 12.7942247768
7 7 1 -1 4 1 1.98004264493
6 8 -1 -1 0 -1 1.99461977629
5 2 1 -1 6 1 0.0404762499869
10 9 1 1 3 0 -267.807490513
7 0 1 -1 9 -1 -2.26892948724
11 4 1 -1 0 -1 -990.215560284
8 6 1 1 6 1 -0.625974233682
3 8 -1 1 7 1 29.2484176914
2 9 1 -1 3 0 0.0130022734286
6 0 1 -1 9 -1 -0.232956361234
8 2 -1 1 5 1 1.01388745324
7 0 1 1 2 1 0.347317734863
8 7 -1 -1 6 0 0.910907572244
2 1 1 1 5 0 0.0892637868883
10 7 1 1 2 -1 -462.240759555
11 3 1 -1 1 0 58.9365884802
2 8 1 1 7 0 0.10629789937
4 10 -1 1 1 0 4.31418118693
10 4 1 1 7 -1 15.8640139437
8 9 1 -1 0 0 -143.788359802
1 4 -1 1 10 -1 197.273666928
7 3 -1 -1 4 1 4.46477958136
1 10 1 -1 4 0 0.0247984885602
8 1 1 1 4 -1 1.04653017355
8 6 -1 1 2 0 0.137960780755
10 4 1 -1 4 1 -78.5274243549
4 2 -1 1 10 1 28.6499141376
4 6 1 1 3 1 -9.00529491455
8 1 1 -1 11 1 -25.7435057103
7 8 -1 -1 4 -1 1.50327607383
4 4 1 1 0 -1 -17.8386718986
5 7 1 -1 7 1 0.191124259635
9 11 -1 1 3 0 0.235767569703
4 4 1 -1 5 1 0.0476445045408
4 3 1 -1 9 0 0.0
2 1 1 1 3 -1 -0.0192631053089
1 4 1 1 1 -1 -0.74662345988
5 8 -1 -1 6 0 5.75982132759
0 4 1 1 7 1 0.0307201780194
1 9 1 -1 4 0 0.00986894730812
10 1 -1 -1 8 -1 0.82325251518
3 4 -1 -1 8 -1 40.2206688638
11 3 1 1 2 -1 24.7002373769
2 7 -1 1 8 -1 108.857877193
0 5 1 1 1 -1 -0.0285409763254
8 2 -1 1 2 -1 1.22756929537
4 0 1 1 10 -1 0.0
7 5 -1 -1 3 -1 2.25414131735
3 1 1 -1 7 0 0.0
3 11 1 1 1 0 -2.22710048557
3 11 1 1 0 1 -2.28344680348
1 11 1 -1 6 -1 0.0201254618549
0 1 1 1 0 1 0.00385881446519
0 1 1 1 1 0 0.00776825510507
7 1 -1 -1 11 0 2.47303484519
2 4 1 1 3 1 0.120007421737
8 4 -1 1 7 1 1.1789078984
8 8 1 1 3 0 -169.357189339
8 9 1 1 2 0 -113.000282652
3 5 1 -1 9 0 0.00319196697163
11 7 1 1 9 0 -22.0635930072
10 1 1 1 5 0 -591.45593621
5 3 1 1 5 1 0.803258780216
9 3 1 1 6 0 5.01692890729
9 11 1 -1 10 -1 11.922255864
3 9 -1 1 1 -1 17.165536247
6 9 1 -1 0 0 -31.5016663026
6 9 1 1 1 0 -50.8487286376
11 9 -1 1 8 -1 0.0662287787541
3 11 -1 1 8 1 11.19138454
9 5 1 1 2 -1 -236.19304567
1 5 1 1 2 -1 -0.0497982201504
8 5 1 1 4 0 -69.0544392721
1 11 -1 -1 2 1 14.2717625267
10 3 -1 -1 0 -1 0.0
1 9 -1 1 9 -1 214.179401132
0 9 -1 1 1 -1 757.686673656
4 2 1 1 4 0 -0.103212085738
3 2 1 1 9 1 0.218498467015
8 8 -1 1 9 1 0.482767315395
3 5 -1 1 7 -1 72.8705314284
7 4 1 -1 10 1 -25.9170122435
5 3 -1 -1 2 -1 0.0
4 5 -1 1 6 0 18.0452035996
9 10 1 1 11 1 20.3567558056
4 7 1 -1 3 0 0.188006567572
5 5 1 1 1 -1 -22.0503321456
4 2 -1 -1 1 -1 11.4896979902
9 6 1 1 6 1 -6.35540377595
4 4 -1 1 10 -1 34.1232924784
5 7 -1 1 4 -1 4.47939139999
6 3 1 -1 3 0 0.383503657965
2 1 -1 1 0 0 53.59760818
10 11 1 -1 9 -1 -135.819914871
5 3 -1 -1 6 1 11.7916017656
11 2 1 -1 10 1 -878.358868866
5 1 1 1 5 -1 0.0
6 1 -1 -1 9 -1 4.84748269238
8 1 -1 -1 7 1 1.51241369753
7 5 1 1 11 0 -4.51637162226
0 11 -1 1 11 0 713.506985844
10 11 1 1 2 1 -562.418546707
2 5 -1 1 3 -1 125.062545052
9 3 -1 -1 3 -1 0.41762151113
8 0 -1 -1 1 -1 0.412074907959
9 2 1 1 8 1 -94.1706245951
9 10 1 -1 8 1 -0.100771656304
1 2 -1 1 5 0 18.192559599
11 5 1 -1 11 -1 -1000.0
10 5 -1 -1 5 1 0.434815083978
4 8 -1 -1 3 1 13.274507053
3 4 1 1 10 1 0.289600321485
1 8 1 1 6 -1 0.0437799700682
10 4 -1 -1 2 -1 0.776731033463
2 4 -1 -1 7 -1 62.7059245352
4 7 1 -1 4 -1 0.195897656233
5 4 1 -1 6 -1 0.0906508501243
9 2 1 -1 3 0 -10.2064968209
8 1 -1 -1 1 -1 0.889342981608
0 1 -1 -1 4 -1 252.372362889
3 6 1 -1 7 1 0.022899628005
5 2 -1 1 9 -1 15.1414140832
6 4 -1 -1 5 1 6.16012983521
6 0 -1 -1 10 -1 5.23118334881
7 3 1 -1 8 1 -10.4448675968
7 3 1 -1 9 0 -14.0814565729
5 8 -1 -1 3 -1 4.98827415762
11 10 -1 1 7 1 0.10451131022
10 1 1 -1 9 0 -442.09128347
5 10 1 -1 7 1 0.659195248778
6 3 -1 -1 5 1 6.57473017135
1 9 -1 -1 3 -1 7.17865370022
4 4 -1 1 0 1 10.3227067264
7 10 -1 1 11 -1 0.487024878762
4 6 1 -1 0 0 0.488737762201
4 8 -1 1 6 0 10.9382539687
9 6 1 -1 9 0 -222.748732452
0 5 -1 -1 10 -1 263.001056422
3 10 1 -1 9 1 0.107985137116
5 6 -1 1 3 -1 4.50930871477
6 10 1 1 2 -1 -44.0679380529
8 4 1 -1 11 1 -114.993371089
2 0 -1 1 2 1 61.1712116111
10 6 1 1 5 1 2.99338147695
10 1 1 -1 5 1 -432.682890552
5 2 -1 -1 1 1 4.59206699816
0 5 -1 1 1 1 775.708592926
7 11 -1 -1 2 1 0.694590998578
8 9 1 1 5 -1 -197.083322256
1 1 1 1 11 0 0.0797643451484
1 10 1 1 1 -1 -0.0995750028111
0 9 1 1 3 -1 0.00853569115693
7 6 -1 1 4 1 0.878014347325
8 5 1 -1 7 1 -86.4000706853
3 8 -1 1 2 0 0.0
5 5 -1 -1 7 0 9.45241042457
3 0 -1 -1 6 -1 46.3523268981
1 11 1 -1 9 1 0.0233765474656
0 7 1 1 7 0 0.0254543938522
1 1 -1 1 8 0 40.8957391217
7 2 -1 1 10 0 4.37062467257
9 0 1 1 0 1 6.31205250358
7 3 -1 1 8 -1 2.59793481377
11 8 -1 1 9 0 0.0470245034025
4 4 1 1 9 1 0.516741957569
6 1 -1 1 1 0 0.448267741139
8 0 1 -1 10 0 -63.0306162237
3 7 1 -1 4 1 0.12474857874
3 9 1 -1 10 -1 0.0734027252336
0 2 -1 -1 9 1 38.1402097319
8 3 -1 1 0 0 0.522161051251
11 4 -1 1 4 1 0.0311663585167
0 10 -1 -1 0 -1 0.386524120352
11 7 1 -1 2 0 -869.472248623
0 1 -1 1 1 -1 62.1421993892
1 11 1 -1 5 0 0.0272023568602
2 9 -1 -1 0 -1 0.529219800061
8 10 -1 -1 11 0 0.587219526053
9 9 1 -1 5 -1 -277.118185272
8 11 -1 1 11 -1 0.440284452745
3 4 -1 1 3 1 47.9307799642
10 3 -1 1 1 0 0.10478812116
3 5 -1 1 3 0 35.0065263387
9 2 -1 1 6 1 0.888442731698
1 3 1 1 8 -1 0.0686618040489
4 10 -1 1 6 0 4.55380503824
10 8 1 1 8 0 -53.1132018098
2 2 -1 -1 5 -1 69.6922018587
10 10 1 -1 5 -1 -630.28843239
5 0 -1 1 7 1 9.25800050248
11 5 1 -1 7 -1 -367.429995118
1 9 -1 1 3 -1 152.597767601
6 5 1 -1 10 1 -7.04518148954
1 5 1 1 6 0 0.0707796893342
0 7 -1 -1 4 1 78.8460432157
7 3 1 1 4 0 1.4356888685
5 8 -1 1 5 1 5.13499534859
9 11 -1 1 4 -1 0.276133878526
3 9 -1 1 5 0 21.0282954539
2 10 -1 -1 2 1 9.47340662183
4 9 1 -1 8 1 0.245803501121
6 9 1 1 5 -1 -27.2662069682
7 11 1 1 9 -1 3.34038281602
6 8 1 -1 9 -1 0.199137163944
10 8 -1 1 10 0 0.0758081573235
6 8 1 1 4 1 -33.5696595777
10 9 1 -1 2 -1 -539.115209202
7 10 1 -1 0 -1 -44.6230131999
4 2 -1 -1 10 0 28.7369636263
5 11 1 -1 11 -1 0.791841206073
6 9 -1 1 11 -1 4.49381825256
5 9 -1 1 4 -1 3.41661715616
2 3 -1 1 4 -1 55.1136095574
8 2 1 1 1 0 -35.5075920462
8 11 -1 -1 7 -1 0.627620812867
7 9 1 -1 9 0 3.01640133086
9 9 1 1 10 1 20.884506596
1 8 -1 -1 3 -1 13.8624079104
0 2 1 1 5 1 0.0258034930435
7 5 -1 -1 10 0 2.99343572567
2 9 -1 -1 1 1 0.361425260038
11 4 1 -1 10 1 -985.060347274
4 11 -1 1 10 -1 8.8985952356
1 2 -1 1 3 0 8.03871023482
6 2 1 1 6 -1 1.46758820934
3 7 -1 -1 0 1 19.5245025948
0 9 -1 1 0 -1 145.645471293
8 0 -1 1 6 -1 1.16786709946
10 11 -1 1 7 -1 0.0
0 1 -1 -1 2 -1 121.899402785
7 11 -1 -1 4 -1 0.83177905699
3 9 1 -1 11 1 -0.593592416364
9 8 1 -1 4 1 -29.3954177457
11 3 1 1 10 0 -925.925925926
11 6 -1 1 7 0 0.0233555525747
3 8 -1 1 3 1 0.0
7 9 1 1 10 -1 4.4578605018
5 0 -1 -1 1 0 6.50225070228
3 0 -1 1 9 1 32.5276501975
7 0 -1 1 1 -1 2.85036167215
9 7 -1 1 0 1 0.142841216571
6 3 1 1 6 1 1.96292609273
4 6 -1 -1 10 1 17.7272156682
4 5 -1 1 8 1 25.5263942537
0 11 1 1 10 1 0.014841525498
2 4 1 1 9 -1 0.141441951491
7 0 -1 -1 10 1 2.94109763643
5 5 1 1 8 -1 1.23447384818
7 2 1 -1 10 1 -33.3203410849
0 11 -1 1 7 -1 423.658376728
2 10 -1 -1 0 -1 2.86634911289
1 8 -1 1 6 -1 145.153926965
8 4 1 -1 10 -1 -46.9451015399
7 8 -1 1 6 -1 1.15206646933
8 6 1 -1 10 0 -76.9680049202
8 6 1 -1 11 1 -105.483586753
3 7 -1 -1 10 -1 22.7242052111
9 5 1 -1 4 1 -1.05750371146
5 11 -1 -1 6 0 2.20819477223
6 10 -1 -1 10 1 1.76781755486
6 3 1 -1 10 0 -5.02895559163
4 10 -1 1 11 1 7.20863072043
5 7 -1 -1 2 0 7.92701320525
1 3 1 1 11 0 0.0784685400419
2 10 1 -1 0 1 -0.0379291446275
9 8 -1 -1 9 1 0.386206060472
2 7 1 1 9 1 0.141157334198
7 2 -1 1 6 -1 1.78171854128
4 1 -1 1 11 0 23.0644576223
